svm_type c_svc
kernel_type rbf
gamma 0.0078125
nr_class 24
total_sv 841
rho -0.123964 -0.0857153 -0.0163664 -0.112889 -0.103725 -0.140879 -0.0597142 -0.0639534 -0.0740499 -0.0868896 -0.0727993 -0.08389 -0.0803854 0.186045 -0.109494 -0.0525741 -0.0449581 -0.0102604 -0.120589 -0.0784977 -0.10545 -0.0197335 0.0822566 0.0535752 0.00347908 0.0102831 0.00955704 0.0540571 0.0102752 0.0629264 0.00787333 -0.00369549 0.0264125 0.0491165 0.0141872 0.267296 0.0177726 0.059062 -0.0773871 0.0409064 0.114328 0.0297128 0.0305732 0.0856501 0.132389 0.00407585 -0.0165611 -0.000345168 0.0140795 0.00607873 0.0557693 -0.0836008 -0.0108199 0.0538951 0.0119304 -0.0383859 0.197027 -0.0107322 0.0425593 0.0152197 0.0107755 0.0190459 -0.00311982 0.0178569 0.0262572 0.0929035 -0.0196699 -0.0193596 -0.00624965 -0.0134867 -0.012818 -0.0104777 -0.00601817 -0.0166112 0.00508879 -0.0275524 0.188894 -0.0204909 -0.0064143 0.0145878 0.00276677 0.0196486 -0.0286134 0.00540154 0.0284775 0.0524652 0.0449033 0.0169667 0.00140411 0.08422 -0.0136592 0.0130344 0.0110799 -0.0443036 -0.034947 0.286968 -0.0362227 0.0141763 0.0938438 0.0482631 0.0833211 0.0526627 0.036845 0.0602647 0.104193 0.034259 0.0186513 0.0604244 -0.0424804 -0.0132203 -0.00280715 0.00130371 -0.0323124 0.307008 -0.0250304 0.0304819 0.0342103 -0.00997978 0.0574584 0.020749 0.0400278 0.046566 0.0956402 -0.00261368 -0.00606059 -0.0184948 0.0138906 0.0394098 -0.0247611 -0.0192998 0.346757 -0.0427121 0.0188656 0.0330742 0.0239481 -0.00983215 0.0094353 0.000242036 0.0367387 0.115589 0.0399775 -0.0330504 -0.0229527 0.00416782 0.016314 -0.00914975 0.227779 -0.0196936 -0.00473713 0.033103 0.00531497 0.11049 -0.00736151 0.0023581 0.111977 0.0708861 -0.0713293 -0.0169131 -0.0441223 -0.0487533 -0.0504393 0.172052 -0.0312343 0.0242748 -0.0490243 -0.0371933 0.0297986 -0.0551478 -0.0380446 0.053204 0.00774434 0.024195 0.0259378 0.0112316 -0.000527797 0.249967 0.021648 0.0521345 0.050957 0.0746151 0.0815292 0.0237141 0.0368084 0.0444394 0.163215 0.022848 -0.0530589 -0.0455404 0.244944 -0.0372879 0.0267939 0.0375633 0.0129072 0.0535536 0.0354037 0.0029295 0.0277766 0.126363 0.00502093 -0.0819197 0.322067 0.0109469 0.00931947 0.00944516 0.0328223 0.0225355 0.00427202 0.0035315 0.00945895 0.071495 -0.0270881 0.242455 -0.0422118 0.0337934 0.118347 0.0672754 0.0312443 0.0515082 0.0216552 0.0217273 0.123538 0.297429 0.0255079 0.063312 0.0450374 0.00956613 0.116122 0.0361684 0.061216 0.103759 0.0336944 -0.28506 -0.209565 -0.204076 -0.129545 -0.261398 -0.256168 -0.26684 -0.217202 -0.0752675 0.0194309 0.00506802 0.0427861 0.0264439 0.0325288 -0.00297489 0.051765 0.119124 0.0830136 -0.00825232 0.0472384 -0.00945455 -0.0222158 0.0528442 0.0325844 -0.0336263 0.0120931 -0.0267636 -0.00978867 -0.0443794 0.0415757 0.0374036 0.0203713 0.00593954 0.00252495 0.126419 -0.0588609 -0.00786683 -0.00916671 0.0222337 0.0405957 0.00910499 0.0663321 0.000972818 0.0935776 0.0495552
label 23 8 7 14 17 11 22 4 3 5 1 12 9 0 2 13 18 20 21 19 15 10 6 16
nr_sv 55 21 48 21 51 40 60 26 23 30 37 37 42 35 40 25 36 25 36 20 28 35 33 37
SV
0 1.278675996139626 0 0 0 0 0 0 0 0 0 1.214224473558979 0 0 0 0 0 0 0 0 0 0 0 1:0.126697 2:-0.594493 3:0.940117 4:-0.52021 5:0.37268 6:-0.162541 7:-0.387619 8:-0.426457 9:-0.118328 10:0.500796 11:-0.436693 12:0.367301 13:0.00869023 14:0.366678 15:0.162655 16:-0.329185 17:-0.271068 18:-0.100937 19:-0.1611 20:-0.587634 21:-0.727227 22:0.0464918 23:0.356699 24:-0.102709 25:-0.272552 26:0.267361 27:0.321238 28:-0.608391 29:-0.107642 30:-0.298353 31:-0.604485 32:-0.289979 33:-0.0695352 34:-0.103261 35:-0.154579 36:-0.380696 37:0.05692 38:0.405178 39:-0.387518 40:-0.502585 
0 0 0 0 0 2 0 0 0 0 0 0 0 0 0 0.5923285648658447 0 0 0 0 0 0 0 1:0.256126 2:-0.550802 3:0.900938 4:-0.546933 5:0.448385 6:-0.179132 7:-0.255229 8:-0.38504 9:-0.128417 10:0.633603 11:-0.280327 12:0.510482 13:0.200342 14:0.458168 15:0.28799 16:-0.177477 17:-0.184263 18:0.123362 19:-0.0139039 20:-0.45004 21:-0.419583 22:0.0966763 23:0.377637 24:-0.0772541 25:-0.359394 26:0.293624 27:0.35733 28:-0.658203 29:-0.0984331 30:-0.271738 31:-0.64201 32:-0.405096 33:-0.11429 34:-0.290362 35:-0.337673 36:-0.50651 37:-0.0747152 38:0.358969 39:-0.451971 40:-0.474508 
0 0 1.763096627931282 0 0 0 0 0 0 0 0 0 0 2 0 0 0 0 0 0 0 0 0 1:0.507672 2:-0.609208 3:0.496358 4:-0.4867 5:0.747928 6:-0.610549 7:-0.273289 8:-0.193535 9:-0.410953 10:0.33257 11:-0.543864 12:0.458301 13:0.296726 14:0.17143 15:-0.0650204 16:0.0338752 17:-0.248866 18:-0.274896 19:-0.0935621 20:-0.251251 21:-0.493474 22:0.0546937 23:0.354148 24:0.0300313 25:-0.18083 26:0.0635268 27:0.228092 28:-0.153384 29:-0.106416 30:-0.417701 31:-0.421208 32:-0.230618 33:-0.303776 34:-0.419472 35:-0.0915441 36:-0.0378982 37:0.137943 38:0.224763 39:-0.617074 40:-0.484744 
2 0 0 0 0 2 2 0 2 0 2 0 2 2 0 2 2 0 2 2 2 1.62116125418405 0.2330924083577753 1:0.755861 2:-0.66612 3:0.299962 4:-0.397647 5:0.724679 6:-0.868312 7:-0.224597 8:-0.193675 9:-0.612451 10:0.352847 11:-0.467213 12:0.375711 13:0.278015 14:0.418677 15:0.141021 16:-0.0255434 17:-0.253427 18:-0.228506 19:-0.0164177 20:0.0515972 21:-0.261783 22:-0.121683 23:-0.0539869 24:-0.000296972 25:0.0154773 26:0.11767 27:0.095843 28:-0.297236 29:-0.217315 30:-0.432599 31:-0.330113 32:-0.409385 33:-0.506018 34:-0.477766 35:-0.352521 36:-0.273158 37:0.0859724 38:-0.0877644 39:-0.669956 40:-0.273062 
0 0 0 0 0 0 0 0 0 0.4849039325287796 0 0 0 0 2 0 0 2 0 0 0 0 0.9976722742633211 1:0.817271 2:-0.615134 3:0.330262 4:-0.411664 5:0.801852 6:-0.651368 7:-0.151866 8:-0.112209 9:-0.467133 10:0.182127 11:-0.622094 12:0.377911 13:0.215177 14:0.202377 15:-0.182553 16:-0.201518 17:-0.425203 18:-0.508225 19:-0.295385 20:-0.231581 21:-0.455496 22:-0.241863 23:0.0151705 24:-0.121518 25:-0.152403 26:0.275496 27:0.154845 28:-0.368164 29:-0.025011 30:-0.301441 31:-0.284334 32:-0.264899 33:-0.304799 34:-0.158332 35:-0.0484147 36:-0.152765 37:0.174189 38:0.240803 39:-0.545569 40:-0.312984 
0 0 0 0 0 2 2 0 2 0 0 0 0 1.567207649065074 0 0 0 0 0 0 0 0 0 1:0.641564 2:-0.623313 3:0.396953 4:-0.394018 5:0.800164 6:-0.726228 7:-0.237508 8:-0.141388 9:-0.448272 10:0.308035 11:-0.494989 12:0.468743 13:0.246674 14:0.197107 15:-0.0509912 16:-0.082822 17:-0.248945 18:-0.26151 19:-0.222892 20:-0.154442 21:-0.308799 22:-0.197334 23:0.112664 24:0.0263425 25:-0.158787 26:0.0723187 27:0.21908 28:-0.349234 29:-0.194129 30:-0.211217 31:-0.325286 32:-0.614559 33:-0.385566 34:-0.234092 35:-0.149988 36:-0.142767 37:0.163143 38:0.124865 39:-0.634958 40:-0.314286 
0 0 0 0 0 2 0 0 0 0 0.7743836136744792 0 0 0 0.427779225010461 0 0 0 0.7461125865086519 0 0 0 0 1:0.232266 2:-0.549138 3:0.908714 4:-0.576464 5:0.28681 6:-0.312298 7:-0.328893 8:-0.412849 9:-0.197083 10:0.515461 11:-0.363145 12:0.346355 13:0.0505579 14:0.516366 15:0.176844 16:-0.36442 17:-0.243249 18:0.0404527 19:-0.129067 20:-0.513586 21:-0.55158 22:-0.00219364 23:0.324856 24:-0.210229 25:-0.470979 26:0.213356 27:0.355262 28:-0.530076 29:0.00978814 30:-0.159009 31:-0.635932 32:-0.454855 33:-0.155874 34:-0.31228 35:-0.295173 36:-0.459735 37:-0.0634932 38:0.527001 39:-0.392867 40:-0.522604 
0 0 0 0 2 0 0 0 0 0 0 0 0 0 0 0 0 0 2 0 0 0 0.6082714153865518 1:0.205533 2:-0.509052 3:1 4:-0.442956 5:0.669621 6:-0.0418999 7:-0.269817 8:-0.270753 9:0.142773 10:0.81906 11:-0.233373 12:0.519923 13:0.320468 14:0.574431 15:0.325066 16:-0.120471 17:-0.198 18:0.138138 19:0.0730539 20:-0.370337 21:-0.493711 22:0.17707 23:0.620946 24:0.0102509 25:-0.231015 26:0.412481 27:0.356564 28:-0.524964 29:-0.0685359 30:-0.279063 31:-0.617217 32:-0.384974 33:0.00806373 34:-0.187982 35:-0.228732 36:-0.368298 37:-0.0139446 38:0.575792 39:-0.270955 40:-0.402518 
0.3062138185986872 2 0 0 0 0 0 0 2 0 0 2 0 2 0 2 0 0 0 0.5529031183061566 2 0 0 1:0.358499 2:-0.656477 3:0.593327 4:-0.510044 5:0.683 6:-0.656735 7:-0.39206 8:-0.292353 9:-0.36991 10:0.464266 11:-0.538945 12:0.299916 13:0.304676 14:0.304381 15:-0.0388169 16:0.0239415 17:-0.120057 18:-0.227048 19:-0.129427 20:-0.076795 21:-0.361715 22:-0.17331 23:0.234094 24:0.203438 25:-0.0678171 26:0.00757498 27:0.110141 28:-0.296877 29:-0.283012 30:-0.708452 31:-0.578907 32:-0.308064 33:-0.339586 34:-0.440983 35:-0.229592 36:-0.255152 37:-0.0593857 38:-0.292115 39:-0.614428 40:-0.161827 
0 0 0 0 0 2 0 0 0 0 0 0 1.290098630199433 0.05506392711914891 0 1.570557352337674 0 0 0 0 0 0 0 1:0.839603 2:-0.625856 3:0.210813 4:-0.396834 5:0.960752 6:-0.751575 7:-0.232326 8:-0.0539693 9:-0.439059 10:0.286424 11:-0.324684 12:0.462017 13:0.121486 14:0.393702 15:0.132007 16:-0.193722 17:-0.281329 18:-0.210119 19:-0.250647 20:-0.242621 21:-0.183894 22:0.0560658 23:0.0617522 24:-0.110547 25:-0.152423 26:0.14006 27:0.213521 28:-0.19794 29:-0.167407 30:-0.478216 31:-0.36966 32:-0.437658 33:-0.578306 34:-0.489136 35:-0.223156 36:-0.0480972 37:0.178545 38:-0.104189 39:-0.65495 40:-0.367348 
0 1.068986750789654 0 0 0 0 0 0 0 0 0 2 0 0 0 0 0 0 0 0 0.9361857644762104 0 2 1:0.187612 2:-0.600168 3:0.753531 4:-0.591243 5:0.629071 6:-0.393049 7:-0.449044 8:-0.393291 9:-0.29443 10:0.42707 11:-0.434234 12:0.382377 13:0.0477594 14:0.249792 15:0.0539334 16:-0.256655 17:-0.241466 18:-0.0200912 19:-0.230329 20:-0.50641 21:-0.42273 22:-0.113402 23:0.245073 24:0.0970509 25:-0.170547 26:0.251829 27:0.302028 28:-0.550866 29:-0.172572 30:-0.346111 31:-0.56322 32:-0.285066 33:-0.0206897 34:-0.269618 35:-0.177187 36:-0.248199 37:-0.0155168 38:0.35416 39:-0.376029 40:-0.390252 
0 0 0 2 1.805856141335781 0 0 0.9684966049082673 0 2 0 0 0 0 0 0 0 0.3821531030821787 0 0 0 2 0 1:0.347601 2:-0.56159 3:0.773813 4:-0.506043 5:0.637002 6:-0.45928 7:-0.399812 8:-0.234091 9:-0.214408 10:0.292345 11:-0.452184 12:0.443115 13:-0.0960298 14:0.102203 15:0.0818296 16:-0.416365 17:-0.622128 18:-0.161097 19:-0.180711 20:-0.702612 21:-0.589585 22:-0.0289469 23:0.207513 24:-0.178632 25:-0.334035 26:0.234226 27:0.366204 28:-0.368923 29:-0.000766503 30:-0.162038 31:-0.400522 32:-0.185039 33:-0.0114034 34:-0.164845 35:-0.0123133 36:-0.182929 37:0.114811 38:0.87481 39:-0.223852 40:-0.385564 
0 0 0 0 0 0 0 0 0 0 0 0 0 0 0 0 0 0 0.3289345527420169 0 0 0 0 1:0.416404 2:-0.665679 3:0.55173 4:-0.468117 5:0.694384 6:-0.726153 7:-0.365575 8:-0.241508 9:-0.438707 10:0.472367 11:-0.429051 12:0.189005 13:0.163914 14:0.518485 15:0.188317 16:-0.220571 17:-0.293121 18:0.0225633 19:-0.00482963 20:-0.455064 21:-0.445332 22:0.288714 23:0.357417 24:-0.0759913 25:-0.132303 26:0.16784 27:0.135587 28:-0.37305 29:-0.284934 30:-0.602322 31:-0.488791 32:-0.456322 33:-0.462749 34:-0.316029 35:-0.142997 36:-0.411936 37:-0.0887427 38:0.160493 39:-0.570072 40:-0.49748 
1.322668871921429 0 0 2 0 2 0 0 0 0 0 0 0 2 0 0 0.8023203916830198 0 0 0 0 0 0 1:0.943573 2:-0.626812 3:0.199769 4:-0.298449 5:1 6:-0.859175 7:-0.198072 8:0.0235993 9:-0.305251 10:0.214861 11:-0.797307 12:0.374685 13:0.400201 14:0.281522 15:-0.119524 16:-0.283516 17:-0.560403 18:-0.382887 19:-0.211323 20:-0.0942529 21:-0.32252 22:-0.389996 23:0.0143641 24:0.0623983 25:-0.152074 26:0.146927 27:0.301535 28:-0.081016 29:-0.0741355 30:-0.354105 31:-0.165661 32:-0.102875 33:-0.369103 34:-0.348086 35:0.00933784 36:0.0505637 37:0.210916 38:0.15267 39:-0.564028 40:-0.25102 
0 0 0 0 0 0 0 0 0 0 0 0 0 0 1.128453006611185 0 0 0 0 0 0 0 0 1:0.420821 2:-0.679896 3:0.569882 4:-0.430782 5:0.54304 6:-0.751505 7:-0.296839 8:-0.251549 9:-0.411552 10:0.444112 11:-0.536906 12:0.241455 13:0.268133 14:0.416818 15:0.0189248 16:-0.0479173 17:-0.202879 18:-0.194824 19:-0.0346081 20:-0.195793 21:-0.46067 22:0.0480219 23:0.383076 24:0.0366232 25:-0.185643 26:0.140315 27:0.189236 28:-0.465056 29:-0.239327 30:-0.487757 31:-0.545607 32:-0.555161 33:-0.416713 34:-0.240306 35:-0.199167 36:-0.44132 37:-0.0432491 38:0.15273 39:-0.605698 40:-0.428957 
0 0 0 0 0 0 0 0 0 0 0 0 0 0 0 0 0 0 2 0 0 0 0 1:0.420409 2:-0.680129 3:0.564867 4:-0.403381 5:0.58787 6:-0.783686 7:-0.284344 8:-0.224846 9:-0.45199 10:0.486463 11:-0.489482 12:0.252703 13:0.287376 14:0.418758 15:-0.0120052 16:-0.0481469 17:-0.153485 18:-0.151405 19:-0.0394682 20:-0.216899 21:-0.457183 22:0.112839 23:0.437753 24:0.0514677 25:-0.212084 26:0.115088 27:0.182303 28:-0.488053 29:-0.258613 30:-0.493537 31:-0.596418 32:-0.573144 33:-0.397721 34:-0.282599 35:-0.21923 36:-0.418651 37:-0.019863 38:0.026326 39:-0.620252 40:-0.351159 
0 2 0 0 0 0 0 0 0 0 0 0 0 0 2 0 0 0 0 0 0 0 0 1:0.306874 2:-0.628565 3:0.659119 4:-0.493804 5:0.63357 6:-0.519201 7:-0.4123 8:-0.362511 9:-0.275052 10:0.472406 11:-0.486483 12:0.227813 13:0.0563831 14:0.384807 15:0.0524669 16:-0.346527 17:-0.267084 18:-0.0175017 19:-0.249481 20:-0.640175 21:-0.354108 22:0.143654 23:0.0995486 24:-0.0635394 25:-0.117116 26:0.261357 27:0.237334 28:-0.521664 29:-0.156692 30:-0.310118 31:-0.559503 32:-0.430997 33:-0.0631261 34:-0.183629 35:-0.199052 36:-0.282904 37:0.0572147 38:0.307537 39:-0.445329 40:-0.308327 
0 0 0 0 0 0 0 0 0 0 0 0 0 0 0 0 2 0 0 0 0 0 0 1:0.287883 2:-0.593722 3:0.68953 4:-0.572668 5:0.639021 6:-0.494083 7:-0.417238 8:-0.271592 9:-0.196153 10:0.335966 11:-0.550208 12:0.387901 13:0.112188 14:0.336868 15:0.101566 16:-0.292439 17:-0.368233 18:-0.0905449 19:-0.137196 20:-0.462416 21:-0.45174 22:0.0613078 23:0.273865 24:-0.107579 25:-0.265624 26:0.249981 27:0.375422 28:-0.379282 29:-0.18382 30:-0.450933 31:-0.521651 32:-0.297953 33:-0.150684 34:-0.255442 35:-0.143914 36:-0.279797 37:0.00980518 38:0.36847 39:-0.398925 40:-0.356562 
0.08216251133475302 0 0 0 0 0 0 0 0 0 2 0 0 2 0 0 0 0 0 0 0 0 0 1:0.3602 2:-0.655301 3:0.620058 4:-0.516779 5:0.577295 6:-0.634178 7:-0.369148 8:-0.31195 9:-0.362506 10:0.454293 11:-0.481183 12:0.304806 13:0.200172 14:0.418478 15:0.0955076 16:-0.161418 17:-0.241036 18:-0.058868 19:-0.0218995 20:-0.232943 21:-0.365444 22:-0.0434944 23:0.224775 24:0.162865 25:-0.120056 26:0.0250358 27:0.194951 28:-0.393065 29:-0.288074 30:-0.494936 31:-0.556154 32:-0.532159 33:-0.269542 34:-0.279896 35:-0.325837 36:-0.430918 37:-0.0406529 38:0.130146 39:-0.517929 40:-0.414029 
0 1.585198893598392 0 2 0 2 0 2 0 2 0 2 0 0 1.833350256179784 0 0 2 0 0 2 0 2 1:0.957937 2:-0.666612 3:0.261241 4:-0.182981 5:0.779588 6:-0.759166 7:-0.102719 8:-0.0737348 9:-0.419245 10:0.189407 11:-0.475988 12:0.566079 13:-0.00317492 14:0.0600079 15:0.0967512 16:-0.214413 17:-0.532097 18:-0.286245 19:-0.421604 20:-0.612092 21:-0.137928 22:-0.0224564 23:-0.0842662 24:-0.0322935 25:-0.237089 26:0.121896 27:0.524872 28:-0.0930634 29:-0.164888 30:-0.234047 31:-0.0809697 32:-0.270739 33:-0.348388 34:-0.232547 35:-0.0205564 36:0.100155 37:0.231236 38:0.282462 39:-0.465896 40:-0.574057 
2 1.367339925684995 0 2 2 0 0.849300412385791 1.574764113571426 0.2103127305560323 0 2 2 1.753592190801103 2 2 2 2 0 2 0.1349509765233878 1.48681180060189 1.561018983097617 0 1:0.230904 2:-0.641285 3:0.902132 4:-0.534318 5:0.158661 6:-0.138811 7:-0.431043 8:-0.474324 9:0.0257711 10:0.438298 11:-0.256937 12:0.331065 13:-0.00956021 14:0.463346 15:0.0250242 16:-0.227139 17:-0.403952 18:0.0392394 19:0.00510621 20:-0.713937 21:-0.314861 22:-0.0122337 23:0.399403 24:0.0440908 25:-0.59633 26:0.450608 27:0.324064 28:-0.82952 29:0.103557 30:-0.445952 31:-0.6086 32:-0.4026 33:-0.337902 34:-0.171871 35:-0.39433 36:-0.42579 37:0.0447333 38:0.365073 39:-0.147433 40:-0.559108 
0 0 0 0 2 0 0 0 0 0 0 0 0 0 2 0 0 0 0 1.973061271601571 0 0.4601771984204475 0 1:0.300807 2:-0.596082 3:0.704392 4:-0.636913 5:0.643492 6:-0.480223 7:-0.522785 8:-0.315577 9:-0.137804 10:0.404245 11:-0.331854 12:0.542565 13:-0.0172099 14:0.226593 15:0.120225 16:-0.256668 17:-0.194262 18:0.0947083 19:-0.14205 20:-0.56879 21:-0.299412 22:0.290971 23:0.174345 24:-0.182043 25:-0.225603 26:0.168318 27:0.157804 28:-0.4162 29:-0.0587604 30:-0.443474 31:-0.709546 32:-0.336198 33:-0.22122 34:-0.460743 35:-0.287396 36:-0.39733 37:-0.0956714 38:0.498673 39:-0.329688 40:-0.486036 
0 0 0 0.4948418342061198 0 0 0 2 0 2 0 0 0 0 0 0 0 2 0 0 0 0 0 1:0.472118 2:-0.610985 3:0.638734 4:-0.383608 5:0.728848 6:-0.550474 7:-0.365145 8:-0.256163 9:-0.283089 10:0.30707 11:-0.564967 12:0.376533 13:0.126276 14:0.117921 15:-0.226787 16:-0.310523 17:-0.466799 18:-0.280425 19:-0.230032 20:-0.485333 21:-0.655311 22:-0.321619 23:0.23145 24:0.0257934 25:-0.26882 26:0.225662 27:0.418082 28:-0.413341 29:-0.110939 30:-0.208734 31:-0.299558 32:-0.0801261 33:0.0364879 34:-0.21492 35:-0.147808 36:-0.0427337 37:0.276602 38:0.529888 39:-0.413919 40:-0.36156 
0 1.078154197817512 0 0 0 0 0 0 0 0 0 0 0 0 0 0 0 0 0 0 0 0 0 1:0.265291 2:-0.615897 3:0.70976 4:-0.480732 5:0.59918 6:-0.567354 7:-0.327635 8:-0.259708 9:-0.37408 10:0.430428 11:-0.434902 12:0.207669 13:0.0615153 14:0.448537 15:0.0948017 16:-0.333929 17:-0.28342 18:-0.10096 19:-0.274581 20:-0.438301 21:-0.415867 22:-0.196634 23:0.245441 24:0.13525 25:-0.242969 26:0.146137 27:0.339694 28:-0.597613 29:-0.237312 30:-0.315388 31:-0.592594 32:-0.463091 33:-0.11711 34:-0.171329 35:-0.152369 36:-0.308024 37:0.0357238 38:0.318599 39:-0.495628 40:-0.400284 
0 2 0 0 1.782923653541382 0 0 0 0 0 1.42933117944209 0 0 0 2 0 0 0 0 0 0 0 0 1:0.306874 2:-0.628565 3:0.659119 4:-0.493804 5:0.63357 6:-0.519201 7:-0.4123 8:-0.362511 9:-0.275052 10:0.472406 11:-0.486483 12:0.227813 13:0.0563831 14:0.384807 15:0.0524669 16:-0.346527 17:-0.267084 18:-0.0175017 19:-0.249481 20:-0.640175 21:-0.354108 22:0.143654 23:0.0995486 24:-0.0635394 25:-0.117116 26:0.261357 27:0.237334 28:-0.521664 29:-0.156692 30:-0.310118 31:-0.559503 32:-0.430997 33:-0.0631261 34:-0.183629 35:-0.199052 36:-0.282904 37:0.0572147 38:0.307537 39:-0.445329 40:-0.308327 
0 0 0 0 0 2 0 0 0 0 0 0 0 0 0 0 0 0 0 0 0 0 0 1:0.293716 2:-0.574096 3:0.777599 4:-0.539003 5:0.629249 6:-0.449025 7:-0.431809 8:-0.274427 9:-0.0876103 10:0.48438 11:-0.367797 12:0.471946 13:0.02018 14:0.289475 15:0.240546 16:-0.258691 17:-0.364399 18:-0.0442334 19:-0.146694 20:-0.432537 21:-0.407092 22:0.0424313 23:0.284968 24:-0.0902899 25:-0.315725 26:0.147339 27:0.278407 28:-0.390166 29:-0.108134 30:-0.341717 31:-0.590441 32:-0.453155 33:-0.254233 34:-0.37576 35:-0.219813 36:-0.334199 37:-0.0733238 38:0.592554 39:-0.273414 40:-0.531086 
0 0 0 0 2 0 0 0 0 0 0 0 0 0 2 0 0 0 0.3160879690522934 0 0 0 0 1:0.446605 2:-0.675747 3:0.568647 4:-0.407059 5:0.591262 6:-0.68399 7:-0.300806 8:-0.314126 9:-0.405965 10:0.541952 11:-0.471195 12:0.285178 13:0.294224 14:0.334263 15:0.0455009 16:0.0243394 17:-0.192224 18:-0.173993 19:-0.0666384 20:-0.255348 21:-0.437828 22:0.132708 23:0.382448 24:-0.0318451 25:-0.18247 26:0.151439 27:0.166941 28:-0.469716 29:-0.298557 30:-0.495348 31:-0.536333 32:-0.657177 33:-0.479624 34:-0.252044 35:-0.23617 36:-0.474155 37:0.00253409 38:0.15893 39:-0.585499 40:-0.271999 
2 0 0 0 1.780720768691503 2 0 0 0 0 2 0 0 2 0 0.3927566614558211 0 0 0.5929895262568432 0 0 0 0 1:0.473531 2:-0.686102 3:0.518234 4:-0.406914 5:0.686448 6:-0.798027 7:-0.372817 8:-0.152767 9:-0.394514 10:0.282857 11:-0.368656 12:0.432312 13:0.168508 14:0.466417 15:0.0639961 16:-0.283211 17:-0.0334837 18:0.0833073 19:-0.247523 20:-0.18784 21:-0.0988866 22:-0.238353 23:0.20841 24:0.346924 25:-0.183867 26:-0.0407822 27:0.312566 28:-0.417525 29:-0.353496 30:-0.45665 31:-0.523029 32:-0.574096 33:-0.323304 34:-0.338045 35:-0.353277 36:-0.361076 37:0.0355582 38:-0.0610045 39:-0.622265 40:-0.332546 
0 0 0 0 0 1.519240123946096 0 0 0 0 0 0 0 0 0 0 0 0 0 0 0 0 0 1:0.262054 2:-0.562989 3:0.800832 4:-0.577815 5:0.59323 6:-0.433597 7:-0.458378 8:-0.323782 9:-0.223916 10:0.394083 11:-0.387047 12:0.459692 13:0.0175258 14:0.26653 15:0.201136 16:-0.283945 17:-0.424866 18:0.00145704 19:-0.0334433 20:-0.568746 21:-0.644874 22:-0.0582999 23:0.3071 24:-0.133659 25:-0.344042 26:0.242753 27:0.261246 28:-0.608254 29:-0.0628613 30:-0.217064 31:-0.589645 32:-0.382305 33:-0.168821 34:-0.321306 35:-0.168618 36:-0.399365 37:-0.138099 38:0.527028 39:-0.260598 40:-0.441589 
0 0 0 0 0.4886740344592094 2 0 0 0 0 0 0 0 0 0 0 0 0 2 0 0 0 0 1:0.264095 2:-0.584822 3:0.850906 4:-0.556475 5:0.440277 6:-0.288974 7:-0.373728 8:-0.363418 9:-0.109892 10:0.561812 11:-0.322222 12:0.537082 13:0.166538 14:0.360774 15:0.196441 16:-0.189991 17:-0.265566 18:-0.0117937 19:0.112748 20:-0.270088 21:-0.608929 22:0.0664605 23:0.461021 24:-0.0979249 25:-0.399113 26:0.321086 27:0.360692 28:-0.80612 29:-0.0614107 30:-0.294612 31:-0.728402 32:-0.395514 33:-0.315385 34:-0.402429 35:-0.264599 36:-0.541305 37:-0.0551246 38:0.692657 39:-0.369914 40:-0.462115 
0 2 0 0 2 0 0 0 0 0 0 2 0 0 0 0 0 0.2955685985253445 2 0 0 0 1.270712691494607 1:0.186626 2:-0.615525 3:0.880108 4:-0.491226 5:0.411257 6:-0.160015 7:-0.390325 8:-0.448235 9:-0.0515019 10:0.472207 11:-0.438716 12:0.393997 13:0.0486065 14:0.371512 15:0.100792 16:-0.34651 17:-0.284436 18:-0.0471908 19:-0.151702 20:-0.572349 21:-0.5829 22:-0.0373895 23:0.277875 24:0.0415475 25:-0.272619 26:0.231777 27:0.375507 28:-0.660425 29:-0.154918 30:-0.287657 31:-0.61174 32:-0.365044 33:0.0112038 34:-0.147131 35:-0.18429 36:-0.325194 37:-0.0213132 38:0.379832 39:-0.270975 40:-0.425122 
0 0 1.112065437515914 0.5340945200327146 0 2 0 0 0 2 2 0 0 1.114605413772613 0 0 0 0 0 0 2 0 0 1:0.155109 2:-0.55828 3:0.917921 4:-0.574952 5:0.361247 6:-0.25162 7:-0.439455 8:-0.449558 9:-0.0661375 10:0.424701 11:-0.430631 12:0.369533 13:-0.0161287 14:0.409889 15:0.116753 16:-0.318959 17:-0.312087 18:-0.0434447 19:-0.0850524 20:-0.59248 21:-0.639953 22:-0.0749541 23:0.24937 24:-0.189511 25:-0.426957 26:0.257962 27:0.329304 28:-0.545749 29:0.0404862 30:-0.18243 31:-0.572711 32:-0.356544 33:-0.0578908 34:-0.209208 35:-0.263892 36:-0.391798 37:-0.0567908 38:0.407083 39:-0.314449 40:-0.548406 
0 0 0 0 0 1.006266302185834 0 0 0 0 0 0 0 0 0 0 0 0 0 0 0 0 0 1:0.139461 2:-0.577881 3:0.892249 4:-0.651347 5:0.436524 6:-0.295355 7:-0.464372 8:-0.410569 9:-0.118685 10:0.499011 11:-0.447314 12:0.362342 13:0.112685 14:0.385171 15:0.171027 16:-0.224881 17:-0.255737 18:0.0396473 19:-0.0855444 20:-0.440029 21:-0.529202 22:-0.0077162 23:0.426703 24:-0.0915935 25:-0.335059 26:0.2763 27:0.247874 28:-0.644462 29:-0.101288 30:-0.366176 31:-0.702641 32:-0.393829 33:-0.128524 34:-0.33533 35:-0.290104 36:-0.415773 37:-0.132231 38:0.238757 39:-0.378253 40:-0.51803 
0 0.1435560496877747 0 2 0.7655640251007376 0 1.061641366414589 2 0 0.9198373416049583 2 0 0 0 0 1.594021977450198 0 2 0 0 0 0 2 1:0.939158 2:-0.701659 3:0.225591 4:-0.0942837 5:0.917145 6:-0.886283 7:-0.209629 8:-0.122972 9:-0.27349 10:0.390965 11:-0.651251 12:0.351951 13:0.147849 14:0.173565 15:0.0617734 16:-0.272501 17:-0.498575 18:-0.257885 19:-0.409988 20:-0.359296 21:-0.0853727 22:-0.171402 23:-0.0810623 24:-0.0937608 25:-0.193379 26:0.176134 27:0.238146 28:-0.0729616 29:-0.0438625 30:-0.474661 31:-0.308575 32:-0.163086 33:-0.271072 34:-0.229581 35:-0.0884776 36:-0.0739436 37:0.209711 38:-0.00768189 39:-0.522173 40:-0.152921 
0 0 0 0 0 2 0 0 0 0 0 0 0 0 0 0 0 0 0 0 0 0 0 1:0.199778 2:-0.559045 3:0.841647 4:-0.629696 5:0.546998 6:-0.38222 7:-0.414665 8:-0.299586 9:-0.238779 10:0.473778 11:-0.247056 12:0.46373 13:-0.0355006 14:0.337351 15:0.21243 16:-0.349066 17:-0.340073 18:0.0825582 19:-0.0838992 20:-0.526944 21:-0.433945 22:0.108201 23:0.276694 24:-0.171602 25:-0.382501 26:0.193974 27:0.281349 28:-0.609291 29:-0.165324 30:-0.399139 31:-0.636568 32:-0.397567 33:-0.259518 34:-0.401636 35:-0.258729 36:-0.471949 37:-0.134162 38:0.677876 39:-0.305582 40:-0.568914 
0 0 0 0 0 0 0 0 0 0 0 0 0 0 0 0 0 0 0 0 0 0 0.3894670805614565 1:0.336497 2:-0.631472 3:0.614411 4:-0.437431 5:0.715433 6:-0.714489 7:-0.333121 8:-0.216974 9:-0.535735 10:0.436233 11:-0.354131 12:0.19833 13:0.0385199 14:0.349203 15:0.0413053 16:-0.17417 17:-0.230506 18:-0.182861 19:-0.249037 20:-0.406504 21:-0.445503 22:-0.0501224 23:0.310655 24:0.0444471 25:-0.237134 26:0.25353 27:0.361308 28:-0.583424 29:-0.185732 30:-0.273875 31:-0.58807 32:-0.414934 33:-0.0291863 34:-0.249338 35:-0.166389 36:-0.17921 37:0.015652 38:0.343239 39:-0.436837 40:-0.525939 
0 0 0 2 0 0 0 0 1.872898773495438 0.455804203845401 0 0 0 0 0 0 0 2 0 0 0 0 0 1:0.425988 2:-0.514888 3:0.73479 4:-0.531513 5:0.775155 6:-0.357256 7:-0.347298 8:-0.185693 9:-0.373544 10:0.194241 11:-0.161041 12:0.673735 13:-0.298904 14:0.0292027 15:0.285839 16:-0.419262 17:-0.669924 18:-0.0495259 19:-0.181931 20:-0.952455 21:-0.65459 22:0.107724 23:0.0922129 24:-0.367252 25:-0.268472 26:0.277982 27:0.110649 28:-0.444425 29:0.129177 30:-0.163027 31:-0.493573 32:-0.142457 33:0.0171338 34:-0.294207 35:-0.0818987 36:-0.0755438 37:0.0141709 38:0.681126 39:-0.165737 40:-0.510378 
0 0 0 0 0 2 0 0 0 0 0 0 0 2 0 2 0 0 0 0 1.944924130528839 0 0 1:0.288369 2:-0.565515 3:0.787175 4:-0.576641 5:0.518926 6:-0.51044 7:-0.459691 8:-0.373025 9:-0.298363 10:0.402733 11:-0.410635 12:0.408974 13:0.0335717 14:0.312641 15:0.165238 16:-0.302101 17:-0.342398 18:0.020991 19:-0.0740802 20:-0.515013 21:-0.594823 22:-0.106985 23:0.232873 24:-0.194661 25:-0.395143 26:0.130391 27:0.268064 28:-0.401634 29:-0.057076 30:-0.176064 31:-0.477864 32:-0.433381 33:-0.213342 34:-0.358127 35:-0.317592 36:-0.419029 37:-0.0691796 38:0.477347 39:-0.35808 40:-0.48697 
0 0 0 0 0 2 0 0 0 0 0 0 0 0 0 0 0 0 0 0 0 0 0 1:0.230514 2:-0.545988 3:0.793086 4:-0.643013 5:0.539242 6:-0.370415 7:-0.36002 8:-0.255001 9:-0.20023 10:0.395436 11:-0.373149 12:0.464914 13:-0.00894039 14:0.334766 15:0.259408 16:-0.388422 17:-0.527927 18:-0.063816 19:-0.0821927 20:-0.53957 21:-0.515333 22:0.0837576 23:0.247432 24:-0.219161 25:-0.292598 26:0.311452 27:0.328249 28:-0.626397 29:-0.170439 30:-0.282698 31:-0.565742 32:-0.462515 33:-0.251149 34:-0.37886 35:-0.257557 36:-0.310767 37:0.00643342 38:0.548029 39:-0.351649 40:-0.513989 
0 0 0.232160408943917 0 0 2 0 0 0 0 0 0 0 0 0 0 0 0 0 0 0 0 0 1:0.196443 2:-0.550732 3:0.832989 4:-0.613725 5:0.475204 6:-0.407662 7:-0.414543 8:-0.313492 9:-0.207681 10:0.397967 11:-0.400843 12:0.386481 13:-0.0471038 14:0.262207 15:0.147275 16:-0.340255 17:-0.431989 18:-0.102507 19:-0.209728 20:-0.612093 21:-0.575225 22:-0.00541938 23:0.285103 24:-0.223552 25:-0.456504 26:0.170153 27:0.327623 28:-0.452233 29:-0.0113492 30:-0.230554 31:-0.605621 32:-0.338578 33:-0.146012 34:-0.353919 35:-0.183023 36:-0.232758 37:0.038368 38:0.498929 39:-0.386998 40:-0.523399 
0 0 0 0 2 2 0 0 2 0 0 0 0 0 2 0 0 0 0 1.189671991182977 0 0 0 1:0.307177 2:-0.657949 3:0.669943 4:-0.526347 5:0.481308 6:-0.60183 7:-0.375706 8:-0.373889 9:-0.404347 10:0.480736 11:-0.337043 12:0.38546 13:0.0690632 14:0.397498 15:0.227069 16:-0.19669 17:-0.220181 18:0.0222367 19:-0.0517412 20:-0.322299 21:-0.348625 22:0.134129 23:0.348104 24:0.0352922 25:-0.168315 26:0.174787 27:0.216792 28:-0.584194 29:-0.212131 30:-0.356675 31:-0.655557 32:-0.64825 33:-0.375838 34:-0.37768 35:-0.247435 36:-0.342916 37:-0.112083 38:0.231911 39:-0.379559 40:-0.462681 
0 0 0 0 0 2 0 0 0 0 0 0 0 0 0 0 0 0 0 0 0 0 0 1:0.267547 2:-0.572857 3:0.779984 4:-0.592965 5:0.600773 6:-0.436555 7:-0.433478 8:-0.262001 9:-0.199842 10:0.331725 11:-0.357474 12:0.533951 13:0.0140807 14:0.285017 15:0.285964 16:-0.198088 17:-0.35869 18:-0.0209623 19:-0.104352 20:-0.500097 21:-0.472063 22:0.0678949 23:0.331926 24:-0.131902 25:-0.385021 26:0.164965 27:0.316645 28:-0.552998 29:-0.15703 30:-0.283601 31:-0.583592 32:-0.5179 33:-0.342986 34:-0.35027 35:-0.177965 36:-0.418067 37:-0.126439 38:0.486513 39:-0.389612 40:-0.558474 
0.3027598991743687 0 0 0 0 0 0 0 0 0 0 2 0 0 0 0 0 0 0 0 0 0 0 1:0.703678 2:-0.650847 3:0.336916 4:-0.378922 5:0.717573 6:-0.775645 7:-0.125271 8:-0.035148 9:-0.449643 10:0.186154 11:-0.509955 12:0.574498 13:0.173168 14:0.304881 15:0.203305 16:-0.309499 17:-0.382962 18:-0.0722178 19:-0.252612 20:-0.325152 21:-0.171515 22:0.027663 23:0.130517 24:-0.0817346 25:-0.155421 26:0.29481 27:0.247015 28:-0.356855 29:-0.175766 30:-0.433489 31:-0.301514 32:-0.444861 33:-0.502803 34:-0.225047 35:-0.165489 36:-0.321542 37:0.187402 38:0.155927 39:-0.699253 40:-0.380206 
0 0 0 2 0 2 2 0.7241601632232582 0 2 0 0 1.531542948693237 2 0 2 0 0 0.3934397453889318 1.641351621320403 2 2 0 1:0.304237 2:-0.517984 3:0.930284 4:-0.494727 5:0.512043 6:-0.110242 7:-0.26182 8:-0.240109 9:-0.0303245 10:0.568565 11:-0.222841 12:0.502076 13:0.225008 14:0.542196 15:0.288875 16:-0.252165 17:-0.227223 18:0.104844 19:-0.0482891 20:-0.318467 21:-0.505481 22:0.023378 23:0.382755 24:-0.120249 25:-0.242211 26:0.318026 27:0.4323 28:-0.439412 29:0.0159759 30:0.0314751 31:-0.40515 32:-0.340877 33:-0.0946036 34:-0.245764 35:-0.241787 36:-0.365411 37:-0.00143407 38:0.416096 39:-0.433187 40:-0.526243 
0 0 1.881503562298916 0 0 2 0 0 0 0 0 0 1.61223855090328 0 0 0.8628660117324812 0 0 0 0 1.961110443535519 1.25088687672319 0 1:0.791329 2:-0.661226 3:0.255538 4:-0.332553 5:0.858317 6:-0.811176 7:-0.160716 8:-0.0774144 9:-0.552559 10:0.223971 11:-0.386999 12:0.636273 13:0.261703 14:0.119341 15:-0.116259 16:-0.177618 17:-0.287462 18:-0.111841 19:-0.203638 20:-0.328726 21:-0.183781 22:-0.0452583 23:-0.0758942 24:-0.0483112 25:-0.0604022 26:0.0983643 27:0.198631 28:-0.203955 29:-0.324925 30:-0.481893 31:-0.154177 32:-0.335301 33:-0.610922 34:-0.448131 35:-0.272119 36:-0.217655 37:0.241677 38:0.237553 39:-0.763812 40:-0.439504 
2 0 0 0 0 0 0 0.3928377459479994 0 0 0 0.323584127105645 0 2 0 0 1.924205522705961 0 0.757165448917169 0 0 0 0 1:0.950535 2:-0.672717 3:0.189798 4:-0.230612 5:0.892671 6:-0.932225 7:-0.138412 8:0.0613389 9:-0.455036 10:-0.00781009 11:-0.635551 12:0.638566 13:0.28359 14:0.1896 15:-0.0740993 16:-0.264494 17:-0.443011 18:-0.284601 19:-0.146434 20:-0.186765 21:-0.420542 22:-0.114796 23:0.112758 24:-0.0161024 25:-0.0701157 26:0.147663 27:0.290046 28:-0.118541 29:-0.179927 30:-0.276199 31:-0.163976 32:-0.347282 33:-0.270179 34:-0.275464 35:-0.189638 36:0.0334317 37:0.266655 38:0.187399 39:-0.536003 40:-0.389087 
1.707741184995389 2 0 2 1.801363300581327 1.197064949914591 2 2 0.2104803064715584 1.660611985704461 2 0 1.006923013502854 0.1384798630591444 0.3714808099366887 2 0 1.923437221998238 0 1.52830144805005 0 0.04744958160543499 2 1:0.939158 2:-0.701659 3:0.225591 4:-0.0942837 5:0.917145 6:-0.886283 7:-0.209629 8:-0.122972 9:-0.27349 10:0.390965 11:-0.651251 12:0.351951 13:0.147849 14:0.173565 15:0.0617734 16:-0.272501 17:-0.498575 18:-0.257885 19:-0.409988 20:-0.359296 21:-0.0853727 22:-0.171402 23:-0.0810623 24:-0.0937608 25:-0.193379 26:0.176134 27:0.238146 28:-0.0729616 29:-0.0438625 30:-0.474661 31:-0.308575 32:-0.163086 33:-0.271072 34:-0.229581 35:-0.0884776 36:-0.0739436 37:0.209711 38:-0.00768189 39:-0.522173 40:-0.152921 
0 1.193393257138984 0.1806994653249669 2 0 2 0 1.645456637713195 1.027595088714431 2 0 2 0 0 2 0 0 2 0 1.1649223482258 2 1.132060953090425 2 1:0.957937 2:-0.666612 3:0.261241 4:-0.182981 5:0.779588 6:-0.759166 7:-0.102719 8:-0.0737348 9:-0.419245 10:0.189407 11:-0.475988 12:0.566079 13:-0.00317492 14:0.0600079 15:0.0967512 16:-0.214413 17:-0.532097 18:-0.286245 19:-0.421604 20:-0.612092 21:-0.137928 22:-0.0224564 23:-0.0842662 24:-0.0322935 25:-0.237089 26:0.121896 27:0.524872 28:-0.0930634 29:-0.164888 30:-0.234047 31:-0.0809697 32:-0.270739 33:-0.348388 34:-0.232547 35:-0.0205564 36:0.100155 37:0.231236 38:0.282462 39:-0.465896 40:-0.574057 
0 0 0 0 0 0 0 0 0 0 0 0 0 0.8473359260503315 0 0 0 0 0 0 0 0 0 1:0.367043 2:-0.658547 3:0.594836 4:-0.503458 5:0.641111 6:-0.666058 7:-0.357767 8:-0.298705 9:-0.508139 10:0.424519 11:-0.362558 12:0.37771 13:0.13354 14:0.281945 15:0.110887 16:-0.0315454 17:-0.216897 18:-0.0938349 19:-0.0404391 20:-0.353603 21:-0.436687 22:0.146009 23:0.286329 24:0.0139063 25:-0.125634 26:0.0975073 27:0.177826 28:-0.406545 29:-0.304117 30:-0.567975 31:-0.546767 32:-0.469697 33:-0.3162 34:-0.328084 35:-0.341371 36:-0.408659 37:0.0487136 38:0.0451788 39:-0.700919 40:-0.374397 
2 1.992048916307316 0 0 0 1.017544289302197 0.2467465468030544 0 2 0 0.9790291089427305 1.616805225033555 0.9294024567298498 2 0 2 1.842593167040385 0 0.7044132702645304 2 0.2479396188254583 0 0 1:0.358499 2:-0.656477 3:0.593327 4:-0.510044 5:0.683 6:-0.656735 7:-0.39206 8:-0.292353 9:-0.36991 10:0.464266 11:-0.538945 12:0.299916 13:0.304676 14:0.304381 15:-0.0388169 16:0.0239415 17:-0.120057 18:-0.227048 19:-0.129427 20:-0.076795 21:-0.361715 22:-0.17331 23:0.234094 24:0.203438 25:-0.0678171 26:0.00757498 27:0.110141 28:-0.296877 29:-0.283012 30:-0.708452 31:-0.578907 32:-0.308064 33:-0.339586 34:-0.440983 35:-0.229592 36:-0.255152 37:-0.0593857 38:-0.292115 39:-0.614428 40:-0.161827 
0 0 0 0 0 0 0 0 0 0 0 0.6319061815687189 0 0 0.3017879350469838 0 0 0 0 0 0 0 0 1:0.290863 2:-0.628751 3:0.694219 4:-0.477661 5:0.572717 6:-0.531143 7:-0.314211 8:-0.310191 9:-0.361493 10:0.451075 11:-0.514845 12:0.268868 13:0.163592 14:0.353211 15:0.0120339 16:-0.191712 17:-0.29044 18:-0.144782 19:-0.176029 20:-0.481381 21:-0.418711 22:0.045558 23:0.24863 24:-0.00745589 25:-0.15504 26:0.255327 27:0.271099 28:-0.362252 29:-0.156749 30:-0.480707 31:-0.567475 32:-0.29758 33:-0.0156719 34:-0.193115 35:-0.191029 36:-0.255665 37:0.0210748 38:0.398801 39:-0.392144 40:-0.476132 
0 0 0 0 0 0 0 0 0.07760633207799801 0 0 2 0 2 0 0 2 0 2 0 0 0 0 1:0.301677 2:-0.655208 3:0.683516 4:-0.563414 5:0.494758 6:-0.485608 7:-0.398335 8:-0.396077 9:-0.261553 10:0.460454 11:-0.454786 12:0.400685 13:0.158237 14:0.373837 15:0.199588 16:-0.151487 17:-0.204222 18:0.0527043 19:-0.0757317 20:-0.34131 21:-0.252164 22:0.0906293 23:0.279675 24:0.0860929 25:-0.217649 26:0.226324 27:0.306608 28:-0.611131 29:-0.24842 30:-0.504716 31:-0.671093 32:-0.42772 33:-0.211987 34:-0.372443 35:-0.316734 36:-0.373733 37:-0.129481 38:0.0860954 39:-0.403285 40:-0.506946 
0 0 2 0 0 2 0 2 0 0.6831142415869538 0 0 0 0 0 0 0 0 0 0 0 0.3697058984528113 0 1:0.862734 2:-0.62488 3:0.281805 4:-0.284334 5:0.965787 6:-0.834407 7:-0.160676 8:-0.00834784 9:-0.620972 10:0.158966 11:-0.449148 12:0.55665 13:0.187866 14:0.00393096 15:-0.3188 16:-0.308736 17:-0.356304 18:-0.245806 19:-0.371702 20:-0.597809 21:-0.350046 22:-0.0962552 23:-0.147901 24:-0.125237 25:-0.0384495 26:0.188023 27:0.319491 28:-0.016602 29:-0.248526 30:-0.396018 31:0.0439884 32:-0.0630427 33:-0.320275 34:-0.281046 35:-0.139923 36:-0.0777942 37:0.39316 38:0.555699 39:-0.669698 40:-0.416359 
0 0 2 0 0 2 0 0 0 0 0 0 0 2 0 2 0 0 0 0 0 2 0 1:0.828276 2:-0.623944 3:0.329368 4:-0.308531 5:0.877042 6:-0.822521 7:-0.253145 8:0.00190397 9:-0.330486 10:0.170228 11:-0.635122 12:0.403602 13:0.243059 14:0.299369 15:-0.0273119 16:-0.294216 17:-0.492737 18:-0.228307 19:-0.223582 20:-0.409428 21:-0.315964 22:-0.0849875 23:0.0855009 24:-0.0471719 25:-0.315241 26:0.062466 27:0.285961 28:0.0192596 29:0.0409465 30:-0.350493 31:-0.188149 32:-0.100645 33:-0.382657 34:-0.373034 35:-0.0489262 36:0.106376 37:0.164332 38:-0.0436507 39:-0.52552 40:-0.522507 
0 0 0 0 0 0 0 0 0 0 0.8056606218238715 0 0 0 0 0 0 0 0 0 0 0 0 1:0.195244 2:-0.592071 3:0.859739 4:-0.591474 5:0.410548 6:-0.327288 7:-0.380103 8:-0.393956 9:-0.221586 10:0.513267 11:-0.377523 12:0.306762 13:0.0353175 14:0.399204 15:0.0967775 16:-0.288958 17:-0.306539 18:0.00605033 19:-0.0988626 20:-0.559851 21:-0.48961 22:0.0250397 23:0.314861 24:-0.127082 25:-0.364937 26:0.222228 27:0.218451 28:-0.701277 29:-0.164243 30:-0.317942 31:-0.683469 32:-0.524042 33:-0.167164 34:-0.275567 35:-0.301453 36:-0.43571 37:-0.0526182 38:0.294623 39:-0.424519 40:-0.475189 
-0 0 0 0 0 0 0 0 0 0 0 0 0 0 0 0 1.336696831552607 0 0 0 0 0 0 1:-0.751653 2:0.266518 3:0.0820549 4:0.916636 5:-0.766136 6:-0.938008 7:0.502639 8:0.202961 9:-1 10:-0.469842 11:-0.264778 12:-0.0767435 13:0.609001 14:0.474163 15:0.0925558 16:-0.00974811 17:-0.166316 18:-0.0109613 19:0.425426 20:0.584774 21:0.431308 22:-0.445719 23:-0.254699 24:0.313571 25:-0.375313 26:0.249226 27:0.25463 28:-0.5857 29:-0.830685 30:-0.247529 31:0.296176 32:0.391075 33:-0.154806 34:-0.0775259 35:-0.483105 36:-0.467017 37:-0.120449 38:-0.37131 39:0.333188 40:0.712182 
-0.4284982606413731 0 0 2 2 0.8144022570731118 0.5676249254191815 2 0 0 0.103956377919708 0.2865265556889218 0 1.480846875104274 2 1.137213705527982 0.6300853469649821 0 2 0.419956787157082 0 0.2720959215302911 0 1:-0.495854 2:0.174712 3:-0.059501 4:0.767238 5:-0.340149 6:-0.948921 7:0.32742 8:0.0566822 9:-0.739541 10:-0.370504 11:-0.446304 12:-0.194517 13:0.633944 14:0.561452 15:0.089361 16:-0.0488109 17:-0.140919 18:0.103637 19:0.382219 20:0.370184 21:0.554218 22:-0.115742 23:-0.151253 24:0.0840138 25:-0.327526 26:0.457075 27:0.19181 28:-0.695666 29:-0.612478 30:-0.0621418 31:0.282563 32:0.164954 33:-0.0232259 34:0.144569 35:-0.615905 36:-0.562067 37:0.0155054 38:0.214452 39:0.208375 40:0.243481 
-0 0 0 0 0 0 0 0 2 0 0 1.478326443538889 0 0 0 0 2 1.180625516437988 0 2 0 0 0.3363633289134823 1:-0.569535 2:0.218641 3:-0.02764 4:0.858588 5:-0.558959 6:-0.857545 7:0.433296 8:0.0748794 9:-0.84433 10:-0.493438 11:-0.334799 12:0.00640394 13:0.454177 14:0.553564 15:0.0745595 16:0.0244499 17:-0.161209 18:0.0192948 19:0.343061 20:0.433141 21:0.484561 22:-0.21145 23:-0.310878 24:0.218774 25:-0.31959 26:0.255221 27:0.242475 28:-0.59089 29:-0.673766 30:-0.22846 31:0.175242 32:0.451946 33:-0.0289457 34:-0.0388741 35:-0.53661 36:-0.48054 37:-0.0412471 38:-0.0744487 39:0.185487 40:0.524601 
-0 0 0 0 0 0 0 0 0.2728990354849001 0 0 0 0 0 0 0 0 0 0 0 0 0 0 1:-0.757127 2:0.262621 3:0.0313503 4:0.846782 5:-0.600861 6:-0.955093 7:0.448202 8:0.16776 9:-0.859508 10:-0.490565 11:-0.315034 12:-0.112085 13:0.565722 14:0.430253 15:0.065289 16:0.0132353 17:-0.16126 18:-0.0190422 19:0.36408 20:0.523298 21:0.417847 22:-0.422397 23:-0.342853 24:0.286113 25:-0.36096 26:0.277725 27:0.252388 28:-0.521992 29:-0.679704 30:-0.156601 31:0.266046 32:0.332626 33:-0.0435748 34:0.0419342 35:-0.439624 36:-0.423837 37:-0.0267497 38:-0.120175 39:0.269663 40:0.485309 
-0 0 0 0 0 0 0 0 0 0 0 0 0 0 0 0 2 0 0 0 0 0 0 1:-0.703085 2:0.253896 3:0.0904938 4:0.907654 5:-0.882203 6:-0.951343 7:0.440583 8:0.178142 9:-0.974381 10:-0.540384 11:-0.208327 12:-0.0483234 13:0.514641 14:0.454008 15:-0.0621342 16:0.0215854 17:-0.216557 18:0.0115981 19:0.408266 20:0.71049 21:0.385605 22:-0.414553 23:-0.40729 24:0.280396 25:-0.42603 26:0.224652 27:0.317941 28:-0.359485 29:-0.682227 30:-0.137713 31:0.439048 32:0.39746 33:-0.0877811 34:-0.148449 35:-0.508748 36:-0.403086 37:-0.0596572 38:-0.283084 39:0.407587 40:0.719773 
-0 0 0 0 0 0 0 0 0 0 0 0 0 0 0 0 2 0 0 0 0 0 0 1:-0.623254 2:0.228266 3:0.0698357 4:0.795142 5:-0.617905 6:-0.888341 7:0.509383 8:0.119996 9:-0.914925 10:-0.483629 11:-0.257005 12:-0.10447 13:0.615201 14:0.504987 15:0.155733 16:-0.0344675 17:-0.159737 18:-0.0185916 19:0.372374 20:0.567984 21:0.454197 22:-0.388053 23:-0.225923 24:0.222195 25:-0.400327 26:0.18297 27:0.268075 28:-0.568997 29:-0.730773 30:-0.286771 31:0.268124 32:0.311578 33:-0.112248 34:-0.0961086 35:-0.609151 36:-0.4097 37:-0.0185701 38:-0.262063 39:0.213567 40:0.484399 
-0 0 0 0 0 0 0 1.014294968381415 0 0 0 0 0 0 0 0 2 0 0 0 0 0 0 1:-0.529444 2:0.190702 3:-0.0627953 4:0.829331 5:-0.295115 6:-1 7:0.29959 8:0.123662 9:-0.649875 10:-0.459797 11:-0.511591 12:-0.119837 13:0.750061 14:0.486543 15:4.59974e-05 16:-0.0400378 17:-0.071168 18:0.0750941 19:0.357979 20:0.480112 21:0.521517 22:-0.22003 23:-0.294594 24:0.228548 25:-0.264925 26:0.371006 27:0.168761 28:-0.66878 29:-0.59365 30:-0.175362 31:0.220248 32:0.349949 33:0.0312898 34:0.029649 35:-0.608611 36:-0.444061 37:0.0109419 38:-0.2539 39:0.236075 40:0.558929 
-2 2 1.246711502253071 2 2 2 2 2 2 2 2 2 2 2 2 2 2 2 1.476211620759433 2 2 2 2 1:-0.384917 2:0.207645 3:-0.303215 4:0.76247 5:-0.126129 6:-0.701133 7:0.275996 8:-0.0494742 9:-0.661761 10:-0.402091 11:-0.578912 12:0.035418 13:0.603624 14:0.402931 15:0.132047 16:0.18441 17:-0.0970633 18:0.033914 19:0.0899264 20:0.34039 21:0.734234 22:-0.217329 23:-0.260903 24:0.10257 25:-0.387333 26:0.470439 27:0.0508903 28:-0.657328 29:-0.472015 30:-0.197103 31:0.127708 32:0.244188 33:-0.0484132 34:-0.0175454 35:-0.551603 36:-0.354938 37:0.0228508 38:-0.0296197 39:0.0629591 40:0.292725 
-0 0 0 0 0 0 0 0 0 0 0 0 0 0 0 0 2 0 0 0 0 0 0 1:-0.700483 2:0.238309 3:-0.0414042 4:0.789083 5:-0.505812 6:-0.9161 7:0.378561 8:0.0877786 9:-0.769339 10:-0.378926 11:-0.417593 12:-0.2932 13:0.644012 14:0.670474 15:0.10178 16:-0.0499551 17:-0.131572 18:0.0737323 19:0.428249 20:0.473397 21:0.414036 22:-0.294232 23:-0.171592 24:0.283644 25:-0.37344 26:0.268135 27:0.260913 28:-0.486288 29:-0.674481 30:-0.218049 31:0.183191 32:0.307922 33:-0.0674677 34:-0.0194591 35:-0.484655 36:-0.399564 37:-0.00817781 38:-0.238326 39:0.192871 40:0.410858 
-0 0 0 1.781436293663615 0 0 0 0 0 0 0 0 0 0 0 0 2 0 2 0 0 0 0 1:-0.540076 2:0.19069 3:-0.0312148 4:0.819351 5:-0.479879 6:-0.864601 7:0.392388 8:0.00398216 9:-0.759351 10:-0.435365 11:-0.321522 12:-0.223984 13:0.611642 14:0.566306 15:0.173601 16:-0.0887881 17:-0.171818 18:0.0733314 19:0.466592 20:0.482118 21:0.403843 22:-0.345982 23:-0.110056 24:0.275311 25:-0.345192 26:0.209889 27:0.238107 28:-0.434576 29:-0.622496 30:-0.310361 31:0.22134 32:0.41205 33:0.0592069 34:-0.0195494 35:-0.62565 36:-0.48338 37:0.00245951 38:-0.100281 39:0.194315 40:0.475147 
-0 0 0 0 0 0 0 0 0 0 0 0 0 0 0 0 2 0 0 0 0 0 0 1:-0.671446 2:0.257063 3:0.040639 4:0.854392 5:-0.65703 6:-0.956021 7:0.469632 8:0.160833 9:-0.909398 10:-0.476442 11:-0.313496 12:-0.0726409 13:0.577522 14:0.494298 15:0.0931739 16:0.021066 17:-0.190529 18:0.0161545 19:0.403652 20:0.542885 21:0.409896 22:-0.362262 23:-0.207201 24:0.288258 25:-0.470661 26:0.226545 27:0.218944 28:-0.508603 29:-0.682161 30:-0.274853 31:0.295719 32:0.290842 33:-0.086019 34:-0.0618749 35:-0.58163 36:-0.432384 37:-0.0616168 38:-0.373135 39:0.29484 40:0.601354 
-2 2 2 2 2 2 2 2 0 2 2 2 2 2 2 2 2 0 2 0 2 2 0.7107669539094005 1:-0.195922 2:0.151915 3:-0.262197 4:0.667884 5:-0.0212328 6:-0.913553 7:0.257895 8:0.114375 9:-0.489724 10:-0.551596 11:-0.661445 12:-0.0595766 13:0.717067 14:0.557983 15:0.0499574 16:-0.0822673 17:-0.256326 18:0.0343569 19:0.408051 20:0.531391 21:0.39379 22:-0.226926 23:0.0121544 24:0.13951 25:-0.470057 26:0.157171 27:0.193078 28:-0.462555 29:-0.539333 30:-0.085917 31:0.176239 32:0.235772 33:-0.107936 34:-0.0929759 35:-0.554146 36:-0.319226 37:0.0811069 38:-0.066972 39:0.0886073 40:0.248278 
-0 0 0 0 0 0 0 0 0 0 0 0 0 0 0 0 0 0 0 2 0 0 0 1:-0.710755 2:0.213998 3:0.0215461 4:0.804833 5:-0.589959 6:-0.95379 7:0.432515 8:0.0909573 9:-0.714792 10:-0.528914 11:-0.358976 12:-0.108787 13:0.654985 14:0.49119 15:0.0278031 16:0.03057 17:0.0188449 18:-0.000728478 19:0.323592 20:0.579464 21:0.521446 22:-0.301258 23:-0.304017 24:0.250033 25:-0.33345 26:0.316166 27:0.277823 28:-0.591335 29:-0.682456 30:-0.184084 31:0.308759 32:0.20957 33:-0.103594 34:-0.0145542 35:-0.453753 36:-0.402346 37:-0.0404096 38:-0.221102 39:0.228355 40:0.455367 
-0 0 0 0 0 0 0 0 2 0 0 0 0 0 0 0 0 0 0 0.1470230824683759 0 0 0 1:-0.603322 2:0.300718 3:0.163768 4:0.991619 5:-0.535987 6:-0.705482 7:0.641604 8:0.267995 9:-0.683372 10:-0.350891 11:-0.08946 12:0.019427 13:0.681659 14:0.596053 15:0.31857 16:0.0649432 17:-0.0961186 18:-0.00411535 19:0.402799 20:0.609115 21:0.443207 22:-0.432693 23:-0.311525 24:0.315546 25:-0.457566 26:0.214665 27:0.192991 28:-0.618411 29:-0.735752 30:-0.255038 31:0.288753 32:0.299458 33:-0.147139 34:-0.0646827 35:-0.526419 36:-0.461544 37:-0.0939755 38:-0.347527 39:0.261764 40:0.573299 
-2 2 0.2908674983963854 2 2 2 2 2 2 2 2 2 2 2 2 2 2 2 2 2 2 2 2 1:-0.287149 2:0.16268 3:-0.178682 4:0.768278 5:-0.221955 6:-0.78136 7:0.396169 8:-0.0703245 9:-0.749443 10:-0.331878 11:-0.382903 12:-0.108922 13:0.542644 14:0.525222 15:0.19215 16:0.121259 17:-0.194395 18:0.0149194 19:0.303156 20:0.553985 21:0.430953 22:-0.173325 23:-0.267916 24:0.143081 25:-0.255612 26:0.144538 27:0.0485375 28:-0.49386 29:-0.474477 30:-0.217649 31:0.141625 32:0.275401 33:-0.0954491 34:0.0557206 35:-0.594671 36:-0.633387 37:0.0780524 38:0.213883 39:0.0747146 40:0.106885 
-0 1.363802196928098 0 0 0 0 0 2 2 2 2 2 0.7784697002890089 0.5676773950811019 1.608787847797549 0 0 2 0 2 0.244222345289366 0 2 1:-0.463951 2:0.266866 3:-0.212796 4:0.799958 5:-0.362091 6:-0.754704 7:0.370524 8:-0.00586283 9:-0.844043 10:-0.401804 11:-0.388774 12:-0.0741016 13:0.605032 14:0.462208 15:0.0869715 16:0.107558 17:-0.0158075 18:-0.0608492 19:0.276668 20:0.561131 21:0.581653 22:-0.155772 23:-0.336265 24:0.217833 25:-0.281812 26:0.407302 27:0.0355453 28:-0.522856 29:-0.559038 30:-0.146498 31:0.214976 32:0.184067 33:0.0708186 34:0.0872191 35:-0.655644 36:-0.441749 37:0.0514549 38:-0.019588 39:0.102314 40:0.27726 
-1.293048025383254 0 0 2 2 0 0 0 0 0 2 1.044557899176052 0.5789037706004884 2 0 2 2 0 2 0 1.059590476547887 2 0 1:-0.518997 2:0.223837 3:-0.0922094 4:0.797469 5:-0.372813 6:-0.797051 7:0.308953 8:0.0112987 9:-0.756302 10:-0.293297 11:-0.389949 12:-0.338259 13:0.573688 14:0.70169 15:0.267424 16:-0.0761511 17:-0.372649 18:0.0841287 19:0.582231 20:0.478452 21:0.254602 22:-0.350907 23:0.0481405 24:0.318064 25:-0.451884 26:0.125036 27:0.326227 28:-0.357926 29:-0.671096 30:-0.317692 31:0.211599 32:0.370869 33:0.0337096 34:-0.0493687 35:-0.581957 36:-0.471608 37:0.0483212 38:-0.255179 39:0.168729 40:0.45696 
-2 2 2 2 2 2 2 2 2 2 2 2 2 2 2 2 2 2 2 2 2 2 2 1:-0.280942 2:0.163505 3:-0.175424 4:0.727372 5:-0.24361 6:-0.800447 7:0.405377 8:0.0612468 9:-0.794049 10:-0.470472 11:-0.311446 12:-0.125724 13:0.51585 14:0.4522 15:0.195277 16:-0.00241649 17:-0.127037 18:0.0103423 19:0.245987 20:0.328515 21:0.49699 22:-0.175616 23:-0.211382 24:0.152176 25:-0.398677 26:0.222946 27:0.110717 28:-0.545773 29:-0.512378 30:-0.321653 31:0.0294086 32:0.250474 33:0.0217642 34:-0.0543605 35:-0.509221 36:-0.409794 37:0.0217507 38:0.0408497 39:0.0131669 40:0.165082 
-0 0 0 1.310444900672781 0.9252987962992512 0 0 2 0 0 0 0 0 0 0 0 2 0 2 0 0 0 0 1:-0.520727 2:0.189792 3:-0.0221468 4:0.77235 5:-0.376784 6:-0.909497 7:0.354403 8:0.0395041 9:-0.701246 10:-0.377909 11:-0.428929 12:-0.25853 13:0.665357 14:0.671987 15:0.00698775 16:-0.168758 17:-0.0439031 18:0.069042 19:0.412829 20:0.379065 21:0.455118 22:-0.220386 23:-0.218143 24:0.160747 25:-0.31574 26:0.341722 27:0.25443 28:-0.753859 29:-0.643801 30:-0.132344 31:0.27936 32:0.232257 33:0.00780474 34:0.0574209 35:-0.575928 36:-0.57359 37:-0.0384139 38:0.0772813 39:0.256707 40:0.371961 
-2 2 2 2 2 2 2 2 2 2 2 2 2 2 2 2 2 2 2 2 2 2 2 1:-0.524608 2:0.291496 3:-0.237018 4:0.685892 5:-0.246344 6:-0.685618 7:0.303042 8:-0.0599074 9:-0.66408 10:-0.327646 11:-0.392392 12:-0.198674 13:0.553449 14:0.468164 15:0.191382 16:0.036866 17:-0.0710968 18:-0.048782 19:0.300944 20:0.56789 21:0.483393 22:-0.231832 23:-0.292855 24:0.233303 25:-0.356371 26:0.241403 27:0.0500583 28:-0.450716 29:-0.437038 30:-0.167403 31:0.0273742 32:0.102851 33:0.113239 34:0.0331251 35:-0.59421 36:-0.39028 37:0.0831344 38:-0.107378 39:0.190834 40:0.177022 
-2 2 0 2 2 2 2 2 2 2 2 2 2 2 2 2 2 2 2 2 2 2 2 1:-0.342468 2:0.207809 3:-0.167362 4:0.735955 5:-0.172301 6:-0.805917 7:0.333775 8:0.0793077 9:-0.72256 10:-0.457824 11:-0.377153 12:0.0721269 13:0.637225 14:0.374846 15:-0.0141489 16:0.0556845 17:-0.118624 18:0.0130901 19:0.338247 20:0.450455 21:0.488701 22:-0.183574 23:-0.241828 24:0.074122 25:-0.423997 26:0.235956 27:0.224835 28:-0.586435 29:-0.656223 30:-0.262035 31:0.203913 32:0.223497 33:-0.00943143 34:-0.0943502 35:-0.678124 36:-0.45071 37:0.0315921 38:0.0650012 39:0.174337 40:0.266565 
-0 -0 0 0 0 0 0 0 0 0 0 0 0 0 0 0 0 0.08130358173228359 0 0 0 0 0 1:0.0410624 2:0.671531 3:-0.352737 4:-0.321673 5:-0.119274 6:0.239822 7:-0.00678098 8:-0.0818825 9:0.254323 10:0.11149 11:-0.107733 12:-0.166546 13:-0.405914 14:-0.107416 15:0.412065 16:-0.150824 17:0.125918 18:0.0712973 19:-0.383388 20:-0.809747 21:-0.305207 22:-0.0759803 23:-0.146331 24:0.338961 25:0.599035 26:0.202255 27:0.170181 28:-0.727887 29:-0.816669 30:-0.601189 31:-0.724011 32:-0.522018 33:0.110965 34:0.565357 35:0.204463 36:-0.0781601 37:0.145266 38:-0.206587 39:-0.374989 40:-0.0531067 
-2 -0.7151572277874813 0 2 0.1698451879973081 0 0 0.3785151912827703 0.1544624961631621 0 0 2 0 2 2 0 2 2 2 1.242551622312131 0.8698078034801408 0 0 1:0.377782 2:0.467573 3:-0.574003 4:-0.0186668 5:-0.14244 6:-0.207354 7:0.139428 8:-0.101721 9:0.159078 10:0.160445 11:-0.202702 12:-0.141222 13:-0.235599 14:-0.216454 15:0.222847 16:0.106025 17:0.0596204 18:-0.125433 19:-0.18501 20:-0.667133 21:-0.377108 22:-0.119318 23:0.316355 24:0.285516 25:0.451525 26:0.564668 27:0.0533598 28:-0.714602 29:-0.687202 30:-0.779187 31:-0.905586 32:-0.27222 33:-0.0452352 34:0.239557 35:0.271282 36:0.0391172 37:0.0911919 38:-0.0614931 39:-0.245592 40:-0.0269039 
-0 -0 0 0 2 0 0 0 0 0 0 0 0 0 0 0 0 0 0 0 0 0 2 1:0.184951 2:0.598712 3:-0.492494 4:-0.148187 5:-0.0248362 6:-0.0792377 7:0.126173 8:-0.0924718 9:0.180542 10:0.18552 11:-0.0572493 12:-0.177211 13:-0.255627 14:-0.234271 15:0.222587 16:-0.0148848 17:0.179997 18:-0.071009 19:-0.27179 20:-0.569531 21:-0.390999 22:-0.0870241 23:0.098111 24:0.356465 25:0.576828 26:0.299311 27:0.242995 28:-0.86753 29:-0.813994 30:-0.697647 31:-0.823353 32:-0.490767 33:0.0155262 34:0.439863 35:0.261331 36:-0.0354062 37:0.0941676 38:0.31594 39:-0.19078 40:-0.0288816 
-0 -0 0 0 0 0 0 0 0 0 0 0 0 0 0 0 0 0 0 0 0 0 2 1:0.0719923 2:0.610619 3:-0.357471 4:-0.348059 5:-0.00542545 6:0.0768586 7:-0.00634957 8:-0.0999906 9:0.309993 10:0.104239 11:-0.0177345 12:-0.150691 13:-0.439823 14:-0.106433 15:0.350799 16:-0.114766 17:0.0979455 18:0.0505526 19:-0.367015 20:-0.769372 21:-0.196678 22:-0.0177795 23:0.0167912 24:0.388731 25:0.612032 26:0.280869 27:0.305662 28:-0.77881 29:-0.877378 30:-0.683919 31:-0.8137 32:-0.567224 33:0.0740492 34:0.549547 35:0.232726 36:-0.0717157 37:0.205156 38:0.0608729 39:-0.208564 40:0.0495269 
-2 -2 0 2 2 0 0 2 1.304442531032874 2 0 2 0 2 0 0 1.97305674992534 2 0 0.7176224103879407 0 0 2 1:0.35449 2:0.498213 3:-0.536864 4:-0.103809 5:0.068608 6:-0.15619 7:0.0769079 8:-0.117552 9:0.314996 10:0.151008 11:-0.238858 12:-0.0743235 13:-0.193565 14:-0.253664 15:0.127229 16:0.0643546 17:0.151921 18:-0.10392 19:-0.290605 20:-0.496054 21:-0.267497 22:-0.326799 23:0.092129 24:0.474925 25:0.519478 26:0.342446 27:0.188789 28:-0.678661 29:-0.774695 30:-0.823909 31:-0.77549 32:-0.170957 33:-0.183929 34:0.344071 35:0.338404 36:0.0171944 37:0.151216 38:0.168045 39:-0.250554 40:0.0253714 
-0 -0 0.503821220368931 0 0 0 0 0 0 0.9364679992433005 0 0 0 0 0 0 0 0 0 0 2 0 0 1:-0.0106976 2:0.731988 3:-0.402806 4:-0.334447 5:-0.0465084 6:0.125275 7:-0.018117 8:-0.0702576 9:0.318496 10:0.0808928 11:-0.0251063 12:-0.1265 13:-0.440236 14:-0.144127 15:0.311985 16:-0.151421 17:0.101341 18:0.0524385 19:-0.305781 20:-0.745957 21:-0.294556 22:-0.0470919 23:-0.142951 24:0.280015 25:0.576279 26:0.134713 27:0.169703 28:-0.717783 29:-0.802797 30:-0.574534 31:-0.757938 32:-0.538291 33:0.0371992 34:0.448415 35:0.16569 36:-0.063983 37:0.129151 38:0.0578004 39:-0.3476 40:0.00490181 
-0 -0 0 0 0 0 0 0 2 0 0 2 0 0 2 0 0 0 0 0 0 0 0 1:0.399344 2:0.526667 3:-0.552719 4:0.03123 5:-0.0705763 6:-0.0901058 7:0.164548 8:0.00832476 9:0.327995 10:0.114023 11:-0.0992193 12:-0.0295552 13:-0.206619 14:-0.322836 15:0.305739 16:0.130553 17:0.0702542 18:-0.111424 19:-0.186582 20:-0.46347 21:-0.420164 22:-0.186553 23:0.200272 24:0.296712 25:0.33866 26:0.362754 27:0.100632 28:-1 29:-0.694894 30:-0.717192 31:-0.942577 32:-0.411473 33:-0.187632 34:0.430161 35:0.291122 36:-0.0832144 37:0.0761554 38:0.175577 39:-0.233666 40:-0.144448 
-2 -2 2 2 2 2 2 2 2 2 2 2 1.81162000879322 2 2 2 2 2 2 2 2 2 2 1:0.380416 2:0.483042 3:-0.487808 4:-0.11861 5:-0.0142495 6:-0.23541 7:0.117763 8:-0.093831 9:0.257824 10:0.17134 11:-0.0720544 12:-0.17468 13:-0.250995 14:-0.276996 15:0.240387 16:0.055608 17:0.0983169 18:-0.02369 19:-0.176868 20:-0.708218 21:-0.273648 22:0.0376577 23:0.0164716 24:0.174247 25:0.467465 26:0.304398 27:0.127607 28:-0.64043 29:-0.722974 30:-0.657315 31:-0.783282 32:-0.457326 33:0.0528462 34:0.309902 35:0.193455 36:0.0499867 37:0.101835 38:-0.0955736 39:-0.0992556 40:-0.054945 
-0 -0 0 0 0.6120966722939823 0 0 0 0.01292277257089037 0 2 0 0 0 0 0 0 0 0 2 2 0 0 1:-0.0691539 2:0.768016 3:-0.436598 4:-0.313446 5:-0.129349 6:0.16237 7:-0.0640385 8:-0.0579056 9:0.294907 10:0.148165 11:-0.0136176 12:-0.16516 13:-0.390413 14:-0.0726027 15:0.423558 16:-0.0804712 17:0.167267 18:0.0965537 19:-0.319138 20:-0.6994 21:-0.169985 22:0.0586364 23:-0.154202 24:0.296668 25:0.514505 26:0.088393 27:0.162715 28:-0.725135 29:-0.847815 30:-0.639397 31:-0.852564 32:-0.622927 33:-0.05514 34:0.350733 35:0.0780512 36:-0.176979 37:0.0389625 38:-0.0952233 39:-0.326771 40:0.0392649 
-0 -0 0 0 0 0 0 0 0 0 0 1.370284394308284 0 0 0 0 0 0 0 0 0 0 0 1:0.0437463 2:0.658867 3:-0.477762 4:-0.208137 5:-0.0879043 6:0.0236672 7:0.0363477 8:-0.077574 9:0.149826 10:0.122129 11:-0.116678 12:-0.198145 13:-0.338865 14:-0.181763 15:0.345783 16:-0.029766 17:0.131615 18:-0.0926066 19:-0.245847 20:-0.732941 21:-0.435696 22:0.0490972 23:0.113484 24:0.324886 25:0.640972 26:0.386835 27:0.179605 28:-0.786222 29:-0.84759 30:-0.693879 31:-0.883616 32:-0.484192 33:0.114433 34:0.499418 35:0.303656 36:-0.00103827 37:0.0902703 38:0.114142 39:-0.235365 40:-0.0391725 
-0 -0 0 0 0 0 0 0 0 0 2 0 0 0 0 0 0 0 0 0 0 0 0 1:0.0545682 2:0.633384 3:-0.347307 4:-0.387105 5:-0.0214133 6:0.0770962 7:0.0177067 8:-0.0934492 9:0.358076 10:0.129465 11:0.0199573 12:-0.164675 13:-0.376275 14:-0.033569 15:0.454406 16:-0.0635592 17:0.171829 18:0.132652 19:-0.311565 20:-0.73839 21:-0.0857187 22:-0.0124104 23:-0.025964 24:0.331485 25:0.494303 26:0.172447 27:0.140835 28:-0.803337 29:-0.835607 30:-0.714207 31:-0.887705 32:-0.618966 33:-0.0648218 34:0.355642 35:0.104758 36:-0.179574 37:0.0487834 38:-0.215825 39:-0.289103 40:0.0195282 
-0 -0 0 0 2 0 0.3994679290439541 0 0 0 0 2 0 0 2 0 0 0 1.223003396792796 0 0 0 0.6442769718551246 1:0.28083 2:0.561519 3:-0.551065 4:-0.0844747 5:-0.0742459 6:-0.128199 7:0.107774 8:-0.0757793 9:0.315531 10:0.150029 11:-0.198652 12:-0.11838 13:-0.285667 14:-0.166561 15:0.201542 16:0.0423859 17:0.131403 18:-0.0783689 19:-0.204818 20:-0.467467 21:-0.381516 22:-0.117406 23:0.130346 24:0.386865 25:0.427686 26:0.414068 27:0.128977 28:-0.807 29:-0.741447 30:-0.742894 31:-0.764327 32:-0.388391 33:-0.151028 34:0.437602 35:0.360175 36:-0.065174 37:0.139394 38:0.143437 39:-0.281535 40:-0.0935904 
-2 -1.076263045635551 0 2 2 2 2 0.01266158073064814 2 0 2 0 2 2 2 2 2 0 2 2 2 2 0 1:0.0576567 2:0.670656 3:-0.414284 4:-0.329177 5:-0.118156 6:0.0835065 7:-0.0828405 8:-0.0402965 9:0.322692 10:0.135677 11:0.00297361 12:-0.023494 13:-0.446042 14:-0.119295 15:0.384739 16:-0.160856 17:0.123442 18:0.110659 19:-0.163228 20:-0.604754 21:-0.264519 22:-0.00863123 23:-0.034208 24:0.14691 25:0.510473 26:0.137398 27:0.139685 28:-0.769208 29:-0.822721 30:-0.628626 31:-0.835764 32:-0.629972 33:-0.100028 34:0.316104 35:-0.0722202 36:-0.164688 37:0.0916954 38:-0.100062 39:-0.217928 40:0.147005 
-0 -0 0 0.09777328484585324 2 0 0 0 0 2 2 0 0 0 0 0 0 0 0 0 0.9119730684679118 0 0 1:-0.0512465 2:0.783236 3:-0.421125 4:-0.304274 5:-0.141242 6:0.173574 7:-0.0637184 8:-0.0629344 9:0.271512 10:0.123215 11:-0.0156427 12:-0.142834 13:-0.452747 14:-0.110885 15:0.327554 16:-0.224623 17:0.105798 18:0.0402808 19:-0.357505 20:-0.790413 21:-0.289533 22:-0.0350207 23:-0.21733 24:0.293897 25:0.53288 26:0.135394 27:0.23211 28:-0.68818 29:-0.836155 30:-0.565209 31:-0.783889 32:-0.578565 33:0.000172742 34:0.416566 35:0.139909 36:-0.0352743 37:0.155484 38:0.147344 39:-0.261239 40:0.0782693 
-0 -0 0 0 0 0 0 0 0 0 0 0.154632324121249 0 0 0 0 0 0 0 0 0 0 0 1:0.118793 2:0.588129 3:-0.294313 4:-0.37582 5:-0.0374351 6:0.12689 7:0.00449857 8:-0.146256 9:0.295894 10:0.158831 11:0.00692262 12:-0.132287 13:-0.376074 14:-0.178436 15:0.428987 16:-0.208225 17:0.206534 18:0.0585883 19:-0.332623 20:-0.790524 21:-0.197765 22:-0.0898984 23:-0.0763808 24:0.406414 25:0.475632 26:0.377066 27:0.138241 28:-0.703836 29:-0.776562 30:-0.647703 31:-0.822736 32:-0.476711 33:0.0267804 34:0.438886 35:0.221879 36:-0.0985624 37:0.168818 38:0.0669595 39:-0.214632 40:0.0580982 
-0 -0 0 0 0 0.8992041587687493 0 0 0 0 0 0 0 0 0 0 0 0 0 0 0 0 2 1:0.19316 2:0.57913 3:-0.25818 4:-0.309058 5:-0.0866646 6:0.313161 7:0.0467086 8:-0.0285528 9:0.411528 10:0.2024 11:0.028084 12:-0.157547 13:-0.293139 14:-0.177206 15:0.565527 16:-0.22302 17:0.1888 18:0.115028 19:-0.327859 20:-0.668838 21:-0.19668 22:0.0353655 23:-0.152371 24:0.446429 25:0.492077 26:0.310498 27:0.183902 28:-0.689728 29:-0.744182 30:-0.551435 31:-0.762824 32:-0.453157 33:0.0844903 34:0.489149 35:0.237126 36:-0.0156607 37:0.160751 38:-0.0171963 39:-0.272587 40:0.0134846 
-0 -0 0 0 0 0 0 0 0 0 0 2 0 0 2 0 0 0 2 0 0 0 2 1:0.277838 2:0.574116 3:-0.555517 4:-0.120585 5:0.00441716 6:-0.125998 7:0.0811661 8:0.0247765 9:0.209909 10:0.105302 11:-0.064344 12:-0.163862 13:-0.37367 14:-0.0884063 15:0.228449 16:-0.0495283 17:0.212642 18:-0.0763814 19:-0.296452 20:-0.447014 21:-0.35735 22:-0.116399 23:0.232839 24:0.301507 25:0.447398 26:0.408412 27:0.165504 28:-0.740084 29:-0.802045 30:-0.719218 31:-0.763529 32:-0.436368 33:-0.0430948 34:0.411191 35:0.327679 36:0.0521822 37:0.111424 38:0.142868 39:-0.215387 40:-0.183128 
-0 -0 0 2 2 0 0 0 0 2 0 0 0 0 0 0 0 1.712122433969833 0 0 0 0 2 1:0.0131695 2:0.691437 3:-0.364008 4:-0.342483 5:-0.0400581 6:0.0937591 7:-0.0447561 8:-0.0885276 9:0.263733 10:0.142438 11:-0.0166218 12:-0.165074 13:-0.435679 14:-0.131182 15:0.346351 16:-0.134313 17:0.0695082 18:0.0585393 19:-0.331211 20:-0.809716 21:-0.21459 22:-0.0269717 23:-0.153728 24:0.297606 25:0.583349 26:0.188567 27:0.240645 28:-0.629183 29:-0.829833 30:-0.621453 31:-0.813132 32:-0.50732 33:0.0356332 34:0.464608 35:0.168497 36:-0.0712593 37:0.150939 38:0.15575 39:-0.191288 40:0.0784882 
-0 -0 2 2 0 0.7559001904024233 0.2583854197893806 0.7173145524417609 0 2 2 0 2 0.6463432712097764 2 0 0.3323546010100776 2 2 2 2 1.85291513076412 0 1:0.0669131 2:0.696183 3:-0.356773 4:-0.250454 5:-0.188073 6:0.233097 7:-0.0261607 8:-0.185191 9:0.369353 10:0.0628885 11:-0.0484534 12:-0.0772674 13:-0.458926 14:-0.0025509 15:0.466126 16:-0.231011 17:0.309735 18:0.0386028 19:-0.398147 20:-0.655451 21:-0.42131 22:-0.185709 23:-0.0752081 24:0.113239 25:0.614747 26:0.231934 27:0.15213 28:-0.449644 29:-0.765417 30:-0.509184 31:-0.687824 32:-0.479094 33:0.109497 34:0.513727 35:0.0941516 36:-0.0776143 37:0.0691443 38:-0.0202017 39:-0.256635 40:-0.0313409 
-2 -2 2 2 2 2 2 2 2 2 2 2 2 2 2 2 0 2 2 0.4104256515976166 2 1.62979701050833 2 1:0.549077 2:0.357199 3:-0.519554 4:-0.0246011 5:-0.0745909 6:-0.279752 7:0.254588 8:-0.100195 9:0.163457 10:0.230016 11:-0.200877 12:-0.092659 13:-0.224682 14:-0.272671 15:0.169113 16:0.0838612 17:0.0106144 18:-0.0857045 19:-0.127058 20:-0.627753 21:-0.326321 22:-0.151691 23:0.219835 24:0.223576 25:0.471213 26:0.45519 27:0.136887 28:-0.869038 29:-0.712324 30:-0.56937 31:-0.873623 32:-0.382547 33:-0.0518301 34:0.308759 35:0.215313 36:-0.0155573 37:0.134203 38:0.00962838 39:-0.285794 40:-0.134756 
-0 -0 0 0 0 0 0 0 0 0 0.8006253320456574 0 0 0 0 0 0 2 0 0 0 0 0 1:0.0305181 2:0.685737 3:-0.386565 4:-0.349889 5:-0.0661452 6:0.118664 7:-0.0323223 8:-0.0757074 9:0.338674 10:0.0529989 11:-0.0836493 12:-0.103914 13:-0.462347 14:-0.122366 15:0.338028 16:-0.155374 17:0.0761533 18:0.0819277 19:-0.297982 20:-0.807492 21:-0.247796 22:-0.0655681 23:-0.104441 24:0.309441 25:0.556492 26:0.151819 27:0.18749 28:-0.676319 29:-0.801539 30:-0.565861 31:-0.75137 32:-0.518319 33:0.04606 34:0.473422 35:0.208587 36:-0.0628821 37:0.122816 38:-0.0667254 39:-0.286892 40:-0.0117122 
-0.6995164168685495 -0 0 0 0 0 0 0 0 0 0 1.988288499555406 0 0 0 0 0 0 0 0 0 0 0.7122583279848838 1:0.118793 2:0.588129 3:-0.294313 4:-0.37582 5:-0.0374351 6:0.12689 7:0.00449857 8:-0.146256 9:0.295894 10:0.158831 11:0.00692262 12:-0.132287 13:-0.376074 14:-0.178436 15:0.428987 16:-0.208225 17:0.206534 18:0.0585883 19:-0.332623 20:-0.790524 21:-0.197765 22:-0.0898984 23:-0.0763808 24:0.406414 25:0.475632 26:0.377066 27:0.138241 28:-0.703836 29:-0.776562 30:-0.647703 31:-0.822736 32:-0.476711 33:0.0267804 34:0.438886 35:0.221879 36:-0.0985624 37:0.168818 38:0.0669595 39:-0.214632 40:0.0580982 
-0 -0 0 0 0 0 0 0 0 0 2 0 0 0 0 1.510465587334338 0 0 0 0 0 0 0 1:0.060772 2:0.641624 3:-0.356678 4:-0.369056 5:-0.053722 6:0.0731462 7:0.00693598 8:-0.116538 9:0.334971 10:0.108818 11:-0.00937512 12:-0.20137 13:-0.379278 14:-0.0709601 15:0.446493 16:-0.101906 17:0.171964 18:0.0431063 19:-0.29287 20:-0.786384 21:-0.195273 22:-0.007353 23:-0.123639 24:0.270235 25:0.451433 26:0.157995 27:0.122501 28:-0.779848 29:-0.853202 30:-0.680751 31:-0.887315 32:-0.579274 33:-0.0450074 34:0.32294 35:0.118572 36:-0.189935 37:0.00740666 38:-0.153122 39:-0.318498 40:0.012794 
-2 -0 0 2 2 0 0 0 0 0 0 0 0 1.420672369369599 0 0 0 0 0 0 0 0 0 1:0.130357 2:0.590433 3:-0.349759 4:-0.370525 5:0.0643794 6:0.0273703 7:-0.0461928 8:-0.0803906 9:0.261275 10:0.197095 11:-0.100554 12:-0.0057874 13:-0.543777 14:-0.0868112 15:0.294102 16:-0.0677008 17:-0.025807 18:0.120198 19:-0.309903 20:-0.737585 21:-0.325902 22:0.0199768 23:0.0122042 24:0.243396 25:0.539573 26:0.22312 27:0.322043 28:-0.827598 29:-0.813435 30:-0.647203 31:-0.852084 32:-0.539887 33:0.0314391 34:0.492255 35:0.155262 36:-0.141728 37:0.177925 38:0.106224 39:-0.141417 40:0.138186 
-0 -0 0 0 0 0 0 0 0 0 0 0 0 0 0 0 0 0 0 0 0 0 2 1:0.0782991 2:0.639977 3:-0.29411 4:-0.30252 5:-0.0368023 6:0.35073 7:-0.0369254 8:0.0289102 9:0.215394 10:0.351945 11:-0.130227 12:0.0481271 13:-0.390677 14:-0.0677229 15:0.704221 16:-0.262022 17:0.439477 18:-0.00154582 19:-0.205337 20:-0.852064 21:-0.109396 22:0.0153318 23:-0.0259022 24:0.540667 25:0.55945 26:0.471034 27:0.17066 28:-0.606154 29:-0.806823 30:-0.67121 31:-0.771657 32:-0.507941 33:0.206219 34:0.52886 35:0.27396 36:-0.0595885 37:0.122638 38:0.103799 39:-0.285622 40:0.10799 
-2 -2 2 2 2 2 2 2 2 2 2 2 2 2 2 2 2 2 2 2 2 2 2 1:0.47396 2:0.445294 3:-0.433511 4:0.0846137 5:-0.200997 6:-0.535474 7:-0.171811 8:-0.270624 9:0.1773 10:0.022493 11:-0.648031 12:-0.188105 13:-0.111247 14:-0.115192 15:-0.395804 16:-0.224913 17:0.0564468 18:-0.00917572 19:-0.0089 20:0.109245 21:0.239281 22:0.0996217 23:0.246501 24:-0.0696017 25:-0.0327889 26:0.298448 27:-0.000176546 28:-0.100318 29:-0.337487 30:-0.357124 31:-0.659318 32:-0.68238 33:-0.409617 34:-0.12962 35:0.0749449 36:-0.110307 37:0.174338 38:0.601324 39:0.0944047 40:-0.179396 
-0 -0 0 0 0 0 0 0 0 0 0 0 0 0 1.313741085178373 0 0 0 0 0 0 0 0 1:0.146007 2:0.586177 3:-0.411108 4:-0.233432 5:-0.0421088 6:-0.0252943 7:0.0714326 8:-0.124516 9:0.216814 10:0.166284 11:-0.0373586 12:-0.266469 13:-0.318925 14:-0.163355 15:0.284292 16:-0.0515867 17:0.100802 18:-0.0106349 19:-0.310017 20:-0.70109 21:-0.41392 22:0.0561572 23:0.015128 24:0.253254 25:0.588635 26:0.346532 27:0.131225 28:-0.790351 29:-0.790332 30:-0.74587 31:-0.816527 32:-0.542831 33:0.0368018 34:0.485307 35:0.251886 36:-0.125366 37:0.137248 38:0.205984 39:-0.224027 40:-0.0102362 
-0 -0 0 0 0 0 0 0 0 0 0 2 0 0 1.615111686873285 0 0 0 0 0 0 0 0 1:0.209732 2:0.583412 3:-0.516777 4:-0.110858 5:-0.0894979 6:-0.0726241 7:0.123256 8:-0.105381 9:0.159725 10:0.192453 11:-0.188843 12:-0.161514 13:-0.322094 14:-0.122075 15:0.152184 16:0.00870507 17:0.179101 18:-0.0973731 19:-0.322311 20:-0.578743 21:-0.45598 22:-0.122828 23:0.160421 24:0.282176 25:0.529305 26:0.465783 27:0.0772645 28:-0.91979 29:-0.745287 30:-0.767865 31:-0.795734 32:-0.430432 33:-0.0349738 34:0.422327 35:0.328924 36:-0.0308349 37:0.0985476 38:0.200368 39:-0.262376 40:-0.0753409 
-0 -1.572381923505066 0 0 0 0 0 0 2 0 2 0 0 0 0.4488253679289438 0 0 2 0 2 0 0 2 1:0.212462 2:0.598823 3:-0.532396 4:-0.0362461 5:-0.142712 6:-0.106894 7:0.138829 8:-0.10768 9:0.0656742 10:0.252238 11:-0.170315 12:-0.236655 13:-0.237773 14:-0.141659 15:0.244845 16:0.0974204 17:0.121259 18:-0.0444731 19:-0.308215 20:-0.602206 21:-0.497504 22:0.0159919 23:0.00748306 24:0.252835 25:0.614571 26:0.360562 27:0.042492 28:-0.523525 29:-0.804088 30:-0.801416 31:-0.726699 32:-0.40094 33:-0.0443287 34:0.525658 35:0.296743 36:-0.180957 37:0.132773 38:0.0247353 39:-0.32073 40:0.0389508 
-0 -0 0 0 0 0 0 0 0 1.626378800979483 0 0 0 0 0 0 0 0 0 0 0 0 0 1:0.0260728 2:0.68759 3:-0.367197 4:-0.292263 5:-0.18679 6:0.296516 7:-0.0636687 8:-0.0659209 9:0.319355 10:0.0255022 11:0.0663387 12:-0.244924 13:-0.434787 14:-0.0131026 15:0.214747 16:-0.0682844 17:0.00612608 18:0.122013 19:-0.443752 20:-0.872228 21:-0.193983 22:-0.19378 23:-0.0440743 24:0.356871 25:0.531594 26:0.360612 27:0.0737221 28:-0.670139 29:-0.78736 30:-0.726551 31:-0.713062 32:-0.585367 33:0.131819 34:0.45338 35:0.238839 36:0.00210674 37:0.13694 38:0.131111 39:-0.295181 40:0.0397033 
-0 -0 0 0 0 0 0 0 0 2 2 0 0 0 0 0 0 0 0 0 0 0 0 1:0.0309733 2:0.69544 3:-0.375956 4:-0.305882 5:-0.0802157 6:0.135235 7:-0.00695187 8:-0.122996 9:0.28956 10:0.113195 11:-0.00592306 12:-0.149273 13:-0.437534 14:-0.103476 15:0.373573 16:-0.16682 17:0.127338 18:0.0509621 19:-0.344528 20:-0.783285 21:-0.298571 22:-0.0725178 23:-0.142242 24:0.283428 25:0.5231 26:0.267756 27:0.170664 28:-0.690353 29:-0.808766 30:-0.595263 31:-0.837305 32:-0.544744 33:0.0855814 34:0.418266 35:0.213555 36:-0.12833 37:0.128889 38:0.120222 39:-0.21466 40:0.0383175 
-0 -0 0 0 0 0 0 0 0 0 0 2 0 0 0 0 0 0 0 0 0 0 0 1:0.149828 2:0.567507 3:-0.437915 4:-0.226963 5:-0.0726874 6:0.0225179 7:0.0976911 8:-0.15473 9:0.177378 10:0.242837 11:-0.126103 12:-0.279382 13:-0.326656 14:-0.119192 15:0.293636 16:-0.0292061 17:0.0939942 18:-0.0295474 19:-0.282884 20:-0.709804 21:-0.341359 22:-0.0804249 23:0.166511 24:0.430329 25:0.5716 26:0.365152 27:0.175642 28:-0.778645 29:-0.775936 30:-0.826176 31:-0.918942 32:-0.417191 33:0.116161 34:0.448183 35:0.327052 36:-0.0193883 37:0.130575 38:0.0653431 39:-0.175155 40:-0.0391813 
-0 -0 0 0 0 0 0 0 0 0 0 2 0 0 0 0 0 0 0 0 0 0 0 1:0.104323 2:0.600413 3:-0.411401 4:-0.303489 5:0.0435953 6:0.000696688 7:0.0161821 8:-0.0832762 9:0.28758 10:0.029635 11:-0.0434108 12:-0.189523 13:-0.355132 14:-0.16696 15:0.256415 16:0.0122211 17:0.12945 18:-0.0918177 19:-0.324806 20:-0.654861 21:-0.370539 22:-0.0403841 23:0.0491918 24:0.398391 25:0.619416 26:0.334201 27:0.156134 28:-0.757473 29:-0.826977 30:-0.791946 31:-0.857831 32:-0.484838 33:0.0493173 34:0.508246 35:0.286351 36:-0.0461068 37:0.167781 38:0.0014003 39:-0.200815 40:-0.0122095 
-0 -0 0 0 2 0 0 1.262404057998847 0 1.69705525663708 0 2 0 0 2 0 0 0 0 0 0 0 0 1:0.173161 2:0.619771 3:-0.493631 4:-0.17834 5:-0.14021 6:0.007585 7:0.0596935 8:-0.0676987 9:0.239471 10:0.191245 11:-0.115802 12:-0.196004 13:-0.177234 14:-0.258457 15:0.1527 16:0.0498484 17:-0.00496955 18:-0.05372 19:-0.145924 20:-0.728963 21:-0.293057 22:-0.0332924 23:0.11567 24:0.386889 25:0.532621 26:0.3068 27:0.253513 28:-0.741694 29:-0.85617 30:-0.543504 31:-0.759586 32:-0.615344 33:-0.0318818 34:0.424536 35:0.259618 36:0.0598562 37:0.166435 38:0.247707 39:-0.144131 40:-0.0990933 
-1.007837570295705 -0 0 0 0 0 0 0 0 0 2 0 0 0 0 0 0 0 0 0 2 0 0 1:0.0846561 2:0.654767 3:-0.344144 4:-0.368276 5:-0.0362729 6:0.105233 7:-0.00761565 8:-0.128468 9:0.322006 10:0.0514744 11:-0.00166362 12:-0.161752 13:-0.426262 14:-0.0330536 15:0.306844 16:-0.104054 17:0.0949188 18:0.0694822 19:-0.346468 20:-0.833661 21:-0.273399 22:-0.111866 23:-0.12269 24:0.295616 25:0.517241 26:0.250624 27:0.188838 28:-0.746464 29:-0.757464 30:-0.641998 31:-0.768616 32:-0.506048 33:-0.0051408 34:0.453101 35:0.151831 36:-0.0475627 37:0.114293 38:0.0201416 39:-0.27509 40:-0.00516368 
-0 -0 0 0 0 0 0 0 0 0 0 2 0 0 2 0 0 0 0 0 0 0 2 1:0.237965 2:0.573995 3:-0.538658 4:-0.0299244 5:-0.154328 6:-0.134391 7:0.169605 8:-0.0664235 9:0.112062 10:0.165868 11:0.015385 12:-0.264639 13:-0.434207 14:-0.0289514 15:0.301909 16:-0.185152 17:0.207723 18:0.0225878 19:-0.457778 20:-0.603834 21:-0.28156 22:0.0218477 23:-0.0525831 24:0.354501 25:0.593724 26:0.271376 27:0.0252604 28:-0.611051 29:-0.828487 30:-0.768403 31:-0.767947 32:-0.470402 33:-0.100532 34:0.406674 35:0.305839 36:0.00757462 37:0.188894 38:0.0581172 39:-0.267834 40:0.018332 
-0 -0 0 0 2 0 0 0 0 0 2 0 0 0 1.484278244170012 0 0 0 0 0.1073266296160139 0 0 0 1:-0.0434541 2:0.715901 3:-0.422736 4:-0.342226 5:-0.136501 6:0.130785 7:-0.0480386 8:-0.092324 9:0.336124 10:0.118046 11:0.00137119 12:-0.153049 13:-0.40157 14:-0.0942688 15:0.446379 16:-0.106179 17:0.161219 18:0.111001 19:-0.288444 20:-0.697451 21:-0.162882 22:0.155864 23:-0.0983102 24:0.331024 25:0.540515 26:0.137646 27:0.136585 28:-0.685839 29:-0.875298 30:-0.634889 31:-0.900054 32:-0.612227 33:-0.0836941 34:0.396841 35:0.0936294 36:-0.17445 37:0.04628 38:-0.021735 39:-0.281707 40:0.0385898 
-2 -2 1.284598210428821 2 2 1.563518881358179 2 2 2 0.8381134945204909 2 2 2 2 2 0.4109001119984393 2 1.232151067319856 0.9271096947953483 0 2 0.404384881266855 2 1:0.374977 2:0.489386 3:-0.514096 4:-0.132112 5:0.049698 6:-0.189976 7:0.0947595 8:-0.0932923 9:0.368933 10:0.162463 11:-0.290367 12:-0.100046 13:-0.201301 14:-0.237929 15:0.18741 16:0.0869252 17:0.0970944 18:-0.0779833 19:-0.250574 20:-0.478225 21:-0.287477 22:-0.266866 23:0.06501 24:0.411079 25:0.390159 26:0.290512 27:0.165915 28:-0.642708 29:-0.801808 30:-0.816798 31:-0.719486 32:-0.327763 33:-0.175228 34:0.385696 35:0.356695 36:-0.0914559 37:0.135351 38:0.0845231 39:-0.356515 40:0.0385652 
-0 -0 0 0 0 0 0 0 0 0 0 2 0 0 0 0 0 2 0 0 0 0 0 1:0.310639 2:0.519591 3:-0.530384 4:-0.0400932 5:-0.0838682 6:-0.138588 7:0.137555 8:-0.0545832 9:0.208724 10:0.129534 11:-0.0794639 12:-0.204361 13:-0.234262 14:-0.254828 15:0.165227 16:0.0896175 17:0.06064 18:-0.0729752 19:-0.270341 20:-0.681647 21:-0.330714 22:-0.068428 23:0.0780234 24:0.367528 25:0.444279 26:0.323589 27:0.182541 28:-0.797304 29:-0.751942 30:-0.740618 31:-0.906139 32:-0.408605 33:-0.0442591 34:0.356343 35:0.304039 36:-0.070833 37:0.0199422 38:-0.0757704 39:-0.262675 40:-0.0421297 
-0 -0 0 0 2 0 0 0 0 0 2 0 0 0 1.100545472525414 0 0 0 0 2 0 0 0 1:-0.0434541 2:0.715901 3:-0.422736 4:-0.342226 5:-0.136501 6:0.130785 7:-0.0480386 8:-0.092324 9:0.336124 10:0.118046 11:0.00137119 12:-0.153049 13:-0.40157 14:-0.0942688 15:0.446379 16:-0.106179 17:0.161219 18:0.111001 19:-0.288444 20:-0.697451 21:-0.162882 22:0.155864 23:-0.0983102 24:0.331024 25:0.540515 26:0.137646 27:0.136585 28:-0.685839 29:-0.875298 30:-0.634889 31:-0.900054 32:-0.612227 33:-0.0836941 34:0.396841 35:0.0936294 36:-0.17445 37:0.04628 38:-0.021735 39:-0.281707 40:0.0385898 
-2 -0 0 0 0 0 0 0 0 0 0 2 0 0 0 0 0 0 0 0 0 0 0 1:0.322081 2:0.513983 3:-0.493364 4:-0.101683 5:-0.0642617 6:-0.12452 7:0.16732 8:-0.112547 9:0.273768 10:0.213056 11:-0.263678 12:-0.0410721 13:-0.360163 14:-0.235534 15:0.346893 16:-0.111235 17:0.0257549 18:0.0917444 19:-0.407164 20:-0.687582 21:-0.196622 22:-0.331046 23:0.164629 24:0.366663 25:0.380751 26:0.376218 27:0.127318 28:-0.953527 29:-0.623206 30:-0.747266 31:-0.862692 32:-0.302852 33:-0.117403 34:0.426169 35:0.3418 36:-0.0698991 37:0.151064 38:0.00534633 39:-0.354761 40:-0.0283072 
-0 -0 0 0 1.936652389012905 0 0.8043663917726619 0 2 0 2 0 1.162755335082102 0 0 0 1.229913715958919 0 0 2 2 0 0 1:-0.0691539 2:0.768016 3:-0.436598 4:-0.313446 5:-0.129349 6:0.16237 7:-0.0640385 8:-0.0579056 9:0.294907 10:0.148165 11:-0.0136176 12:-0.16516 13:-0.390413 14:-0.0726027 15:0.423558 16:-0.0804712 17:0.167267 18:0.0965537 19:-0.319138 20:-0.6994 21:-0.169985 22:0.0586364 23:-0.154202 24:0.296668 25:0.514505 26:0.088393 27:0.162715 28:-0.725135 29:-0.847815 30:-0.639397 31:-0.852564 32:-0.622927 33:-0.05514 34:0.350733 35:0.0780512 36:-0.176979 37:0.0389625 38:-0.0952233 39:-0.326771 40:0.0392649 
-0 -0 0 0 0 0 0 0 0 0 0 2 0 0 1.627538999666464 0 0 0 0 0 0 0 0 1:0.209732 2:0.583412 3:-0.516777 4:-0.110858 5:-0.0894979 6:-0.0726241 7:0.123256 8:-0.105381 9:0.159725 10:0.192453 11:-0.188843 12:-0.161514 13:-0.322094 14:-0.122075 15:0.152184 16:0.00870507 17:0.179101 18:-0.0973731 19:-0.322311 20:-0.578743 21:-0.45598 22:-0.122828 23:0.160421 24:0.282176 25:0.529305 26:0.465783 27:0.0772645 28:-0.91979 29:-0.745287 30:-0.767865 31:-0.795734 32:-0.430432 33:-0.0349738 34:0.422327 35:0.328924 36:-0.0308349 37:0.0985476 38:0.200368 39:-0.262376 40:-0.0753409 
-0 -0 0 2 2 0 0 0 0 2 2 0 0 0 0 0 0 0 0 0 2 0 0 1:-0.0512465 2:0.783236 3:-0.421125 4:-0.304274 5:-0.141242 6:0.173574 7:-0.0637184 8:-0.0629344 9:0.271512 10:0.123215 11:-0.0156427 12:-0.142834 13:-0.452747 14:-0.110885 15:0.327554 16:-0.224623 17:0.105798 18:0.0402808 19:-0.357505 20:-0.790413 21:-0.289533 22:-0.0350207 23:-0.21733 24:0.293897 25:0.53288 26:0.135394 27:0.23211 28:-0.68818 29:-0.836155 30:-0.565209 31:-0.783889 32:-0.578565 33:0.000172742 34:0.416566 35:0.139909 36:-0.0352743 37:0.155484 38:0.147344 39:-0.261239 40:0.0782693 
-0 -0 0 0 0 0 0 0 0 0 0 0.977191185488882 0 0 0 0 0 0 0 0 0 0 2 1:0.0782991 2:0.639977 3:-0.29411 4:-0.30252 5:-0.0368023 6:0.35073 7:-0.0369254 8:0.0289102 9:0.215394 10:0.351945 11:-0.130227 12:0.0481271 13:-0.390677 14:-0.0677229 15:0.704221 16:-0.262022 17:0.439477 18:-0.00154582 19:-0.205337 20:-0.852064 21:-0.109396 22:0.0153318 23:-0.0259022 24:0.540667 25:0.55945 26:0.471034 27:0.17066 28:-0.606154 29:-0.806823 30:-0.67121 31:-0.771657 32:-0.507941 33:0.206219 34:0.52886 35:0.27396 36:-0.0595885 37:0.122638 38:0.103799 39:-0.285622 40:0.10799 
-0 -0 0 0 0 2 0 0 0 0 0 0 0 0 0 0 0 0 0 0 0 0 2 1:0.19316 2:0.57913 3:-0.25818 4:-0.309058 5:-0.0866646 6:0.313161 7:0.0467086 8:-0.0285528 9:0.411528 10:0.2024 11:0.028084 12:-0.157547 13:-0.293139 14:-0.177206 15:0.565527 16:-0.22302 17:0.1888 18:0.115028 19:-0.327859 20:-0.668838 21:-0.19668 22:0.0353655 23:-0.152371 24:0.446429 25:0.492077 26:0.310498 27:0.183902 28:-0.689728 29:-0.744182 30:-0.551435 31:-0.762824 32:-0.453157 33:0.0844903 34:0.489149 35:0.237126 36:-0.0156607 37:0.160751 38:-0.0171963 39:-0.272587 40:0.0134846 
-0 -0 0 0 0 0 0 0 2 0 2 2 0 0 0 0 0 2 0 0 0 0 2 1:0.292165 2:0.521055 3:-0.536014 4:-0.0819537 5:-0.00443906 6:-0.188829 7:0.143133 8:-0.0187359 9:0.15525 10:0.237444 11:-0.138642 12:-0.198126 13:-0.344611 14:-0.0964108 15:0.263178 16:-0.0644117 17:0.126134 18:-0.0257262 19:-0.34335 20:-0.66464 21:-0.154908 22:-0.0814348 23:0.135026 24:0.408674 25:0.563182 26:0.324939 27:0.0660199 28:-0.534782 29:-0.813049 30:-0.769888 31:-0.780091 32:-0.452036 33:0.078124 34:0.353994 35:0.320331 36:-0.0505526 37:0.173597 38:-0.389286 39:-0.191636 40:-0.0407221 
-0 -0 0 0 0 0 0 0 0 0 0 2 0 0 0 0 0 0 0 0 0 0 0 1:0.0197621 2:0.689352 3:-0.458608 4:-0.202496 5:-0.238015 6:0.260528 7:-0.0691774 8:-0.0891129 9:0.368919 10:0.0246592 11:0.00693427 12:-0.138533 13:-0.462916 14:-0.04463 15:0.157724 16:-0.0843125 17:0.158799 18:-0.0908681 19:-0.262692 20:-0.773694 21:-0.308555 22:0.0264877 23:-0.0643634 24:0.461623 25:0.567566 26:0.235027 27:0.289919 28:-0.876421 29:-0.815527 30:-0.772899 31:-0.819947 32:-0.544722 33:0.0160735 34:0.504322 35:0.233106 36:-0.00897585 37:0.170058 38:-0.0065337 39:-0.103311 40:-0.0420402 
-0.1547959837381182 -2 -2 2 2 0 2 0.8949274138469311 2 0 2 2 2 1.210760295354107 2 0 2 1.57510052361269 2 2 2 1.768796142229655 2 1:-0.219675 2:0.370094 3:-0.857749 4:-0.407054 5:-0.523005 6:-0.33029 7:0.780626 8:0.525627 9:-0.0083009 10:-0.324535 11:-0.469139 12:-0.129 13:-0.355914 14:-0.557966 15:-0.691557 16:0.115614 17:0.622131 18:0.887881 19:0.564642 20:-0.376472 21:-0.676081 22:-0.372749 23:-0.700923 24:-0.565997 25:-0.27682 26:0.0917821 27:0.448019 28:0.570006 29:0.414904 30:0.0420668 31:-0.449477 32:-0.503009 33:-1 34:-0.569489 35:0.00840704 36:0.736875 37:0.726814 38:-0.042057 39:-0.7628 40:-0.84828 
-0 -0 -0 0 0 0 0 0 0 0 0 0 0 0 0 0 0 0 0 0 0.920046259626354 0 0 1:-0.505014 2:0.484288 3:-0.684507 4:-0.66995 5:-0.555611 6:-0.241331 7:0.792654 8:0.585223 9:-0.0989905 10:-0.463045 11:-0.300155 12:-0.11453 13:-0.470733 14:-0.656742 15:-0.452896 16:0.00780157 17:0.536898 18:0.946518 19:0.44443 20:-0.269962 21:-0.698772 22:-0.568183 23:-0.467218 24:-0.552323 25:-0.228074 26:0.190921 27:0.29656 28:0.573936 29:0.756434 30:-0.277409 31:-0.529798 32:-0.309182 33:-0.985479 34:-0.623597 35:-0.0808799 36:0.731753 37:0.752084 38:-0.172564 39:-0.884345 40:-0.8311 
-0 -0 -0 0 0 0 0 0 0 0.8294308762243454 0 0.3269484584686705 0 0 0 0 0 0 0 0 0 0 0 1:-0.101149 2:0.384177 3:-0.796277 4:-0.484084 5:-0.391206 6:-0.336716 7:0.703279 8:0.610227 9:0.140343 10:-0.48766 11:-0.518681 12:-0.049931 13:-0.473756 14:-0.838274 15:-0.691057 16:-0.151774 17:0.52913 18:0.795063 19:0.319168 20:-0.378176 21:-0.664676 22:-0.793798 23:-0.537894 24:-0.573021 25:-0.296341 26:0.104521 27:0.572093 28:0.682782 29:0.666091 30:0.0611765 31:-0.184841 32:-0.373134 33:-0.882883 34:-0.441296 35:0.0405853 36:0.732778 37:0.876851 38:0.340185 39:-0.642262 40:-0.985138 
-2 -0 -0.6787064849969958 2 0.9725836781626139 2 0 0.0640542252628709 0 2 1.21258781440464 0 0 0 2 0 0 0 0 0 0 2 0 1:0.0679238 2:0.289923 3:-0.747264 4:-0.433572 5:-0.401158 6:-0.262687 7:0.799459 8:0.545294 9:0.159848 10:-0.288277 11:-0.556587 12:-0.0582503 13:-0.397881 14:-0.791817 15:-0.583167 16:-0.0885836 17:0.436883 18:0.820461 19:0.341322 20:-0.320853 21:-0.769653 22:-0.86878 23:-0.475127 24:-0.617622 25:-0.33095 26:0.0986859 27:0.436284 28:0.849907 29:0.568719 30:0.0995037 31:-0.320394 32:-0.38401 33:-0.974136 34:-0.469012 35:-0.0034547 36:0.71523 37:0.878448 38:0.206044 39:-0.67015 40:-0.851379 
-0 -2 -0 0 0 0 0 0 0 0 2 2 2 2 0 2 1.934066237577328 0 0 2 2 0 0.1836990178100946 1:-0.181212 2:0.307815 3:-0.737745 4:-0.527042 5:-0.499786 6:-0.331903 7:0.777946 8:0.591109 9:-0.112545 10:-0.364091 11:-0.497983 12:-0.0501856 13:-0.372534 14:-0.606414 15:-0.506869 16:0.127928 17:0.611531 18:0.880024 19:0.49681 20:-0.189858 21:-0.537871 22:-0.850933 23:-0.471518 24:-0.505463 25:-0.380302 26:0.20526 27:0.402306 28:0.701877 29:0.632319 30:-0.091557 31:-0.466856 32:-0.324208 33:-0.8935 34:-0.522836 35:-0.0703901 36:0.699104 37:0.773484 38:-0.0529252 39:-0.733911 40:-0.980446 
-0.7464611407032904 -2 -0 0 1.170154812643569 1.255023047018317 0.9768544566540084 0.5680143103272213 1.665349665008316 0 2 1.709069114179565 2 2 0.02240112760099092 2 1.867727253041798 0 1.346165589475064 2 2 0 2 1:-0.181212 2:0.307815 3:-0.737745 4:-0.527042 5:-0.499786 6:-0.331903 7:0.777946 8:0.591109 9:-0.112545 10:-0.364091 11:-0.497983 12:-0.0501856 13:-0.372534 14:-0.606414 15:-0.506869 16:0.127928 17:0.611531 18:0.880024 19:0.49681 20:-0.189858 21:-0.537871 22:-0.850933 23:-0.471518 24:-0.505463 25:-0.380302 26:0.20526 27:0.402306 28:0.701877 29:0.632319 30:-0.091557 31:-0.466856 32:-0.324208 33:-0.8935 34:-0.522836 35:-0.0703901 36:0.699104 37:0.773484 38:-0.0529252 39:-0.733911 40:-0.980446 
-2 -0 -0 0 0 2 0 0 0 0 0 0 0 0.7656513739637436 0 1.541409177432028 0 0 0 0 0 0 0 1:-0.246505 2:0.279766 3:-0.437104 4:-0.76852 5:-0.470406 6:0.0136663 7:0.631728 8:0.886796 9:-0.29303 10:-0.266934 11:-0.309492 12:-0.0197143 13:-0.338476 14:-0.770935 15:-0.379974 16:-0.0237256 17:0.630144 18:0.911626 19:0.396363 20:-0.216599 21:-0.858391 22:-0.447092 23:-0.748921 24:-0.526414 25:-0.386089 26:0.244996 27:0.054063 28:0.444835 29:0.737112 30:-0.34814 31:-0.636383 32:-0.350569 33:-0.896327 34:-0.804282 35:0.0720511 36:0.679037 37:0.877035 38:-0.204499 39:-0.781687 40:-0.857087 
-2 -0 -2 2 1.50693471575198 2 1.846449472338092 2 0 2 1.886619768506623 0 1.035955215545135 0.4740617735763163 2 0.166500397058629 0 0 0.7754508810126249 0 1.871250541027831 2 0 1:0.0679238 2:0.289923 3:-0.747264 4:-0.433572 5:-0.401158 6:-0.262687 7:0.799459 8:0.545294 9:0.159848 10:-0.288277 11:-0.556587 12:-0.0582503 13:-0.397881 14:-0.791817 15:-0.583167 16:-0.0885836 17:0.436883 18:0.820461 19:0.341322 20:-0.320853 21:-0.769653 22:-0.86878 23:-0.475127 24:-0.617622 25:-0.33095 26:0.0986859 27:0.436284 28:0.849907 29:0.568719 30:0.0995037 31:-0.320394 32:-0.38401 33:-0.974136 34:-0.469012 35:-0.0034547 36:0.71523 37:0.878448 38:0.206044 39:-0.67015 40:-0.851379 
-0 -0 -0.5296701901634897 0.7229166197283017 1.190042407166302 0 0.79427027027096 0 0.4644065618573567 0 0 0 2 0.2566971047288593 0 0 0 0 0.6865884687222216 1.909293536330289 0 1.597557264432404 1.438313501026036 1:-0.132974 2:0.572042 3:-0.39234 4:-0.39002 5:-0.25278 6:0.310965 7:1 8:1 9:0.33576 10:-0.0648 11:0.0833288 12:0.287038 13:-0.2354 14:-0.301547 15:-0.355754 16:0.201163 17:0.739681 18:1 19:0.567209 20:-0.297588 21:-0.617367 22:-0.494301 23:-0.515992 24:-0.621999 25:-0.188604 26:0.162866 27:0.363959 28:0.678158 29:0.91494 30:-0.102969 31:-0.423926 32:-0.165942 33:-0.814937 34:-0.674938 35:-0.0757277 36:0.814886 37:0.882197 38:-0.104218 39:-0.728086 40:-0.829044 
-0 -0.8330033726649005 -0.1049049605539503 0 1.337044519246736 0 0.1158854999088899 0 0 0 0.1904045786057386 0 0 0 2 0 0 0 0.7872204654323712 0 2 0 0 1:-0.306376 2:0.391321 3:-0.786625 4:-0.493916 5:-0.527729 6:-0.312588 7:0.753636 8:0.582687 9:-0.0940501 10:-0.466474 11:-0.427522 12:-0.12533 13:-0.32968 14:-0.737589 15:-0.693136 16:0.152363 17:0.693948 18:0.787438 19:0.476469 20:-0.149865 21:-0.727206 22:-0.883494 23:-0.42337 24:-0.573865 25:-0.426888 26:0.146762 27:0.487387 28:0.353023 29:0.553348 30:0.0225188 31:-0.457202 32:-0.502413 33:-0.920307 34:-0.617069 35:0.0256531 36:0.672891 37:0.687666 38:0.204121 39:-0.82945 40:-0.954503 
-0 -0 -2 0 0 0 0 0 0 0 0 1.208215475008166 0 0 0.9594690325210493 0 0 0 1.33678100149994 0 0 0 0 1:-0.26292 2:0.282325 3:-0.473302 4:-0.694932 5:-0.661343 6:0.0999833 7:0.694368 8:0.721039 9:-0.0235486 10:-0.479242 11:-0.259648 12:-0.00187368 13:-0.537926 14:-0.631578 15:-0.441519 16:-0.223125 17:0.780812 18:0.729991 19:0.381933 20:-0.236097 21:-0.941339 22:-0.336567 23:-0.762886 24:-0.550741 25:-0.286875 26:0.240039 27:0.0905272 28:0.581141 29:0.665671 30:-0.262847 31:-0.657287 32:-0.355065 33:-0.891344 34:-0.76761 35:-0.0527838 36:0.872722 37:0.614975 38:0.156163 39:-1 40:-0.730619 
-0 -0 -0 0 0 0 0 0 0 0 0 0.2909308858204346 0 0 0 0 1.33258328988108 0 0 0 1.80998973905623 0 0 1:-0.505014 2:0.484288 3:-0.684507 4:-0.66995 5:-0.555611 6:-0.241331 7:0.792654 8:0.585223 9:-0.0989905 10:-0.463045 11:-0.300155 12:-0.11453 13:-0.470733 14:-0.656742 15:-0.452896 16:0.00780157 17:0.536898 18:0.946518 19:0.44443 20:-0.269962 21:-0.698772 22:-0.568183 23:-0.467218 24:-0.552323 25:-0.228074 26:0.190921 27:0.29656 28:0.573936 29:0.756434 30:-0.277409 31:-0.529798 32:-0.309182 33:-0.985479 34:-0.623597 35:-0.0808799 36:0.731753 37:0.752084 38:-0.172564 39:-0.884345 40:-0.8311 
-0.4286115955165209 -0 -0.4852566259935681 0 0 0 0 2 0 1.125526450244129 0 0 0 0 2 0 0 0.9758977291985157 0 0 0 0 0 1:-0.0359582 2:0.361171 3:-0.805513 4:-0.448748 5:-0.438076 6:-0.252554 7:0.731863 8:0.514838 9:0.143522 10:-0.283424 11:-0.694423 12:-0.168627 13:-0.263402 14:-0.830529 15:-0.878888 16:-0.0198012 17:0.449083 18:0.879966 19:0.273372 20:-0.630663 21:-0.57197 22:-0.646671 23:-0.795942 24:-0.679751 25:-0.293637 26:0.236508 27:0.305035 28:0.679214 29:0.669402 30:0.118203 31:-0.338636 32:-0.384122 33:-0.874361 34:-0.480366 35:-9.99002e-05 36:0.67612 37:0.835522 38:0.254604 39:-0.659465 40:-0.916292 
-0 -0 -0 0 0 0 0 0 0 2 0 0 0 0 0 0 0 0 0 0 0 0 0 1:-0.0816622 2:0.370982 3:-0.720153 4:-0.43909 5:-0.488164 6:-0.264922 7:0.797274 8:0.59106 9:0.0702507 10:-0.445363 11:-0.420586 12:-0.0339965 13:-0.511643 14:-0.772076 15:-0.5068 16:0.00488618 17:0.376247 18:0.879854 19:0.470237 20:-0.450625 21:-0.780421 22:-0.763242 23:-0.556366 24:-0.576651 25:-0.342625 26:0.209177 27:0.369692 28:0.958015 29:0.719193 30:0.14098 31:-0.254981 32:-0.343838 33:-0.703198 34:-0.543639 35:0.00988129 36:0.666233 37:0.917952 38:0.15615 39:-0.760607 40:-0.877333 
-0 -0 -0 1.121068721719924 0 0 0 0 0 2 0 0 0 0 0 0 0 2 0 0 0.9958021823908382 0.5902948055654843 0.3796222949177785 1:-0.129826 2:0.419014 3:-0.747701 4:-0.46897 5:-0.47761 6:-0.320353 7:0.822842 8:0.551375 9:0.0856537 10:-0.465153 11:-0.391247 12:0.00407674 13:-0.5148 14:-0.830032 15:-0.496056 16:-0.0112343 17:0.376872 18:0.80922 19:0.436559 20:-0.415295 21:-0.735495 22:-0.657111 23:-0.615805 24:-0.616561 25:-0.240386 26:0.192662 27:0.381938 28:0.799128 29:0.78567 30:0.0421113 31:-0.257185 32:-0.258985 33:-0.890251 34:-0.491813 35:0.100065 36:0.562222 37:0.987368 38:0.226922 39:-0.803079 40:-0.796974 
-0 -0 -0 0 0 0 0 0 0.6923152109150237 0 0.7874121855953595 0 0 0 0 0 0 0 0 0 0 0 0 1:-0.445286 2:0.49088 3:-0.546243 4:-0.703064 5:-0.408943 6:-0.116592 7:0.820407 8:0.699049 9:-0.0387451 10:-0.368726 11:-0.189832 12:-0.0767215 13:-0.284558 14:-0.68644 15:-0.27969 16:-0.0575339 17:0.755518 18:0.899699 19:0.500815 20:-0.331753 21:-0.685057 22:-0.507348 23:-0.658121 24:-0.633832 25:-0.295478 26:0.21123 27:0.0366868 28:0.548137 29:0.766463 30:-0.347348 31:-0.642979 32:-0.258885 33:-0.950741 34:-0.72755 35:-0.0719409 36:0.756536 37:0.842058 38:-0.489661 39:-0.707198 40:-0.892852 
-0 -0 -0 2 0 0 0.4250981250115601 2 0 2 0 0 0 2 0 0 0 2 0 0 0 0 0.1248895678046522 1:-0.0551915 2:0.370799 3:-0.748976 4:-0.463745 5:-0.34866 6:-0.367523 7:0.823008 8:0.647001 9:0.0169148 10:-0.388189 11:-0.432316 12:-0.0605683 13:-0.476045 14:-0.767138 15:-0.786717 16:0.107262 17:0.428238 18:0.74415 19:0.353112 20:-0.226228 21:-0.722891 22:-0.949774 23:-0.532499 24:-0.530037 25:-0.427458 26:0.102584 27:0.618764 28:0.655664 29:0.597253 30:0.22366 31:-0.246235 32:-0.383079 33:-0.888972 34:-0.446419 35:-0.0245151 36:0.754072 37:0.862531 38:-0.00474849 39:-0.541649 40:-0.972348 
-0 -0 -0 0 0 0 0 0 0 0 0 0 0 0 0 0 0 0.09714755741797639 0 0 0 0 0 1:-0.247522 2:0.410164 3:-0.517593 4:-0.677651 5:-0.665968 6:0.051602 7:0.594798 8:0.848371 9:-0.387579 10:-0.232558 11:-0.409841 12:-0.0603894 13:-0.49911 14:-0.743898 15:-0.500693 16:-0.251996 17:0.688457 18:0.690556 19:0.535196 20:-0.754795 21:-0.593964 22:-0.695557 23:-0.654449 24:-0.515622 25:-0.462605 26:0.56661 27:-0.0649301 28:0.998333 29:0.891561 30:-0.121605 31:-0.308904 32:-0.256191 33:-0.587299 34:-0.790874 35:0.108867 36:0.767873 37:1 38:-0.153242 39:-0.678206 40:-0.815997 
-0 -0 -0 0 0 0 0 0 0 2 0 0 0 0 0 0 0 0.7370381723256249 0 0 0 0 2 1:-0.0689428 2:0.394069 3:-0.769564 4:-0.466252 5:-0.388508 6:-0.309468 7:0.776995 8:0.64557 9:0.164514 10:-0.491469 11:-0.442028 12:-0.00565949 13:-0.445516 14:-0.864798 15:-0.723215 16:0.0301245 17:0.484613 18:0.648183 19:0.332747 20:-0.263567 21:-0.630508 22:-1 23:-0.606953 24:-0.5101 25:-0.408486 26:0.137812 27:0.492992 28:0.632228 29:0.638871 30:0.0511461 31:-0.313295 32:-0.41817 33:-0.834154 34:-0.577639 35:0.0269828 36:0.747116 37:0.79523 38:0.382144 39:-0.646513 40:-0.899948 
-1.839656782057066 -0 -0 0 0 2 0 0 0.4879222110884717 0 0 1.015514622603723 0.2874015429653153 2 0 1.219654335267461 0 0 0.1666630913934248 0 0 0 0 1:-0.246505 2:0.279766 3:-0.437104 4:-0.76852 5:-0.470406 6:0.0136663 7:0.631728 8:0.886796 9:-0.29303 10:-0.266934 11:-0.309492 12:-0.0197143 13:-0.338476 14:-0.770935 15:-0.379974 16:-0.0237256 17:0.630144 18:0.911626 19:0.396363 20:-0.216599 21:-0.858391 22:-0.447092 23:-0.748921 24:-0.526414 25:-0.386089 26:0.244996 27:0.054063 28:0.444835 29:0.737112 30:-0.34814 31:-0.636383 32:-0.350569 33:-0.896327 34:-0.804282 35:0.0720511 36:0.679037 37:0.877035 38:-0.204499 39:-0.781687 40:-0.857087 
-0 -0.7045756279845554 -1.989881169089748 0 0.05512575282886445 0 2 0 2 0 2 0 0.67664324148955 0 0 0 0 0 0 0.5775402279413802 2 0 0 1:-0.317841 2:0.427735 3:-0.812135 4:-0.437405 5:-0.570311 6:-0.311492 7:0.739297 8:0.634918 9:-0.171025 10:-0.316732 11:-0.459251 12:-0.0674859 13:-0.358661 14:-0.758969 15:-0.558452 16:0.216138 17:0.447285 18:0.911316 19:0.510466 20:-0.344906 21:-0.577354 22:-0.775015 23:-0.511412 24:-0.584178 25:-0.321891 26:0.119722 27:0.352377 28:0.533205 29:0.570939 30:0.00145201 31:-0.494612 32:-0.469617 33:-0.899399 34:-0.633234 35:0.0360945 36:0.682546 37:0.783638 38:-0.150694 39:-0.696623 40:-0.992408 
-0 -0 -0 -0 0 0 0 0 2 0 0.3856107751988444 0 0 0 0 1.167965829305508 2 2 0 2 0 0 0 1:0.211369 2:0.641507 3:-0.415251 4:-0.0330594 5:-0.0642155 6:-0.579268 7:-0.268926 8:-0.21648 9:0.39764 10:0.255755 11:-0.200413 12:0.0179308 13:-0.177433 14:-0.0460521 15:0.323385 16:-0.172578 17:-0.533332 18:0.025679 19:0.42965 20:-0.221225 21:-0.256941 22:0.0486412 23:-0.159381 24:-0.434557 25:-0.241709 26:0.19149 27:0.651817 28:-0.0279755 29:-0.243366 30:-0.111629 31:-0.0155167 32:0.319482 33:-0.00359623 34:0.0589866 35:-0.100806 36:-0.340881 37:0.0654758 38:-0.0619395 39:0.596767 40:0.485497 
-0 -2 -1.123188363310474 -0.3266742445714802 2 0 0 2 0.3912871365573139 2 2 2 0 0.3559376873974868 2 0 1.661256125016576 0 0 0 2 2 2 1:0.232228 2:0.63523 3:-0.534395 4:0.120629 5:-0.0843663 6:-0.686978 7:-0.18902 8:-0.217847 9:0.350202 10:0.272293 11:-0.169924 12:-0.0562429 13:-0.068346 14:0.0229834 15:0.160557 16:-0.173437 17:-0.522031 18:0.109938 19:0.23529 20:-0.1426 21:-0.149793 22:-0.090268 23:-0.252129 24:-0.223858 25:-0.244758 26:0.186894 27:0.739414 28:0.0462736 29:-0.250893 30:-0.0666964 31:-0.00578331 32:0.459756 33:-0.274877 34:0.0218634 35:-0.0514841 36:-0.272021 37:0.144274 38:0.271284 39:0.410768 40:0.478243 
-2 -2 -2 -2 0 2 2 2 2 2 2 1.543263470945364 2 2 2 2 0 2 2 0 2 2 2 1:0.635651 2:0.44981 3:-0.498509 4:0.165515 5:-0.138056 6:-0.728295 7:-0.049834 8:-0.222274 9:0.273651 10:0.281283 11:-0.314016 12:-0.00520457 13:-0.0819087 14:-0.0353875 15:0.282503 16:-0.218869 17:-0.528216 18:-0.0138425 19:0.331417 20:-0.0725989 21:-0.308812 22:-0.194491 23:-0.156417 24:-0.458414 25:-0.253344 26:0.267966 27:0.557934 28:-0.11573 29:-0.139132 30:0.212524 31:0.0771455 32:0.316996 33:0.00686504 34:0.0419325 35:0.00740872 36:-0.0666562 37:0.151982 38:0.218724 39:0.363583 40:0.243402 
-2 -2 -2 -2 2 2 2 2 2 2 2 2 2 2 2 0.605333904236942 2 0.5832785408857299 2 2 2 2 2 1:0.422854 2:0.609349 3:-0.572072 4:0.102562 5:-0.0295537 6:-0.748388 7:-0.177338 8:-0.0871864 9:0.24932 10:0.216046 11:-0.169612 12:0.0791742 13:-0.199383 14:0.22956 15:0.0897008 16:-0.225049 17:-0.366921 18:0.0846982 19:0.0830186 20:0.130186 21:-0.0825872 22:-0.153259 23:-0.222876 24:-0.240063 25:-0.268322 26:0.0123635 27:0.780383 28:-0.0753424 29:-0.233337 30:-0.0772711 31:0.0622412 32:0.26951 33:-0.200557 34:-0.0674837 35:-0.143953 36:-0.103367 37:0.197058 38:0.0524455 39:0.503391 40:0.304705 
-0 -0 -0 -0 2 0 0 0 0 0 0 0 0 0 0 0 0 0 2 0 0 0 0 1:0.122457 2:0.72857 3:-0.500061 4:0.0620665 5:-0.104142 6:-0.584221 7:-0.283599 8:-0.201315 9:0.33225 10:0.269329 11:-0.0727204 12:-0.0880143 13:-0.20801 14:0.0663517 15:0.268695 16:-0.21399 17:-0.510735 18:0.129728 19:0.317918 20:-0.110103 21:-0.18811 22:-0.00568636 23:-0.190574 24:-0.327825 25:-0.225794 26:0.124464 27:0.815649 28:-0.125079 29:-0.20639 30:-0.058373 31:-0.0959212 32:0.479565 33:-0.00283131 34:0.00184049 35:-0.0665164 36:-0.293104 37:-0.00919525 38:0.170393 39:0.631276 40:0.419678 
-2 -0 -0 -0 0 0 0 2 0 2 0 0 0 0 2 0 0 0 0 0 0 2 0 1:0.587411 2:0.449905 3:-0.471479 4:0.168131 5:-0.15678 6:-0.730779 7:-0.0815304 8:-0.256851 9:0.264467 10:0.278282 11:-0.189593 12:-0.0417774 13:-0.0722121 14:-0.0390579 15:0.134864 16:-0.208622 17:-0.676789 18:0.0320695 19:0.414724 20:-0.256565 21:-0.347491 22:-0.0250982 23:-0.17286 24:-0.493177 25:-0.100398 26:0.140661 27:0.694859 28:-0.030524 29:-0.0570544 30:0.0271023 31:0.0495118 32:0.361011 33:0.0785681 34:0.0516763 35:-0.101854 36:-0.0419934 37:0.152341 38:0.477397 39:0.548914 40:0.442838 
-0 -0 -0 -0 2 0 0 0 1.465256890581154 2 2 0 2 0 0.4132077077878616 0 0 0 2 2 0 2 0 1:0.173838 2:0.682036 3:-0.440494 4:0.0262937 5:-0.211291 6:-0.468052 7:-0.306136 8:-0.176851 9:0.376277 10:0.213877 11:-0.107251 12:-0.0140364 13:-0.198063 14:-0.0101145 15:0.36008 16:-0.209572 17:-0.535317 18:0.154439 19:0.278976 20:-0.173558 21:-0.132997 22:0.0467085 23:-0.249981 24:-0.359377 25:-0.222185 26:0.0759011 27:0.755462 28:0.0480366 29:-0.252581 30:-0.129688 31:0.0766548 32:0.285359 33:0.0231389 34:0.0276341 35:-0.0924443 36:-0.31005 37:0.040417 38:0.145616 39:0.469098 40:0.551836 
-0 -0 -0 -1.517311096876746 0 0 0 2 0 2 0 0 0 0 2 0 0 2 0 0 0 0 0 1:0.352815 2:0.617152 3:-0.452649 4:0.0736369 5:-0.143728 6:-0.579209 7:-0.227108 8:-0.171904 9:0.279143 10:0.232975 11:-0.141164 12:-0.0421578 13:-0.170817 14:-0.0511258 15:0.200363 16:-0.233951 17:-0.539599 18:-0.0201428 19:0.252472 20:-0.309776 21:-0.234749 22:-0.0660086 23:-0.172692 24:-0.390136 25:-0.318528 26:0.218026 27:0.729782 28:0.0174237 29:-0.127976 30:0.0790507 31:0.0440605 32:0.293156 33:0.0937594 34:0.0494594 35:-0.0863777 36:-0.0127578 37:0.175997 38:0.27201 39:0.558684 40:0.439252 
-0 -0 -0 -0 0 0 0 0 0 0 0 0 0 0 0 0 2 0 0 0 0 0 0 1:0.0766932 2:0.663442 3:-0.350981 4:-0.0426983 5:-0.197175 6:-0.314853 7:-0.39112 8:-0.203466 9:0.689058 10:-0.000118804 11:0.000694683 12:-0.0204395 13:-0.303418 14:0.164237 15:0.0819267 16:0.00446382 17:-0.759049 18:0.171435 19:0.388971 20:-0.468857 21:0.00711557 22:-0.189816 23:-0.253184 24:-0.300699 25:-0.390352 26:0.0421074 27:0.950604 28:-0.517249 29:-0.0405076 30:-0.251976 31:0.033784 32:0.402378 33:-0.101096 34:0.0816512 35:-0.115681 36:-0.307875 37:0.0951054 38:-0.111627 39:0.587904 40:0.487168 
-0 -0 -0 -0 0 0 0.7420741213014325 0 2 0 2 0 0 2 0 0 0 0 0 0 0 0 0 1:0.248761 2:0.620415 3:-0.402816 4:0.00902046 5:-0.0938515 6:-0.560441 7:-0.233006 8:-0.240425 9:0.475441 10:0.239486 11:-0.136946 12:-0.0389627 13:-0.105338 14:-0.0414895 15:0.353125 16:-0.155304 17:-0.599625 18:0.131491 19:0.351381 20:-0.132444 21:-0.207443 22:-0.0574917 23:-0.111569 24:-0.382402 25:-0.275213 26:0.123311 27:0.737462 28:-0.0663566 29:-0.21521 30:-0.105314 31:0.0211537 32:0.303457 33:-0.068817 34:0.0589756 35:-0.0709824 36:-0.365935 37:0.0618939 38:0.0256288 39:0.600047 40:0.411035 
-0 -0 -0 -0 2 0 2 0 0 0 2 0 0 1.524644329794074 0 0 2 0 2 0 0 0 0 1:0.157711 2:0.667395 3:-0.393027 4:-0.0764447 5:-0.0730287 6:-0.556752 7:-0.295223 8:-0.20456 9:0.42121 10:0.213616 11:-0.128394 12:-0.0685197 13:-0.163431 14:-0.0284659 15:0.309924 16:-0.211311 17:-0.513124 18:0.0486159 19:0.353269 20:-0.160748 21:-0.205366 22:-0.0468781 23:-0.101723 24:-0.429638 25:-0.256315 26:0.106874 27:0.74374 28:-0.0625032 29:-0.228748 30:-0.125025 31:-0.0222878 32:0.298704 33:0.0350803 34:-0.0119298 35:-0.123417 36:-0.223505 37:-0.00417688 38:-0.00251089 39:0.618723 40:0.470697 
-0 -0 -0 -0 2 0 0 0 0 0 0 0 0 0 0 0 2 0 2 2 0 0 0 1:0.130733 2:0.707875 3:-0.462412 4:0.0398221 5:-0.184342 6:-0.53458 7:-0.286495 8:-0.205672 9:0.358587 10:0.277512 11:-0.181981 12:0.0298682 13:-0.207714 14:-0.0166658 15:0.294581 16:-0.157701 17:-0.58804 18:0.142851 19:0.357728 20:-0.155156 21:-0.241786 22:0.087934 23:-0.17424 24:-0.373431 25:-0.249007 26:0.138522 27:0.759097 28:-0.0958547 29:-0.184984 30:-0.105259 31:0.0265376 32:0.346239 33:-0.0590749 34:0.0818837 35:-0.0852794 36:-0.362222 37:0.0759231 38:0.119663 39:0.520644 40:0.533071 
-0 -2 -1.589073871101354 -0 2 0 1.543073849326117 2 0 2 2 0 2 0 2 0 2 0 2 2 0 2 0 1:0.173987 2:0.682114 3:-0.465652 4:0.0512503 5:-0.203828 6:-0.517691 7:-0.294583 8:-0.186632 9:0.393313 10:0.173984 11:-0.0975859 12:-0.0616881 13:-0.181269 14:0.0200537 15:0.327717 16:-0.25455 17:-0.543613 18:0.159208 19:0.323394 20:-0.188572 21:-0.173208 22:0.0179993 23:-0.203893 24:-0.40573 25:-0.162418 26:0.101593 27:0.647108 28:0.0977168 29:-0.323092 30:-0.112616 31:0.106333 32:0.291726 33:0.0258956 34:-0.00926432 35:-0.103789 36:-0.253644 37:0.00932443 38:0.234707 39:0.466603 40:0.479897 
-0 -2 -0 -0 2 0 0 0 0 0 0 0 0 0 0 0 0 0 2 0 0 0 0 1:0.12546 2:0.727983 3:-0.502891 4:0.0973245 5:-0.187327 6:-0.55132 7:-0.266129 8:-0.211405 9:0.335145 10:0.280578 11:-0.132789 12:0.0010681 13:-0.19979 14:-0.0027139 15:0.28964 16:-0.191768 17:-0.581568 18:0.184114 19:0.31525 20:-0.127632 21:-0.218651 22:0.0171194 23:-0.188382 24:-0.296555 25:-0.284951 26:0.0959626 27:0.910415 28:-0.254958 29:-0.188473 30:-0.031622 31:-0.094365 32:0.405167 33:0.0124875 34:0.0422469 35:-0.13873 36:-0.275855 37:0.0130824 38:0.141224 39:0.619674 40:0.433773 
-0 -0 -0 -0 2 0 0 0 0 0 0 0 0 0 0 0 0 0 0.3882083749827681 0 0 0 0 1:0.114518 2:0.728288 3:-0.461617 4:0.000295324 5:-0.123357 6:-0.535588 7:-0.323425 8:-0.165351 9:0.380517 10:0.252404 11:-0.152559 12:-0.0500044 13:-0.20132 14:0.0749184 15:0.255915 16:-0.155927 17:-0.63858 18:0.174434 19:0.322218 20:-0.169011 21:-0.217699 22:0.0600062 23:-0.190231 24:-0.393372 25:-0.245253 26:0.0957769 27:0.809234 28:-0.163813 29:-0.208569 30:-0.0718749 31:0.00794774 32:0.271826 33:0.0171553 34:-0.00880131 35:-0.0624916 36:-0.297322 37:-0.00442844 38:0.127226 39:0.584986 40:0.431907 
-2 -0 -0 -0 0 2 0 1.872092919134524 0 2 0 0 0 2 0.7375638380311278 2 0 2 0 0 0 0 2 1:0.38346 2:0.475409 3:-0.186792 4:-0.16977 5:-0.150605 6:-0.257111 7:-0.527368 8:-0.00201836 9:0.287584 10:0.252004 11:-0.103846 12:-0.117164 13:-0.0631376 14:-0.207196 15:0.453154 16:-0.387473 17:-0.529983 18:-0.0428007 19:0.444592 20:-0.479489 21:-0.162911 22:-0.0581792 23:-0.305307 24:-0.231668 25:-0.41303 26:0.38678 27:0.640582 28:0.160832 29:-0.164737 30:-0.105111 31:0.31838 32:0.116311 33:0.294032 34:0.00427231 35:-0.0324308 36:-0.086303 37:0.116911 38:0.382917 39:0.640626 40:0.524855 
-0 -0 -0 -0 2 0 0 0 0 0 0 2 0 0 0 0 0 0 0 0 0 0 0 1:0.0540468 2:0.717333 3:-0.418342 4:-0.00532442 5:-0.113683 6:-0.51469 7:-0.295168 8:-0.182906 9:0.422512 10:0.262209 11:-0.132466 12:0.00721427 13:-0.174822 14:0.00934002 15:0.312171 16:-0.194167 17:-0.55185 18:0.0974331 19:0.293688 20:-0.218464 21:-0.17943 22:-0.022169 23:-0.219167 24:-0.260728 25:-0.327914 26:0.190517 27:0.889827 28:-0.169368 29:-0.225566 30:-0.0131738 31:-0.121872 32:0.298319 33:-0.0415401 34:-0.0320576 35:-0.0889921 36:-0.215449 37:0.0246199 38:0.0402981 39:0.684197 40:0.404842 
-0 -0 -2 -0 2 2 0 0 0 0 0 0.4567365290546364 0 2 0 0 0 0 0 0 2 0 0 1:0.104466 2:0.649352 3:-0.322863 4:-0.109875 5:-0.0398664 6:-0.422381 7:-0.361532 8:-0.130984 9:0.426113 10:0.249038 11:-0.132833 12:0.0337371 13:-0.156729 14:-0.0505444 15:0.441629 16:-0.254719 17:-0.562646 18:0.100378 19:0.346986 20:-0.258111 21:-0.193706 22:-0.053053 23:-0.145782 24:-0.393517 25:-0.188837 26:0.113236 27:0.841292 28:-0.0380819 29:-0.31411 30:-0.0562006 31:-0.0543614 32:0.262792 33:0.0192565 34:-0.032259 35:-0.0905698 36:-0.288341 37:0.0624159 38:0.0899213 39:0.622369 40:0.434167 
-0 -0 -0 -0 0 0 0 0 2 0 0 0 2 0 0 0 0 2 0 2 2 0 2 1:0.147259 2:0.718056 3:-0.397389 4:-0.0965959 5:-0.0413101 6:-0.423266 7:-0.307307 8:-0.239529 9:0.47475 10:0.177259 11:-0.0401037 12:0.0346996 13:-0.264406 14:-0.0391436 15:0.386307 16:-0.174344 17:-0.525726 18:0.0689875 19:0.311018 20:-0.196177 21:-0.172205 22:-0.00132273 23:-0.280062 24:-0.415812 25:-0.276825 26:0.0798046 27:0.803554 28:-0.145813 29:-0.270995 30:-0.0553757 31:-0.00894895 32:0.334631 33:0.000730831 34:-0.0345559 35:-0.0832645 36:-0.325257 37:0.00272282 38:0.0870152 39:0.567778 40:0.446045 
-0 -0 -2 -0 2 2 0 0 0 1.393707150061272 2 0 0 2 0 2 0 0 0 0 2 0.6923603864302931 0 1:0.232851 2:0.642665 3:-0.28469 4:-0.0802964 5:-0.0349563 6:-0.320308 7:-0.325944 8:-0.0949798 9:0.585089 10:0.181823 11:0.0327078 12:-0.103613 13:-0.0315754 14:-0.0279275 15:0.448069 16:-0.128712 17:-0.644167 18:0.218438 19:0.253994 20:-0.21964 21:-0.180939 22:-0.0429069 23:-0.177364 24:-0.386654 25:-0.289946 26:0.0870636 27:0.722246 28:-0.0330507 29:-0.297932 30:-0.0463435 31:-0.0797709 32:0.207876 33:-0.0155163 34:0.00124856 35:-0.154397 36:-0.201764 37:-0.0161202 38:0.0461515 39:0.489074 40:0.491408 
-2 -0 -0 -0 0 0 0 0 0 2 0 0 0 0 0 0 0 1.032891720893816 0 0 0 0 0 1:0.435708 2:0.548472 3:-0.408728 4:0.0663143 5:-0.0470732 6:-0.703719 7:-0.138696 8:-0.211814 9:0.382285 10:0.223709 11:-0.159796 12:-0.035317 13:-0.147399 14:-0.00698393 15:0.34187 16:-0.348751 17:-0.628612 18:0.0611098 19:0.28668 20:-0.297586 21:-0.221853 22:-0.220822 23:-0.226724 24:-0.404183 25:-0.230003 26:0.213477 27:0.513117 28:0.0603309 29:-0.109702 30:-0.0343373 31:0.0128667 32:0.448802 33:-0.148536 34:0.0362962 35:0.0932242 36:-0.260195 37:0.168239 38:0.341776 39:0.499849 40:0.519558 
-2 -0 -0 -0 0.7616766709172861 2 0 1.697650075637135 0 2 0 1.249864352460727 0 1.104500416785167 1.643750274396123 2 0 0.9532109631636596 0 0 0 0 0.9195428669298118 1:0.38346 2:0.475409 3:-0.186792 4:-0.16977 5:-0.150605 6:-0.257111 7:-0.527368 8:-0.00201836 9:0.287584 10:0.252004 11:-0.103846 12:-0.117164 13:-0.0631376 14:-0.207196 15:0.453154 16:-0.387473 17:-0.529983 18:-0.0428007 19:0.444592 20:-0.479489 21:-0.162911 22:-0.0581792 23:-0.305307 24:-0.231668 25:-0.41303 26:0.38678 27:0.640582 28:0.160832 29:-0.164737 30:-0.105111 31:0.31838 32:0.116311 33:0.294032 34:0.00427231 35:-0.0324308 36:-0.086303 37:0.116911 38:0.382917 39:0.640626 40:0.524855 
