svm_type c_svc
kernel_type rbf
gamma 0.125
nr_class 24
total_sv 1588
rho 0.0793008 0.285366 0.0731287 0.580695 0.332706 -0.0753862 0.267175 0.117191 0.442906 0.131832 0.41242 -0.398133 0.388278 0.509869 0.114096 0.814747 -0.0655743 0.271249 0.11328 0.363742 0.414726 0.712917 0.85386 0.202122 0.0702484 0.0769345 0.0353597 -0.139719 0.743623 -0.246164 0.045665 -0.406876 -0.33136 -0.317002 0.059481 0.429987 0.168687 0.822065 -0.40203 0.0155248 0.0205639 -0.0751917 0.0851771 0.520424 0.0893031 -0.186426 -0.208802 -0.084099 -0.598062 -0.176323 -0.212484 -0.183815 -0.669622 -0.423173 -0.244866 -0.172085 -0.248288 0.114707 0.435232 -0.927677 0.0301111 -0.229297 -0.174396 -0.557876 0.35527 0.0435996 -0.166609 -0.08908 0.039601 0.214596 -0.219099 -0.0329708 -0.251764 -0.409719 -0.154245 0.0386203 -0.111843 -0.10031 0.36854 -0.282136 0.193217 -0.52963 -0.146381 0.0802031 0.605218 0.0591494 -0.0885994 0.247653 0.251117 -0.0624826 0.29472 -0.0621776 -0.401437 -0.511576 0.540839 -0.0242687 -0.153863 0.480426 -0.416118 0.411344 0.0747033 -0.553691 0.0652446 0.177249 0.107495 -0.262153 0.325504 -0.156368 0.32098 -0.11099 0.062362 0.162412 0.0959448 0.196431 0.158586 0.445365 -0.71786 0.144586 0.199876 -0.19351 0.0825277 0.187489 0.376346 0.0981635 -0.0604371 0.33939 0.100018 -0.248378 -0.0432987 0.180007 -0.0365479 -0.12116 0.552044 -0.165962 -0.117427 -0.197761 0.3236 -0.353558 0.263681 0.306148 -0.653404 -0.399888 -0.2674 -0.488072 -0.349383 -0.165335 -0.109901 -0.173632 0.284405 -0.404812 -0.00724772 -0.0628155 -0.142691 -0.290812 -0.0248846 -0.0776075 0.536634 -0.0545078 -0.256505 -0.356065 0.558427 0.251343 0.16502 0.942936 -0.00760197 0.446423 0.194062 0.00372309 0.28473 0.469523 0.530864 -0.892152 -0.569451 -0.227068 0.0160022 0.467235 -0.245963 0.337847 -0.658173 0.129762 -0.474365 -0.0614357 0.118313 0.133799 0.137442 -0.267162 -0.0327098 0.721513 0.459914 -0.176272 1.05085 -0.250344 0.379142 -0.115441 0.0866151 -0.0218414 0.479627 0.665473 0.0374096 0.107177 0.303576 0.087435 0.296864 -0.0955812 0.312332 0.125724 0.39935 -0.0637291 0.460974 0.514694 0.391838 0.222678 0.0901241 0.86149 -0.394873 0.134993 0.0239806 0.324323 -0.157322 0.438143 -0.0130878 -0.0414802 0.0790449 0.443519 -0.438165 0.221562 -0.41034 -0.563035 -0.434862 0.120743 0.276222 -0.135278 0.59649 -0.740286 0.119493 -0.168119 -0.3775 0.05296 0.254373 0.385493 0.4941 -0.372596 0.199348 -0.00334619 0.260436 0.102537 0.475643 0.432232 -0.453761 -0.105646 -0.492699 -0.38185 -1.051 -0.187571 -0.264435 0.247468 0.209348 0.0861365 -0.0385063 0.671888 0.977447 -0.44579 -0.0111344 -0.576462 0.0644469 0.0192239 0.129782 0.186025 0.311974 0.4486 -0.256099 0.496528 0.379242 0.544285 0.317599 -0.244004
label 11 10 21 20 9 12 23 14 5 3 2 4 17 6 16 0 22 7 18 8 1 19 13 15
nr_sv 46 70 56 65 63 88 61 89 79 69 62 72 67 71 88 62 76 55 60 39 77 74 29 70
SV
0.2898683490384106 0 0 0 0 1.200425977910948 1.320503677643429 0.7708811878326506 1.503995832775342 0.9919266348612018 3.331464876364663 0 1.082015091189909 0 0 1.739894086057611 0 1.228505209851431 0 0.8022778176946477 2.470805838829084 0.1487233131822454 2.802742888905248 1:-0.317175 2:0.00152721 3:0.439822 4:-0.124052 5:0.0322986 6:-0.186715 7:0.216956 8:0.259543 9:0.265459 10:-0.0805107 11:-0.031672 12:-0.0330566 13:0.32594 14:-0.347474 15:0.393635 16:0.418837 17:-0.257045 18:-0.400543 19:0.153669 20:0.311818 21:0.153814 22:0.379167 23:-0.144378 24:0.368384 25:0.310937 26:0.259685 27:0.118073 28:0.151255 29:-0.353418 30:-0.502633 31:-0.464431 32:-0.324006 33:0.429424 34:-0.200646 35:0.250112 36:-0.15219 37:-0.135745 38:-0.216807 39:-0.345038 40:0.178411 
4.922372114316624 5.384884058678939 3.401005409520129 8 8 2.676287546720616 8 8 8 8 8 8 8 7.554739449564114 3.118425268334631 0 8 1.271501706858142 4.262787487798085 8 8 1.521335225371929 1.387538100463828 1:0.389351 2:-0.0418571 3:0.347717 4:-0.197773 5:0.129151 6:-0.335472 7:0.109671 8:-0.00135871 9:0.22892 10:-0.176936 11:0.264932 12:0.032824 13:0.276937 14:-0.199121 15:0.207483 16:0.291871 17:-0.225556 18:0.128707 19:0.0499795 20:0.363721 21:-0.0144242 22:0.246514 23:-0.117285 24:0.0110325 25:0.264598 26:0.0283474 27:0.138818 28:0.049934 29:0.0565575 30:-0.0659688 31:-0.0212623 32:-0.0216199 33:-0.153898 34:-0.18372 35:0.0204507 36:-0.337694 37:-0.373311 38:-0.270783 39:-0.26994 40:0.0430314 
3.056079469639666 3.724368182144767 3.372544384153115 3.186831114661362 0 0 0.2197139965620805 1.720983470465175 2.873050748870513 3.331773540381683 0 1.620295530127084 4.866289366760047 3.269479223118547 0.140889385208692 1.291341637681422 0 0.5791777785654576 1.437578529102056 2.961172086203978 3.238566390505337 1.126703614327995 1.309560921800229 1:-0.16425 2:0.00854559 3:-0.175283 4:0.132655 5:0.447058 6:0.039932 7:0.143381 8:-0.323532 9:0.395074 10:-0.43172 11:0.822308 12:0.766059 13:0.132365 14:-0.0101455 15:0.739665 16:0.612852 17:-0.801763 18:-0.145237 19:0.260088 20:0.342431 21:0.489407 22:0.504329 23:0.379802 24:0.67246 25:0.608231 26:0.421903 27:-0.234236 28:-0.582236 29:-0.172969 30:-0.144808 31:-0.253818 32:-0.299168 33:0.257684 34:0.317527 35:0.168 36:-0.0523276 37:-0.0305242 38:0.00456678 39:-0.0806659 40:-0.102554 
2.048171540854403 4.579413187468461 0 0 3.623597708041926 0.4807015554699621 2.319984106175641 1.940945654897771 0 1.085978577751519 6.126731009934129 5.784494092206177 4.824330272408099 4.884962432067569 2.328064395824078 0 4.923293395740624 2.411417287693257 0 7.18097360386668 4.3635806106364 1.056868792538897 5.212461529850308 1:0.351727 2:0.246934 3:0.153567 4:-0.183717 5:0.330772 6:-0.0124593 7:0.206733 8:0.336361 9:0.463629 10:0.0228709 11:0.156365 12:0.0308229 13:0.0722039 14:-0.0452735 15:0.204392 16:0.230172 17:-0.177561 18:0.0352937 19:-0.435289 20:-0.419308 21:-0.209159 22:-0.517374 23:-0.523667 24:-0.517297 25:-0.370886 26:-0.199401 27:-0.310091 28:-0.197064 29:0.33354 30:0.459271 31:0.23515 32:0.470623 33:0.14619 34:0.15606 35:0.286249 36:-0.1458 37:0.208077 38:0.267373 39:-0.0394053 40:0.0889532 
0 0 0 1.869313754071711 0 0 0 0 1.092350403063646 1.713540015227019 0.1823876346882474 0 0 0 0 0 0 0 0 0 0.1481486119317745 0 0.218675716250072 1:0.298011 2:0.25285 3:-0.429088 4:0.0725672 5:-0.329979 6:0.396087 7:-0.167687 8:-0.529982 9:0.251288 10:-0.161807 11:-0.242992 12:-0.144801 13:0.417268 14:0.145886 15:-0.354345 16:0.556891 17:0.923928 18:0.0279191 19:0.364557 20:-0.0318244 21:-0.249275 22:0.18134 23:-0.0464704 24:0.298238 25:0.0724063 26:-0.236593 27:-0.362701 28:-0.117174 29:-0.146138 30:-0.0307609 31:0.136655 32:0.0538255 33:-0.265116 34:-0.458827 35:-0.222247 36:-0.0688321 37:-0.27498 38:-0.312086 39:-0.260435 40:-0.432378 
0 0 0 3.278802216309173 3.66760287086977 0 0 0.2226428124091819 0.03684126636971924 0.5761320755247048 2.500411029258514 3.806815938223511 2.730528207149607 4.456984840830085 2.805118682640915 0 0 0 0 3.09216395839064 0 0 0.6866540130969077 1:0.649527 2:0.00570985 3:-0.0582319 4:-0.132035 5:0.117596 6:0.046954 7:0.169667 8:-0.521987 9:0.543959 10:-0.369828 11:0.0639146 12:-0.106573 13:0.409754 14:0.179525 15:-0.362727 16:0.726282 17:0.485597 18:0.31974 19:0.0394294 20:0.141866 21:-0.332018 22:0.187542 23:-0.151785 24:0.0773895 25:0.144637 26:-0.467918 27:-0.210747 28:-0.0989933 29:0.200299 30:-0.00233139 31:0.21501 32:0.146327 33:-0.0123906 34:-0.355548 35:-0.249289 36:0.0216516 37:-0.24327 38:-0.112542 39:-0.236408 40:-0.214803 
3.225226047985053 0 0 2.467938499375292 2.913406599530685 3.507168165536166 0 0.8199611074028729 1.546092297716292 5.05825392705808 3.805082831174877 2.18361743216756 1.58711251172723 4.24293687046674 0 4.403916611417398 0 0.9135578145134204 0 0 8 0 4.51692658248251 1:-0.231477 2:0.214887 3:-0.17558 4:-0.203212 5:-0.458101 6:0.010569 7:-0.512204 8:0.201337 9:-0.209044 10:0.201933 11:-0.0754108 12:0.0299702 13:-0.293354 14:-0.148917 15:0.0474544 16:-0.316425 17:0.233833 18:-0.325576 19:0.293507 20:0.0108864 21:-0.00442603 22:0.0783803 23:0.232635 24:0.233787 25:0.174323 26:-0.231915 27:0.114331 28:-0.0950615 29:-0.0931791 30:0.226579 31:-0.0232406 32:0.273734 33:-0.142395 34:0.430224 35:-0.193122 36:-0.217528 37:-0.499348 38:-0.00926233 39:-0.272396 40:0.305833 
3.528274604924384 0 0 1.407764465062032 1.053890280146284 3.814711624753849 0 0 0.235394017117149 0 3.013403955552779 3.331129910671774 0.4270784250205317 0 0 0 0.6027044767837222 0 0 1.03639414370355 1.802643579447127 3.338449155669899 0 1:0.0542559 2:0.0766329 3:0.210837 4:-0.428777 5:-0.113036 6:-0.0870895 7:0.187357 8:-0.194329 9:0.215463 10:0.0337577 11:-0.239072 12:-0.0520552 13:0.521867 14:-0.115423 15:0.318743 16:0.272589 17:0.130478 18:0.136297 19:0.278456 20:0.474703 21:0.0477954 22:0.55093 23:0.167711 24:0.299772 25:0.50708 26:0.37177 27:0.265081 28:0.121179 29:-0.165643 30:-0.00861655 31:-0.292549 32:-0.123075 33:0.138176 34:-0.338609 35:0.129877 36:-0.37364 37:-0.0727101 38:-0.169798 39:-0.410531 40:-0.184361 
0 3.288710310381612 0 3.75108207751589 2.791699824996237 0.5708322652982246 1.955037438945132 2.444274731355585 0.653490653180966 0 0.7192595833528468 0 0 0.6817023595074791 1.485276288006552 0 1.787261366597708 0.2075562844522467 0 5.318441283889421 0 1.929087566094234 0 1:0.618187 2:-0.0371811 3:-0.415073 4:0.0128757 5:0.0608128 6:0.455092 7:0.242821 8:-0.329191 9:0.126652 10:0.138305 11:0.228884 12:0.0649477 13:-0.149231 14:-0.265881 15:0.913638 16:0.115126 17:-0.392128 18:-0.0555829 19:0.420768 20:0.416926 21:-0.00954967 22:0.338167 23:0.190523 24:0.59831 25:0.574366 26:0.350956 27:-0.163895 28:-0.31331 29:-0.135677 30:-0.368005 31:-0.454853 32:-0.322487 33:-0.515558 34:0.0772274 35:0.3637 36:-0.170537 37:-0.0662225 38:-0.434016 39:-0.233983 40:0.176829 
1.669744688095816 0 0 0 0 0 1.234335159386423 0 0.6751337258508023 0 2.838804665569612 4.094415975553533 0 3.105146749768577 0 0 0.0397781752455833 0 0 6.265226674793777 0 0 2.359670116920245 1:0.307572 2:0.302761 3:-0.334747 4:0.20188 5:0.103072 6:0.433319 7:0.025083 8:0.335107 9:0.0220731 10:0.315282 11:-0.0461444 12:0.157357 13:0.225835 14:-0.38448 15:0.759372 16:0.136374 17:0.0368474 18:-0.0953236 19:0.136336 20:0.191902 21:0.107025 22:0.302921 23:0.239535 24:0.211477 25:0.416674 26:0.101472 27:0.243436 28:-0.0285627 29:-0.350591 30:-0.0121957 31:-0.346983 32:-0.0309193 33:-0.193939 34:0.136786 35:0.32875 36:0.0235989 37:-0.330462 38:-0.175604 39:-0.303234 40:0.224427 
1.639062093497711 2.380764584290398 1.619739640704178 6.178609207735514 0 0 1.582876492545138 1.157183089528092 2.887760661101308 0 0.190411316827043 4.932079975220671 3.153083703888288 2.385081600711898 1.305975963170512 0 2.45345423911441 0 2.072937065660071 0 0 0.1915318250250776 0 1:-0.352976 2:0.269032 3:-0.162006 4:-0.27327 5:-0.484279 6:-0.0920845 7:-0.468848 8:-0.0306598 9:-0.296545 10:0.111988 11:-0.136574 12:0.0632532 13:-0.656034 14:-0.322482 15:0.174954 16:-0.195921 17:0.0968902 18:-0.184001 19:0.306263 20:-0.177667 21:0.29198 22:0.0582808 23:0.59205 24:0.385462 25:0.330382 26:-0.195191 27:-0.147232 28:-0.229956 29:-0.458262 30:0.2989 31:-0.231103 32:0.326034 33:-0.0647813 34:0.250487 35:-0.0783278 36:-0.154509 37:-0.569991 38:-0.0652361 39:-0.0630957 40:0.366343 
0 0 0.5148672269978182 3.555790869856262 1.719328473166479 0 0.001727944152817455 2.870008098221263 6.14638564703397 1.325605164485864 1.687046325801613 3.579129325097499 1.521480708150325 1.484026386401729 0 0.5986610881560747 0 1.549824430446471 2.195142109326309 2.566906447955119 7.002918090618225 4.65824019062075 0.9642065493177872 1:0.118719 2:0.316864 3:0.013863 4:-0.0678726 5:0.140644 6:0.104753 7:0.184902 8:0.499461 9:0.255314 10:0.314935 11:0.117073 12:0.0114782 13:0.010166 14:0.0524862 15:-0.0717303 16:0.0912198 17:-0.0778528 18:-0.153699 19:-0.381874 20:-0.6208 21:-0.131764 22:-0.617758 23:-0.433698 24:-0.640886 25:-0.317714 26:-0.346321 27:-0.496134 28:-0.25448 29:0.107027 30:0.522637 31:0.117217 32:0.51384 33:0.116521 34:0.493409 35:0.265753 36:0.189454 37:0.412978 38:0.370008 39:0.234107 40:0.0717641 
3.83571331371132 5.712837615750757 1.646937972478416 2.445607408217799 4.707783316961473 2.843899182088778 2.534357517981539 0 1.320481145446232 0.9696009845302469 0.8845291465043716 6.744584275249369 2.778718336562108 7.309839880108133 0 1.706348679469349 2.441423253437315 1.844650429376987 0.9360119793010677 0 4.943069786518821 7.265139344756906 1.014567782338786 1:-0.368888 2:0.299998 3:0.339637 4:-0.896387 5:0.626729 6:-0.348673 7:0.377539 8:-0.164156 9:0.670165 10:0.102416 11:-0.204507 12:0.00413655 13:-0.447586 14:-0.0605382 15:-0.235678 16:-0.135022 17:-0.292331 18:-0.428299 19:-0.777894 20:-0.505033 21:-0.544841 22:-0.558289 23:-0.725024 24:-0.55359 25:-0.372283 26:-0.512923 27:-0.493656 28:-0.371835 29:0.212077 30:0.233298 31:0.0239996 32:0.0391987 33:0.193818 34:0.0720022 35:-0.0540267 36:0.144158 37:0.373909 38:0.150171 39:-0.0142375 40:0.0382214 
0.131414780759599 0.427116189392907 2.658184861947594 2.926848146900505 1.780682290447283 1.581208166976476 0.521345825773003 0.8743915049647096 2.627053657092501 3.181632173024294 0 0 0 0.9376724541777144 3.438186884233426 2.186777288418262 0 0.8057787215802803 1.439350255914595 1.175641442459849 0 1.872976251148672 1.490454732812798 1:0.114911 2:0.12627 3:0.414849 4:-0.607648 5:0.312887 6:-0.666868 7:0.331239 8:-0.332556 9:0.51407 10:0.0505741 11:0.16222 12:0.359821 13:0.325431 14:0.213368 15:0.202819 16:0.461555 17:-0.20644 18:0.33131 19:0.257125 20:0.3195 21:0.285629 22:0.710749 23:0.415318 24:0.435353 25:0.526587 26:0.249841 27:0.265388 28:-0.0317221 29:0.189538 30:0.118006 31:0.298957 32:0.154127 33:0.379333 34:0.159531 35:-0.148959 36:0.124793 37:-0.0804128 38:-0.0184722 39:-0.145185 40:-0.133653 
8 6.144602047480253 1.934029412809605 3.670965268954027 4.794424396910844 3.681319755412236 4.890847365104317 8 3.311671410807261 3.114501943018146 2.787278973414662 5.190831649322218 8 6.084164312682108 4.294715733710126 4.679781506730179 0.9253775099650147 1.568957985200685 1.786659993296568 5.661434447798244 4.024435424506708 2.725067373110033 3.97098299736385 1:-0.78168 2:0.235693 3:-0.197532 4:0.317947 5:0.0750316 6:0.406901 7:0.330829 8:0.196835 9:0.551849 10:-0.0462269 11:0.765709 12:0.0545803 13:0.875297 14:-0.408321 15:0.36449 16:0.536014 17:-0.202208 18:0.552793 19:-0.051438 20:0.310727 21:-0.00684444 22:-0.0225703 23:-0.171063 24:0.153075 25:-0.231084 26:-0.194766 27:0.209954 28:0.0517532 29:0.697118 30:0.259661 31:0.336128 32:0.395509 33:0.129266 34:-0.29272 35:-0.0656244 36:0.17708 37:-0.11559 38:-0.176479 39:-0.341178 40:0.110215 
1.645712816479806 0 0 0 1.444595737509085 3.407318553500996 1.893338713557765 5.622065040411714 0 0 2.24013987344031 0.3525410836916225 0.8458697981453284 0 0 3.210327312265685 0 0 0 0 2.345781861179824 1.341022605306402 4.605889328787756 1:-0.239655 2:0.2562 3:0.400029 4:-0.360879 5:0.335589 6:-0.593279 7:0.189459 8:-0.258443 9:0.548282 10:0.135719 11:-0.0151218 12:0.251112 13:0.456042 14:0.380372 15:0.430649 16:0.420682 17:-0.00663988 18:0.185215 19:0.250141 20:0.262943 21:0.0425843 22:0.525188 23:0.22108 24:0.356085 25:0.48089 26:0.340705 27:0.0285938 28:-0.1105 29:0.112015 30:0.213855 31:0.182211 32:-0.0142915 33:0.300075 34:0.0590552 35:-0.00707379 36:-0.254626 37:-0.287024 38:-0.341074 39:-0.218042 40:-0.171974 
3.551715425058722 1.312833816599547 0.6112480352104173 0.9270978070599583 2.106045051422482 0.4850669966128086 0.905278846947053 0.07377207959132114 0 0 0 1.118834028689937 1.383745654663075 1.143941748659968 0.520145424028413 0.4476975022486691 1.642790683455152 0.8179882326508814 0.7161360596696009 0 0 2.467371779954387 0.8479433122745789 1:0.193691 2:0.125681 3:-0.47919 4:-0.185565 5:-0.473404 6:0.0246672 7:-0.259167 8:-0.963266 9:0.112981 10:-0.493204 11:-0.379367 12:-0.443139 13:-0.0364387 14:-0.287075 15:-0.522313 16:0.142401 17:0.386425 18:-0.401073 19:0.0593147 20:-0.0919222 21:-0.665029 22:0.00436525 23:-0.386512 24:0.139423 25:-0.366468 26:-0.491975 27:-0.448049 28:0.0183218 29:-0.139824 30:-0.355475 31:-0.0446855 32:-0.246904 33:-0.242434 34:-0.899876 35:-0.107322 36:-0.119037 37:-0.216858 38:-0.403545 39:-0.0877624 40:-0.170843 
0.2110337492140854 1.015497136223388 0.4033047801009758 7.564950518192573 2.201572386727126 1.238488524164262 2.011842986478081 0.4835470484618818 3.550924762004205 2.682292701587924 3.955034296822856 1.313279904339121 2.869639237492668 0.8028541624790825 0.7841962660576723 0.02398731299261937 5.389842779717188 1.106088494364932 2.294055405340499 1.941322455469911 4.250519183905611 1.036847507672473 0.9781100251833564 1:0.216361 2:0.378804 3:-0.000661504 4:0.364787 5:-0.237505 6:0.415563 7:-0.0978662 8:0.629328 9:0.0578039 10:0.241134 11:0.0169777 12:0.139204 13:0.345603 14:-0.454705 15:0.470345 16:-0.101197 17:0.0558032 18:-0.194263 19:0.245903 20:0.0889311 21:0.211034 22:0.0702373 23:-0.00576911 24:0.0389873 25:0.261605 26:0.0575141 27:0.0344289 28:0.059099 29:-0.382461 30:-0.0832325 31:-0.37796 32:0.130758 33:-0.243934 34:-0.133552 35:-0.11162 36:-0.00897628 37:-0.162264 38:-0.108519 39:-0.240802 40:0.235262 
0 0 0 0 0 0 1.863979498458897 5.087044056430228 1.446284421703263 2.297414949396134 1.534746995993549 5.723221922955272 0.6144665388730813 0 1.147426550626454 0.3002145405901481 0 0 0 5.19113606457026 0.07532000223916374 0.5822639368993731 3.152006247090128 1:-0.0539251 2:0.0435018 3:0.279176 4:-0.417623 5:-0.158072 6:-0.34993 7:0.109334 8:-0.13429 9:0.354754 10:0.0217361 11:-0.190924 12:-0.0244774 13:0.023471 14:-0.528136 15:0.459351 16:0.655436 17:0.100554 18:0.0206308 19:0.132508 20:0.398131 21:0.234176 22:0.843447 23:0.340813 24:0.265397 25:0.62231 26:0.361107 27:0.286738 28:0.308853 29:-0.00132607 30:0.137704 31:0.0624418 32:0.460662 33:0.655023 34:-0.201491 35:0.265018 36:-0.411755 37:-0.258386 38:0.0299936 39:-0.169355 40:0.53504 
8 6.214019085840272 0.8706377645653069 0 1.994571037190882 1.546141727028265 3.025170706015467 2.86413325082862 1.656940753645238 4.563737728320806 0 7.064847505352703 6.149668835826277 8 1.080876261675872 1.203905180341426 0 0.7785408004087285 0 5.398236010561148 8 0 1.698003181430356 1:0.059746 2:0.133972 3:0.177235 4:-0.580797 5:0.302451 6:-0.224354 7:0.278907 8:-0.277095 9:0.455123 10:0.0476593 11:0.273097 12:0.0588051 13:0.599801 14:0.313904 15:0.46703 16:0.564942 17:-0.512177 18:0.367584 19:0.0692944 20:0.406285 21:0.192492 22:0.455486 23:0.498346 24:0.114284 25:0.188546 26:0.137581 27:0.392556 28:0.0503502 29:0.159794 30:0.178257 31:0.229325 32:0.139295 33:-0.0270074 34:0.145436 35:-0.00883651 36:0.0361471 37:-0.0205332 38:-0.418471 39:-0.343792 40:-0.12935 
3.100876227879415 0 0 0.1551327379300037 1.327914998535226 0 0.7149557376514359 1.592781157687853 0 0 1.297552410286913 0.6692660146294958 0 0 0 2.005199494553231 0 0.5365873913922435 1.284166707587537 3.590268131884066 0.135298036212245 1.509956069555554 1.518971749587992 1:0.281492 2:-0.11553 3:-0.0468888 4:-0.238578 5:0.145108 6:0.026073 7:0.302762 8:-0.712344 9:0.490925 10:-0.322928 11:-0.0554372 12:-0.0457977 13:0.334256 14:-0.00276383 15:-0.686711 16:0.90156 17:0.648253 18:0.196212 19:0.134365 20:0.199832 21:-0.368679 22:0.16855 23:-0.00443586 24:0.245561 25:0.0848078 26:-0.503616 27:-0.214383 28:-0.360929 29:0.0501067 30:0.00335345 31:0.258831 32:0.172538 33:0.116027 34:-0.377488 35:-0.442226 36:0.0814434 37:-0.364731 38:-0.414879 39:-0.35686 40:-0.063818 
0 1.285488631219538 0 0 0.1795216666383568 0 0 3.062483107029048 1.379480377828982 0 0 0 0 0 0.2988879957371592 0 0 0.4502746968787407 0.4107133524582348 0 0 0 1.977857060401771 1:-0.394467 2:0.20919 3:-0.103453 4:-0.286878 5:-0.533257 6:-0.0530221 7:-0.567462 8:0.079251 9:-0.285192 10:0.1142 11:-0.173806 12:-0.0200678 13:-0.403928 14:-0.212717 15:0.00246303 16:-0.387534 17:0.272618 18:-0.361316 19:0.211752 20:-0.177839 21:0.0557676 22:0.0048285 23:0.174611 24:0.323746 25:0.173943 26:-0.136238 27:0.0114905 28:-0.139494 29:0.0310475 30:0.396828 31:0.023252 32:0.324217 33:0.295312 34:0.624711 35:-0.39241 36:-0.417398 37:-0.62718 38:-0.123019 39:-0.138665 40:0.624647 
0.3861326750192196 0 0.296679443552618 0 1.32380303019504 0.03930810473044329 0 0.8161866892999158 0 1.212305698429465 0.3166838750800485 0.7704663571271643 0 1.000220601521403 0.2837107057383343 0.495274342877518 0 2.897398508404259 0.8563337083506382 0 0.06999686387587678 0 0 1:-0.444254 2:0.644997 3:-0.0685054 4:-0.399211 5:0.0299338 6:0.154234 7:-0.0457759 8:0.300292 9:0.333682 10:0.432029 11:-0.441634 12:0.236266 13:-0.384293 14:0.168533 15:0.0780307 16:-0.355427 17:0.0329332 18:-0.720389 19:-0.513181 20:-0.666271 21:-0.0638671 22:-0.932035 23:-0.439979 24:-0.841242 25:-0.457869 26:-0.52986 27:-0.761706 28:-0.382085 29:0.128983 30:0.46649 31:-0.0572016 32:0.577002 33:0.220661 34:0.643134 35:-0.358266 36:0.418251 37:-0.0267514 38:0.209613 39:0.0513978 40:-0.0137703 
1.656175297029192 0.9207431684643348 0.9887157165748937 1.655137796471027 1.873304209261564 1.043266793753639 2.259209689965388 2.833415046211705 0.09255680537580284 0.592865992251605 2.081824984577265 2.844164155475682 0.5050398044115885 1.556072659574653 1.086146287077602 0.6714721519724907 1.521266061418259 1.790116190871128 0.3914253528725374 0.2252061930512684 1.79212350581931 4.795377041931038 2.997011440736107 1:-0.0127903 2:0.710455 3:-0.223387 4:0.0835848 5:-0.0108612 6:0.583729 7:0.110134 8:0.546655 9:0.342828 10:0.423499 11:-0.52133 12:0.695672 13:-0.398187 14:-0.135776 15:0.230758 16:-0.0388441 17:0.238539 18:-0.225185 19:-0.205829 20:-0.809768 21:-0.117127 22:-0.586983 23:-0.0595013 24:-0.790587 25:-0.342475 26:-0.268309 27:-0.265836 28:-0.155785 29:0.0870721 30:0.720799 31:-0.35486 32:0.477734 33:0.174471 34:0.561554 35:0.0528927 36:0.362716 37:-0.056316 38:0.509036 39:0.304992 40:0.104439 
0.8201206241256408 1.670724585887873 0.8945067841354539 1.38982481313797 2.31968674844491 0.4448343567600636 2.380988886207328 1.004668759667306 1.59863884656162 2.821573971580421 1.294720890785098 0.01844597775050217 0.8327204611569023 2.574780656324056 2.770169359829525 1.140857567363082 1.537831840262283 1.641864038340892 0.3936594826283841 2.306393295195653 0 1.541915447910635 1.208887259045365 1:0.39496 2:0.0252433 3:-0.377869 4:-0.320028 5:0.532179 6:0.298647 7:0.386602 8:0.0670422 9:0.801172 10:-0.269061 11:0.308478 12:0.562525 13:-0.437435 14:-0.16169 15:0.324323 16:0.339618 17:-0.553884 18:0.00456168 19:0.00730508 20:-0.626055 21:-0.464223 22:-0.684839 23:-0.483679 24:-0.445829 25:-0.320429 26:-0.0813655 27:-0.868595 28:-0.436673 29:0.455423 30:0.439653 31:0.478838 32:0.212429 33:0.258891 34:0.60246 35:0.18574 36:0.399656 37:0.601921 38:0.341661 39:0.364979 40:0.196838 
3.3941297942961 0.1478990094303634 2.084384872787442 2.919846348450673 0 0 0.7418985218914842 0 0.4442177342152655 0.6155794494308466 0.2240991607150184 0.5220896810602967 0 0 0 0.1165808359272763 0 0.08180604015722237 0.1330370797131294 1.098398863739951 0.3196818170417509 0.4976374398595573 0 1:-0.0612239 2:-0.0751476 3:0.143978 4:-0.521557 5:0.583007 6:0.00656277 7:0.519931 8:-0.721807 9:0.183334 10:0.187225 11:0.370578 12:0.461327 13:0.770349 14:-0.12633 15:0.0877785 16:0.572104 17:-0.161399 18:0.484127 19:-0.275065 20:0.0774798 21:0.0895265 22:0.795746 23:1 24:0.461427 25:0.102001 26:0.177001 27:0.453559 28:-0.489496 29:0.092407 30:-0.307194 31:-0.999909 32:-0.0563323 33:0.693222 34:0.365437 35:-0.0841879 36:-0.116564 37:-0.299895 38:-0.210321 39:-0.117005 40:-0.35895 
3.702588020979983 3.327127902555417 0 1.567044607878245 0.1108881339322783 0 0 0 4.057876864249601 0 0 0 0.5124203193234182 3.060090956434327 0 0 0 0 0 6.386028878416659 3.241686669488479 2.813441683765772 4.332934066657276 1:0.179952 2:0.14954 3:0.257757 4:-0.506061 5:0.373588 6:-0.56798 7:0.296036 8:-0.283915 9:0.555473 10:-0.0417464 11:0.0874816 12:0.349495 13:0.49732 14:0.246137 15:0.0949452 16:0.445746 17:0.00772444 18:0.363092 19:0.0945833 20:0.369226 21:0.281959 22:0.53787 23:0.232542 24:0.357324 25:0.586374 26:0.178839 27:0.0256738 28:-0.0981262 29:0.328935 30:0.253671 31:0.0505745 32:-0.0720843 33:0.276666 34:0.014772 35:0.0669019 36:0.161486 37:-0.251563 38:-0.254434 39:-0.362565 40:-0.0515453 
2.417539420028336 3.222544131468924 2.848274066134207 2.17764615256385 7.991395581522284 0 2.137488757966841 1.871507397716819 2.976380746128139 0 5.54821483952785 4.620810031855799 2.423436678441011 0 0 2.181628292753012 0 3.017003566434941 2.190494116054551 2.00648367536245 4.738914345099857 1.159421556214102 4.450884564728929 1:-0.174282 2:0.347119 3:0.246131 4:-0.710276 5:0.492406 6:-0.414654 7:0.3319 8:-0.163082 9:0.703567 10:0.148736 11:-0.264533 12:0.161791 13:-0.474226 14:-0.00602477 15:-0.25457 16:-0.207727 17:-0.103313 18:-0.463331 19:-0.559411 20:-0.385288 21:-0.439889 22:-0.537417 23:-0.661976 24:-0.764054 25:-0.665808 26:-0.578133 27:-0.660169 28:-0.503234 29:0.10317 30:0.365955 31:0.301279 32:0.491754 33:0.326717 34:0.190875 35:0.199547 36:-0.11398 37:0.152315 38:0.038371 39:-0.0317592 40:-0.0776828 
0 0 0 0 0 0 0 0 0 0 1.484321557685428 0 0 0 0 0 0.1924955814284082 0.6043111036630693 0 0 0 0 0 1:0.643822 2:0.162392 3:-0.130469 4:-0.0024661 5:0.100862 6:0.317736 7:0.202802 8:-0.569461 9:0.554541 10:-0.229127 11:-0.02025 12:-0.0691281 13:0.290161 14:0.0901881 15:-0.349084 16:0.79005 17:0.560404 18:-0.0430815 19:0.161181 20:0.0190448 21:-0.497952 22:0.0277539 23:-0.28599 24:0.1142 25:0.00618488 26:-0.295754 27:-0.381304 28:-0.343033 29:0.099973 30:0.00314322 31:0.0665759 32:-0.083048 33:0.177908 34:-0.34412 35:-0.329749 36:0.0745047 37:-0.173637 38:-0.218626 39:-0.170864 40:-0.15225 
0 0 5.009768758383613 0 0 0 3.556451955977712 1.092038027444584 0 0 0 0 1.339717283255814 0 0 0 0 0 0 0 0 0 0 1:0.111955 2:0.275544 3:0.300485 4:-0.442136 5:0.36869 6:-0.402318 7:0.306845 8:-0.248933 9:0.492279 10:0.00216067 11:0.0553227 12:0.326778 13:0.594821 14:0.200697 15:0.290252 16:0.46589 17:-0.16827 18:0.104808 19:-0.0780737 20:0.303427 21:0.138836 22:0.333983 23:0.168868 24:0.235461 25:0.207047 26:-0.0601432 27:0.0264847 28:-0.188719 29:0.0743909 30:0.0493538 31:0.17672 32:0.116229 33:-0.0859157 34:-0.12801 35:-0.137642 36:-0.0955612 37:-0.231575 38:-0.420479 39:-0.241309 40:-0.0995244 
1.546302994857585 3.69064308261154 0 3.392548871022969 0 3.129929434600089 2.117156980353715 4.907011875033715 7.531118609968693 3.126547178836999 0 0 1.020133372499111 1.111886425514377 0 0.3902976403177108 0 0.3438356915611492 0 3.915935061162239 4.12797857716553 1.453163123466203 6.133268263450052 1:-0.231285 2:0.533499 3:-0.071726 4:0.0824407 5:-0.212525 6:-0.0560402 7:-0.0286697 8:-0.161064 9:0.30294 10:0.405201 11:-0.0358463 12:0.208513 13:0.413057 14:0.187808 15:0.77685 16:-0.0706219 17:0.155324 18:-0.0126098 19:0.139656 20:0.292647 21:0.159956 22:0.31899 23:0.412357 24:0.316754 25:0.248938 26:0.537462 27:-0.148007 28:0.18915 29:0.201137 30:0.222907 31:0.245222 32:0.428125 33:0.312943 34:0.0229204 35:-0.0223537 36:-0.175617 37:-0.097297 38:-0.433897 39:0.0894896 40:-0.16227 
0 3.397234728870473 0 0 0 0 0 0.4963023476079461 0 0 0 1.847453275710889 0 3.253295589954432 0 0 4.297707096747049 0 0.09797628003948725 2.120147540595669 0.8351667876604791 0 4.640830069393155 1:0.182763 2:0.253903 3:0.0556186 4:0.0897862 5:-0.0975784 6:0.265524 7:-0.268659 8:0.382448 9:-0.00322405 10:0.327109 11:0.365172 12:0.1276 13:-0.148986 14:-0.156531 15:0.136594 16:-0.0729941 17:0.0424864 18:-0.0764871 19:0.291715 20:-0.222798 21:-0.119809 22:-0.0266031 23:0.248443 24:0.392928 25:0.271496 26:-0.0810646 27:-0.280679 28:-0.49181 29:-0.453447 30:0.00077171 31:-0.261776 32:0.130017 33:0.368967 34:0.351747 35:-0.135651 36:-0.298741 37:-0.546523 38:-0.0919814 39:-0.0496758 40:0.558157 
2.190710420848933 0 0 0 2.127679480548152 0.6922397562898959 2.123708833300975 6.309773300729851 0 0 2.133490583410956 4.765193368971471 0 0 0 2.240860618121887 0.5351098463649591 2.946455155366685 0 0 1.728933661530826 4.587080199109313 2.131702288557655 1:-0.286997 2:0.122294 3:0.207568 4:-0.356125 5:0.449781 6:-0.0644381 7:0.253332 8:0.407154 9:0.499379 10:0.137156 11:0.255411 12:-0.0718158 13:-0.00891681 14:-0.303635 15:0.0579696 16:0.254944 17:-0.274321 18:-0.147279 19:-0.516431 20:-0.449763 21:-0.469403 22:-0.41255 23:-0.567094 24:-0.437338 25:-0.253568 26:-0.30187 27:-0.441564 28:-0.322607 29:0.129363 30:0.354509 31:0.319096 32:0.0809692 33:0.338362 34:0.41461 35:0.273016 36:0.0766613 37:0.39062 38:0.516389 39:0.203344 40:0.0215927 
1.045716543794622 2.875271679996029 1.798276216773551 0 2.370158682681083 1.829062581455114 0.3493900625655401 8 5.245499687521691 3.641859645569912 0 4.030494254024038 6.92983570282153 0 0 1.492997651239288 6.207587238903701 0 2.631542985239841 3.844657130440136 5.830170359146263 3.664127653517819 0 1:-0.0982872 2:0.0662343 3:0.134227 4:-0.600784 5:0.00834029 6:-0.396288 7:-0.104509 8:-0.297631 9:0.0136871 10:-0.173018 11:0.185482 12:-0.0560282 13:-0.292978 14:-0.199846 15:0.0662659 16:0.100068 17:-0.108556 18:-0.0354863 19:0.221334 20:0.0355807 21:-0.0447817 22:0.333535 23:0.283742 24:0.510728 25:0.0649803 26:-0.0469442 27:-0.170561 28:-0.254072 29:-0.147064 30:0.171752 31:-0.0576175 32:-0.167501 33:0.217452 34:-0.0201883 35:0.281231 36:-0.349738 37:-0.278079 38:-0.397816 39:-0.204626 40:0.322109 
0.2709723032607869 0 1.182857507162019 7.275993149377514 5.017178426954082 0 1.927704599515486 0 1.291007195936394 0 5.85674107173357 3.656408377561034 0.1747225064218874 0 1.566013868738367 0 8 0.6604848001559699 0 0 3.824826290586463 0.3094708890425099 6.456777158159452 1:0.204641 2:0.050596 3:-0.0167521 4:-0.463946 5:-0.24697 6:-0.310923 7:-0.257462 8:-0.21854 9:0.0691896 10:-0.101951 11:-0.00981441 12:-0.0498413 13:-0.407506 14:-0.146593 15:0.364556 16:-0.348049 17:0.00682072 18:-0.143495 19:0.0552735 20:0.102451 21:-0.0699185 22:0.197674 23:0.093786 24:0.329296 25:-0.0518863 26:-0.00632473 27:-0.176219 28:-0.217225 29:0.0086813 30:0.121922 31:-0.164481 32:-0.0641483 33:0.183834 34:-0.114898 35:0.130149 36:-0.392804 37:-0.379407 38:-0.314958 39:-0.151897 40:0.332598 
3.991361359655426 4.363842202519737 2.869039211760291 7.562725680903398 0 0 0.4738640837720173 4.396425934239505 3.688876117823444 3.777117560930214 6.805584602276077 0.5165226815095424 8 6.174203680049343 0.6463135053199524 7.892316408719692 0 0.6045962900133586 0.2648998105705185 7.353440338459198 8 0 5.415568997654613 1:0.351257 2:0.145632 3:0.155685 4:0.0264855 5:0.32991 6:-0.452393 7:0.223157 8:-0.0561448 9:0.0798894 10:-0.125601 11:0.574627 12:0.0774373 13:0.670916 14:0.308731 15:0.124056 16:0.365494 17:-0.134762 18:0.281455 19:-0.0720991 20:0.168649 21:-0.06611 22:0.184578 23:0.0359415 24:0.0712157 25:0.114898 26:0.154297 27:-0.0258324 28:-0.136694 29:0.241396 30:0.0340914 31:0.2984 32:0.258292 33:0.210126 34:0.00738726 35:-0.0305393 36:-0.190303 37:-0.365487 38:-0.296596 39:-0.238303 40:-0.393151 
0.9905052070214353 1.86673487186785 0 0 2.650293403210725 0 0 0.6051316129409035 0 0 1.0180490249962 0.004654541461253919 0 3.623672519186089 2.012552929234484 0 2.460901555496724 0.669831993110744 0.002987186971460466 3.41793538990414 0 0 0 1:0.0765614 2:0.0509553 3:-0.137687 4:-0.345491 5:0.368093 6:0.12332 7:-0.110464 8:-0.384149 9:0.137289 10:0.296008 11:0.315369 12:0.103861 13:-0.315441 14:-0.254879 15:0.397161 16:0.158553 17:0.0344586 18:0.0248047 19:-0.141379 20:0.0533694 21:0.427189 22:0.327352 23:0.172637 24:0.491469 25:0.154626 26:0.00910884 27:-0.194424 28:-0.790287 29:-0.322568 30:-0.146299 31:-0.459838 32:-0.112661 33:0.242068 34:0.174037 35:-0.259055 36:-0.496033 37:-0.327854 38:-0.0999456 39:-0.171137 40:0.159392 
1.071952309140515 0 0 0 5.590178000452288 0 0.9144721506571544 1.348332031076062 0.0376588806158512 0 0 0.3598110909621556 0 0 0 0.5500197500326391 0 0 0 0 0 0.552995441192235 0 1:-0.067346 2:0.308892 3:0.0838052 4:-0.424654 5:0.153794 6:-0.0623673 7:0.286997 8:-0.129165 9:0.499216 10:0.30557 11:-0.261266 12:0.017072 13:-0.129016 14:0.000567181 15:0.15093 16:-0.144798 17:-0.0202921 18:-0.227748 19:-0.692167 20:-0.389899 21:-0.437697 22:-0.670052 23:-0.534301 24:-0.719271 25:-0.440504 26:-0.429854 27:-0.630489 28:-0.185177 29:0.2426 30:0.312592 31:0.153674 32:0.500936 33:0.295234 34:0.208423 35:0.0374317 36:0.0979677 37:0.341547 38:0.12114 39:0.23293 40:0.0853041 
0 0 0 0 0 0 0 0 0 0 0 0 0 0 0 0 2.254198586768475 0 0 0 0 0 0 1:-0.0499111 2:0.109491 3:-0.070753 4:-0.447608 5:-0.327121 6:-0.19449 7:-0.401895 8:-0.0825078 9:-0.155879 10:-0.0345754 11:-0.0478478 12:-0.0729432 13:-0.449575 14:-0.261144 15:0.191825 16:-0.251344 17:0.0989317 18:-0.250337 19:0.273543 20:-0.0300114 21:-0.07366 22:0.319966 23:0.399816 24:0.560042 25:0.220404 26:-0.00157928 27:-0.194316 28:-0.29986 29:-0.227763 30:-0.0742614 31:-0.286565 32:-0.0209279 33:0.0973015 34:0.277975 35:0.0705632 36:-0.346759 37:-0.316782 38:-0.222198 39:-0.17555 40:0.55306 
0 2.841679599693332 0 1.873454010989218 0 3.461499159944373 0 0 0.4043981772561681 2.596283693210027 0 0 0 2.442703022403322 0 0 0 0 0 0 0 0 0 1:0.304587 2:0.202759 3:0.32615 4:-0.485027 5:0.231748 6:-0.273378 7:0.270813 8:-0.419771 9:0.46807 10:0.121954 11:0.290046 12:0.200179 13:0.409509 14:0.188306 15:0.20133 16:0.455597 17:-0.141625 18:0.230118 19:0.0509369 20:0.270729 21:0.120019 22:0.457822 23:0.127442 24:0.272225 25:0.313123 26:0.0442807 27:0.234053 28:-0.192702 29:0.181056 30:0.179684 31:0.08435 32:-0.00187566 33:-0.109607 34:0.113996 35:0.0766635 36:-0.138613 37:-0.138578 38:-0.266422 39:-0.303446 40:-0.137416 
1.887531549573361 0.3694210852800882 1.487043134789286 0.829590941838917 1.198356202969837 0 1.987819586352776 1.013544291867012 0.1300031808929495 0 1.410055207113399 5.223975095090898 0 0 0 0 2.810897178629157 0 0.6031113400736214 0.5351731206883045 0 2.066503437202105 1.493664256501412 1:-0.0139115 2:-0.0877441 3:0.170808 4:-0.377221 5:0.11838 6:-0.126896 7:0.0117009 8:-0.22798 9:0.159773 10:0.19432 11:0.449765 12:0.117482 13:-0.142545 14:-0.345178 15:0.218953 16:0.0224403 17:0.188125 18:0.130954 19:0.129362 20:0.177872 21:-0.0947173 22:0.528042 23:0.367028 24:0.827197 25:0.395397 26:0.270988 27:-0.120897 28:-0.801875 29:-0.871874 30:-0.607352 31:-0.420083 32:-0.220972 33:0.675187 34:-0.0219963 35:-0.0898593 36:-0.497319 37:-0.541494 38:-0.22698 39:0.229306 40:0.384097 
3.279217652665468 0.163404069446923 0 1.047148955414836 0 0 0 0 1.816947215578182 0 1.128910358885328 0.2109808211870253 1.918483204192882 0.354323163834839 0.4506207096831428 0.3144553582368582 0.6756958353530665 0.1086507643597098 0 1.601175148549825 1.096732188491379 0 1.616408328794124 1:0.178496 2:0.135973 3:0.116091 4:-0.631712 5:0.640124 6:0.196635 7:0.413742 8:-0.190414 9:0.953893 10:-0.0409858 11:0.172343 12:0.290966 13:-0.474447 14:0.0726044 15:0.171571 16:0.426577 17:-0.18042 18:-0.423159 19:-0.417426 20:-0.069119 21:-0.707917 22:-0.695416 23:-0.385899 24:-0.639474 25:-0.33495 26:-0.318738 27:-0.549429 28:-0.385383 29:0.212843 30:0.619868 31:0.0498878 32:0.193768 33:0.718838 34:0.335015 35:0.571921 36:0.234916 37:0.461446 38:0.495117 39:0.289944 40:0.192139 
0 0.6195706197140041 2.489634336258195 1.952027783527047 0.7549702117994803 0 0.8255879698599372 0 0 0 0.2963693116791384 0.07678963718161062 0 0 0.06019713964382305 2.486389646033542 0 0.597858121529937 3.245233411803353 0 0 2.000679812435581 0 1:0.541932 2:-0.134464 3:-0.0638678 4:-0.478866 5:0.0530217 6:-0.188732 7:0.23786 8:-0.906368 9:0.439423 10:-0.458386 11:-0.304966 12:-0.12167 13:-0.0257086 14:0.252975 15:-0.352585 16:0.540641 17:0.221207 18:-0.0769229 19:0.103681 20:0.255917 21:-0.426194 22:0.116076 23:-0.124938 24:0.0732784 25:-0.0918258 26:-0.614303 27:-0.113815 28:-0.292975 29:0.178833 30:-0.232643 31:0.0807784 32:0.19637 33:-0.353958 34:-0.380781 35:-0.214128 36:0.129297 37:-0.291124 38:-0.2696 39:-0.303302 40:-0.0109643 
0.5240694244818032 0.4524173859470654 0 0 2.219672615519919 1.376489398742804 2.124948910702975 2.324817389983882 5.252819757413294 0 6.575401328565854 0.4323511953960991 1.477889367385025 0 4.315546503629569 0.6915486132788653 0 0 0 0.4845199794716663 3.551900515928045 1.78681412775311 2.108463362175895 1:0.324232 2:-0.102751 3:-0.188304 4:-0.322823 5:-0.221777 6:-0.244831 7:0.0471569 8:-0.744614 9:0.402039 10:-0.572456 11:-0.322334 12:-0.237428 13:0.216137 14:0.0101968 15:-0.830964 16:0.445004 17:0.407019 18:-0.0819846 19:-0.0684202 20:-0.0402531 21:-0.388619 22:0.00339826 23:-0.340757 24:0.00405014 25:-0.153689 26:-0.522887 27:-0.339976 28:-0.111883 29:0.150721 30:-0.0374249 31:0.233136 32:-0.117433 33:-0.0714416 34:-0.397735 35:-0.22976 36:-0.031172 37:-0.42023 38:-0.265797 39:-0.221203 40:-0.0533214 
6.169619325156101 0 0 0 0.5906020246989292 4.595779483294201 3.167523876837107 8 0 5.011973246610564 4.787693044604487 0 4.365698966045623 0 5.080936719359573 2.9720579042959 6.748447986984407 0.1304911074388679 1.727385030757111 3.475540437378655 2.840140528065346 0 1.351969775332905 1:-0.108255 2:0.0725136 3:0.00706259 4:-0.523056 5:-0.185586 6:-0.131385 7:-0.16778 8:-0.195521 9:-0.0818006 10:-0.036191 11:0.117946 12:0.0815002 13:-0.141158 14:-0.209963 15:0.186499 16:-0.0125587 17:0.21491 18:-0.179819 19:0.204551 20:0.210869 21:-0.0391847 22:0.188048 23:0.0315266 24:0.259442 25:-0.028527 26:0.0724323 27:0.167288 28:-0.258974 29:-0.0559224 30:0.219004 31:0.175 32:0.29984 33:0.212892 34:0.0165127 35:-0.341174 36:-0.627315 37:-0.333585 38:-0.287203 39:-0.266219 40:0.408006 
0 0 1.598069118672277 0 0 0 0 0 0 0 0 1.538429369452702 0 0 0 0 0 0 0 4.97931803021525 0.3905156139795347 0 0 1:-0.00345986 2:0.0460044 3:-0.0635585 4:-0.252489 5:-0.306427 6:-0.143436 7:-0.340765 8:-0.053318 9:-0.135217 10:-0.000366263 11:0.0449391 12:-0.0368333 13:-0.223713 14:-0.186905 15:0.105173 16:-0.0965382 17:0.101963 18:-0.197263 19:0.150049 20:0.177077 21:-0.135331 22:-0.0290934 23:0.420531 24:0.417395 25:0.0906069 26:0.220282 27:-0.183024 28:-0.419422 29:-0.150488 30:-0.0205565 31:-0.165835 32:0.0568527 33:0.154139 34:0.295389 35:0.0807067 36:-0.52654 37:-0.575608 38:-0.177402 39:-0.0753002 40:0.401164 
-6.354335843858703 6.862362975119574 4.545673581149604 3.770394932549629 8 4.343717422290189 8 8 8 8 8 8 8 8 0.711323794763664 5.282274414795567 5.239909846047373 1.432265281169936 2.889629599436108 8 8 5.560895244989037 7.234773008392337 1:-0.28416 2:-0.0677506 3:0.253111 4:-0.0734039 5:0.158334 6:-0.0981573 7:0.159115 8:0.151243 9:0.357526 10:-0.300932 11:0.286583 12:-0.0118851 13:0.232304 14:-0.418475 15:0.142796 16:0.282914 17:-0.202981 18:0.199672 19:0.0236027 20:0.295067 21:-0.216006 22:0.251116 23:0.0712304 24:0.184828 25:0.372154 26:0.251743 27:-0.00180755 28:-0.242434 29:-0.10673 30:-0.159112 31:-0.0676257 32:-0.103264 33:0.131451 34:-0.0284991 35:0.016373 36:-0.197782 37:-0.234428 38:-0.256615 39:-0.246345 40:-0.16799 
-0 0 0 0 0 0 0 0 0 0 0 1.394381228115011 1.005480631238042 0 0 0 3.185495647171755 0 0 0 0 0 0 1:-0.238708 2:-0.0753253 3:0.175324 4:-0.877524 5:-0.15997 6:-0.319849 7:-0.279653 8:-0.419433 9:-0.0982986 10:-0.158169 11:0.0866856 12:-0.0928234 13:-0.484577 14:-0.697313 15:0.141346 16:0.00650972 17:-0.0762211 18:0.0605099 19:-0.0494119 20:0.0208779 21:-0.243859 22:0.0797405 23:0.02534 24:0.333954 25:0.255805 26:-0.135473 27:0.0707237 28:-0.0199231 29:-0.0251262 30:0.174555 31:-0.0982624 32:0.224924 33:0.156181 34:-0.169703 35:0.0722003 36:-0.311016 37:-0.112806 38:-0.237138 39:-0.263437 40:-0.158978 
-1.045032700799205 0 2.770168329910297 2.534900029737786 1.487004634361284 0.136433268929369 1.4238670297149 0 0 0 3.378710089500094 5.79387271149674 0 0 1.578462551738554 0 1.066418624647203 0 0 1.353250092673802 0 2.383110576507788 0.579211711121609 1:-0.0100556 2:-0.123463 3:0.0572154 4:-0.548174 5:0.0953865 6:-0.0462981 7:0.0248407 8:-0.277772 9:0.0838629 10:-0.0795859 11:0.269559 12:0.314727 13:-0.0796 14:-0.517779 15:0.434778 16:0.186594 17:0.183209 18:0.452271 19:0.341129 20:0.299185 21:-0.243468 22:0.143268 23:0.339996 24:0.68052 25:0.516038 26:0.496224 27:0.0604219 28:-0.515536 29:-0.537503 30:-0.389522 31:-0.244096 32:0.189123 33:0.144846 34:-0.0605309 35:0.224638 36:-0.475218 37:-0.295048 38:-0.252952 39:-0.192233 40:-0.378816 
-3.791205043199211 0 2.58991009816904 0.520951264910778 0 0.3534941370757596 0 0 0 0.565203416583444 0 0.4096720812936724 0 0 0.1551429899956679 0.6245961963268191 0 0 0.3191908072705027 0 0 0.8631767755395217 0.6880415511362726 1:-0.417552 2:0.0250269 3:0.263974 4:-0.446617 5:0.568168 6:0.0797814 7:0.324163 8:-0.508626 9:0.514248 10:-0.207274 11:0.485053 12:0.437328 13:0.625943 14:0.483644 15:0.240924 16:0.347136 17:-0.569773 18:0.359441 19:0.031053 20:0.334007 21:-0.124088 22:0.407409 23:0.737983 24:0.253935 25:0.56211 26:0.289909 27:0.068121 28:-0.522124 29:-0.0528958 30:0.059587 31:-0.516363 32:-0.150267 33:0.569248 34:0.275852 35:-0.233235 36:-0.0579343 37:-0.158263 38:-0.340541 39:-0.343697 40:-0.0381731 
-0 0 0 0 0 1.398612565900842 0 0 2.878067174053479 0 0 0 0.8034201943194751 0 0 2.308731265459635 0 0 0 0 4.251732947917443 0 0.6867696403240966 1:-0.137345 2:0.0600316 3:0.00405774 4:-0.61577 5:-0.290733 6:-0.0968937 7:-0.256718 8:-0.243087 9:-0.155803 10:-0.0396029 11:-0.0246419 12:-0.0424849 13:-0.0859977 14:-0.482676 15:0.266726 16:-0.140459 17:0.0641627 18:-0.0490453 19:-0.00488947 20:0.0938388 21:-0.265135 22:-0.147193 23:0.0335133 24:0.344646 25:0.239116 26:0.152028 27:-0.153643 28:-0.0140487 29:-0.0983172 30:-0.0908079 31:-0.207155 32:0.384621 33:0.179186 34:-0.166268 35:0.260965 36:-0.218663 37:-0.034007 38:-0.533946 39:-0.430759 40:-0.267403 
-2.088380822613752 1.515339429824718 0.9876322821010238 2.876310025553408 0.2114600893997358 0.5755904410935345 1.696791656889852 0 1.283440703383224 1.422881650145367 2.042261476906949 2.344781794389124 2.586605203984538 3.05373861198707 1.710467893712596 1.981268266686598 1.844051894062839 1.03781090207184 0.3493959366127971 1.235133881611164 0.4394787281803045 0.7356124351319747 0.9776173296420365 1:-0.570273 2:0.327071 3:-0.192224 4:-0.284878 5:-0.498148 6:0.211779 7:-0.675825 8:0.138241 9:-0.57724 10:0.22464 11:-0.000671796 12:0.278885 13:-0.784291 14:-0.780979 15:0.181825 16:0.0794939 17:0.0493713 18:0.00858059 19:0.225418 20:-0.147256 21:0.188123 22:-0.0722018 23:0.411238 24:0.0697899 25:0.467748 26:-0.11936 27:-0.0739059 28:-0.277569 29:-0.227735 30:0.367875 31:-0.34173 32:0.554883 33:-0.163319 34:0.253392 35:-0.516935 36:0.200266 37:-0.324426 38:-0.102457 39:-0.383789 40:0.0830591 
-6.242607503326124 7.234846816134419 0 3.690414024651119 1.672907576696006 1.43364332996276 2.018588783512364 3.679680357583655 0.9644037443655131 2.356459711663399 1.642810735094602 6.761392441054729 0.4716258009357702 8 0.4744240805299238 0 2.398909290353634 0 0 6.813971760063678 4.245970688652295 0.4458342886675378 2.405258794232072 1:-0.137343 2:0.373449 3:0.102643 4:-0.347955 5:0.144627 6:-0.237553 7:0.0835374 8:-0.138701 9:0.687725 10:-0.0456179 11:0.431399 12:0.219637 13:0.653496 14:0.222678 15:0.0900815 16:0.441623 17:-0.129484 18:0.468462 19:0.0550929 20:0.443712 21:0.256857 22:0.51817 23:0.408724 24:0.0800759 25:0.681298 26:0.542566 27:0.353544 28:0.143385 29:0.18839 30:0.603424 31:0.168257 32:0.139599 33:0.159964 34:-0.0402608 35:0.379564 36:-0.0144529 37:0.033744 38:-0.0775046 39:-0.225021 40:-0.086859 
-0 1.672068727124941 0 0 0 0 0 0 0 0 0 0 0 0 0 0 0.1838189682979586 0 0 0 0 0 0 1:0.141359 2:0.393588 3:0.15751 4:-0.774207 5:0.363329 6:-0.0172535 7:0.602899 8:-0.223514 9:0.427072 10:-0.257905 11:0.179311 12:0.209294 13:-0.360191 14:-0.0289071 15:0.218298 16:0.167172 17:-0.57322 18:-0.151586 19:-0.494032 20:-0.274335 21:-0.405651 22:-0.582691 23:-0.64097 24:-0.692881 25:-0.386316 26:-0.406217 27:-0.205989 28:-0.141794 29:-0.125606 30:0.079898 31:0.21754 32:0.293212 33:0.412377 34:0.30765 35:0.343566 36:-0.114073 37:-0.0766226 38:-0.174253 39:-0.058865 40:0.0357001 
-0 0 0 0 0 0 0 0 0 0 0 0 0 0 0 0.2359857828588429 0 0 0 0 0 0 0 1:-0.224302 2:0.558108 3:0.0227699 4:-0.645394 5:0.217239 6:0.058577 7:0.6029 8:-0.244641 9:0.321027 10:-0.0914071 11:0.0878784 12:0.203657 13:-0.35963 14:0.169242 15:0.15565 16:0.0557539 17:-0.301765 18:-0.440448 19:-0.317644 20:-0.232769 21:-0.441566 22:-0.527067 23:-0.655783 24:-0.685575 25:-0.496066 26:-0.413075 27:-0.324591 28:-0.313059 29:0.0897623 30:0.238721 31:-0.011089 32:0.553184 33:0.563031 34:0.206884 35:0.193309 36:-0.16702 37:0.045757 38:-0.0726686 39:0.116984 40:0.0854448 
-1.104865412710318 0 0 0.2424037063900882 0 0 0 0 0 0 0 0 0 0 0.0208790487594493 0 0 0 0 0 0 0.209116763047375 0 1:-0.0525551 2:0.0483334 3:-0.0884592 4:-0.434663 5:-0.017589 6:0.184405 7:-0.0477539 8:-0.242372 9:-0.0812806 10:0.261405 11:0.300576 12:0.111117 13:0.156407 14:-0.506768 15:0.176841 16:0.130455 17:0.4915 18:0.559595 19:0.0592996 20:-0.126951 21:-0.0552774 22:0.299393 23:0.466556 24:0.821469 25:0.197823 26:0.170812 27:0.104562 28:-0.501228 29:-0.311868 30:-0.132618 31:-0.994034 32:-0.0511802 33:0.746799 34:-0.254983 35:0.18305 36:-0.00504874 37:-0.409368 38:-0.508036 39:-0.0700319 40:-0.523383 
-0 0 0 0 0 0 0 0 0 0 0 0 0 0 0 0 2.037957113103345 0 0 0 0 0 0 1:-0.199943 2:-0.118602 3:0.162174 4:-0.802741 5:-0.0964315 6:-0.299779 7:-0.293828 8:-0.466019 9:-0.121109 10:-0.176911 11:0.184722 12:-0.163397 13:-0.545209 14:-0.757874 15:0.167687 16:0.0643653 17:0.0336044 18:0.17496 19:-0.112907 20:0.0566598 21:-0.205248 22:0.0668485 23:0.0316808 24:0.549828 25:0.322714 26:-0.0220368 27:0.103823 28:-0.17951 29:-0.112047 30:0.0684218 31:-0.138607 32:0.182387 33:0.199257 34:-0.103098 35:0.200078 36:-0.275809 37:-0.034439 38:-0.344504 39:-0.37636 40:-0.232039 
-0 0 0 0 1.308408256149599 0 0 0.8285428515748667 0 0 0 0 0 0 0 0 0 0 0 0 0 0 0 1:-0.305777 2:-0.199176 3:-0.390921 4:-0.204472 5:1 6:0.106651 7:0.891456 8:-0.0341765 9:0.620064 10:0.0266919 11:0.436827 12:0.287241 13:0.234057 14:0.00209547 15:0.464722 16:0.614574 17:-0.460028 18:0.367347 19:-0.307636 20:0.363468 21:-0.0883504 22:-0.0396565 23:-0.0723294 24:-0.219011 25:-0.0699111 26:-0.550202 27:0.154038 28:-0.166989 29:0.518952 30:0.431869 31:0.668803 32:0.363825 33:0.0871977 34:0.1203 35:-0.133189 36:0.285659 37:-0.385445 38:0.0311539 39:-0.142741 40:0.272071 
-0.2824546177948061 0.9466600100205753 2.344080769701673 1.264283577048965 2.957620480793776 2.57743616140896 0 3.178764898135558 3.066856776294793 1.761206833812408 0.08266384460227424 0.6717410993741455 4.816200449348827 8 0 7.181303638495445 0 0.376254635533075 0.8579715707423126 0.8022383575227606 3.206821878424188 0.8561583100803654 2.997868970052293 1:-0.216496 2:0.110551 3:0.190886 4:-0.0975096 5:0.485062 6:-0.170725 7:-0.0248315 8:-0.278173 9:0.501607 10:0.0095475 11:0.703918 12:-0.0403054 13:0.788724 14:0.408978 15:0.0279435 16:0.0726101 17:-0.257658 18:0.473182 19:-0.178925 20:0.40758 21:-0.301065 22:0.444909 23:0.0772863 24:-0.0322791 25:0.277302 26:-0.053127 27:0.29997 28:-0.413118 29:0.333284 30:-0.0512234 31:0.26986 32:0.0102784 33:0.131675 34:0.360975 35:-0.0768533 36:0.395689 37:-0.214452 38:0.132343 39:-0.344277 40:0.203737 
-2.174744372943259 1.154416034987597 0 0 1.416156049925817 0 2.544328666882803 2.211444993230217 0 0 1.840120826866207 0 0 3.515117660736618 0 0 0 0 0 1.014329424099205 0 0 0.2001434246823957 1:0.170709 2:-0.0502958 3:-0.10386 4:-0.344076 5:0.192834 6:0.370908 7:0.270391 8:0.000162826 9:0.4848 10:-0.0137672 11:0.264624 12:-0.201937 13:0.332432 14:0.256196 15:0.309832 16:-0.0126307 17:-0.245963 18:0.322466 19:-0.142365 20:0.127742 21:-0.0456849 22:0.40717 23:0.229851 24:0.135148 25:0.285536 26:0.197911 27:0.081708 28:-0.0889413 29:-0.283435 30:-0.407892 31:-0.130186 32:-0.276726 33:0.109409 34:0.218318 35:-0.0335569 36:-0.0621214 37:-0.0575667 38:-0.174122 39:-0.400457 40:-0.473333 
-1.552279325726294 0.6154201354730641 0 0 7.309096656459691 0.1387480114181096 1.758351731276184 8 0 0 0 5.587210163794875 1.103129719696561 1.860370884832535 2.168052909370963 4.937742130531938 0 1.040964454909762 0 3.626906669484172 0 0.08810164680985476 6.842101549114964 1:-0.305777 2:-0.199176 3:-0.390921 4:-0.204472 5:1 6:0.106651 7:0.891456 8:-0.0341765 9:0.620064 10:0.0266919 11:0.436827 12:0.287241 13:0.234057 14:0.00209547 15:0.464722 16:0.614574 17:-0.460028 18:0.367347 19:-0.307636 20:0.363468 21:-0.0883504 22:-0.0396565 23:-0.0723294 24:-0.219011 25:-0.0699111 26:-0.550202 27:0.154038 28:-0.166989 29:0.518952 30:0.431869 31:0.668803 32:0.363825 33:0.0871977 34:0.1203 35:-0.133189 36:0.285659 37:-0.385445 38:0.0311539 39:-0.142741 40:0.272071 
-0 0 0.2203820999407137 0 0 0 0 0 0 0 0 0 0 0 0 0.443681444135131 0 0 0 0 0 0.2922062401703138 0 1:-0.1368 2:0.142497 3:0.00422092 4:-0.673541 5:0.487696 6:0.151637 7:0.892187 8:-0.113494 9:0.44213 10:-0.114766 11:0.0730696 12:0.145398 13:-0.379887 14:-0.0939101 15:0.391585 16:0.466479 17:-0.580692 18:-0.258563 19:-0.374509 20:-0.326694 21:-0.51854 22:-0.664429 23:-0.606116 24:-0.479904 25:-0.448347 26:-0.355217 27:0.0453945 28:-0.296536 29:-0.270692 30:0.0521414 31:-0.20983 32:-0.00752545 33:0.716638 34:0.446077 35:0.595751 36:0.274184 37:0.246369 38:0.28599 39:0.238554 40:0.15267 
-0 0.5408067924283587 0.7796029018955363 0 0.7050929585496545 1.409328177618304 0 1.369881568461284 0.5801706909383303 1.277434676876015 0 0 0 0 0.72849832563165 0 1.774226091896228 1.881928793969172 0 0.2432453589941253 0 0 1.743011986822506 1:-0.442906 2:0.723088 3:-0.039258 4:-0.636648 5:0.193149 6:0.398242 7:0.419743 8:0.0799242 9:0.273438 10:-0.112941 11:-0.0149654 12:0.355808 13:-0.623411 14:-0.0364525 15:0.156842 16:-0.0368884 17:-0.242617 18:-0.652922 19:-0.0295503 20:-0.411493 21:-0.113335 22:-0.561704 23:-0.625852 24:-0.441318 25:-0.651851 26:-0.122344 27:-0.373907 28:-0.22192 29:-0.109834 30:0.106282 31:0.00325882 32:0.137016 33:0.469412 34:0.441871 35:0.302251 36:-0.236808 37:-0.0612494 38:0.118684 39:0.17602 40:-0.188647 
-0 0 0 0 0.3740367649010258 0 0 0 0 0 0 0 0.2912505212840135 0 0.1970517706897735 0.6944026730508092 0 0 1.481580891405588 0 0.9346021842804089 2.052566695483482 0 1:-0.326281 2:-0.125689 3:-0.39473 4:-0.754033 5:-0.251468 6:-0.0167862 7:-0.107627 8:-0.553582 9:0.408882 10:-0.616264 11:0.242194 12:-0.347474 13:-0.401892 14:0.0645822 15:-0.27012 16:-0.302735 17:-0.167133 18:0.196408 19:-0.299697 20:-0.0128405 21:-0.285694 22:0.277032 23:-0.383918 24:-0.108286 25:-0.185204 26:-0.712696 27:0.20279 28:0.0213391 29:0.47602 30:0.171778 31:0.348261 32:0.0878151 33:-0.316197 34:-0.0147168 35:-0.201512 36:0.0465953 37:-0.0761265 38:-0.132547 39:-0.167158 40:0.0149977 
-0 0 0 0 0 0 1.630604572592947 0 0 0 0 0.1732007563337969 0 0 0 0 0 0 0 0 0 0 2.20460838219764 1:-0.0362857 2:-0.0207131 3:-0.0255534 4:-0.377897 5:0.103127 6:0.0560548 7:-0.1297 8:-0.172814 9:0.144699 10:0.00556019 11:0.338264 12:0.277096 13:-0.136297 14:-0.374653 15:0.687194 16:0.0454579 17:0.410611 18:0.434823 19:0.150245 20:0.237765 21:-0.0984479 22:0.107522 23:0.0658088 24:0.690109 25:0.569556 26:0.316077 27:-0.198633 28:-0.159694 29:-0.401609 30:-0.471968 31:-0.419538 32:0.253658 33:0.541642 34:-0.112089 35:0.0265296 36:-0.635529 37:-0.220021 38:-0.498998 39:-0.172144 40:-0.483039 
-0 4.034337975004736 1.461660206530406 1.742582414524769 3.512694880715452 0 2.9132589875735 2.714586792666609 8 0 4.595787059799608 2.365787673214334 1.528580289459472 8 1.167779976259627 0 0 0 1.33844872468148 6.694947574849652 8 0 2.898559571866919 1:0.240702 2:-0.0562912 3:-0.322081 4:-0.471956 5:-0.206269 6:-0.0652034 7:-0.010249 8:-0.391828 9:0.624831 10:-0.37035 11:0.278838 12:-0.0468121 13:0.0242337 14:0.0393006 15:0.0683832 16:-0.167345 17:-0.177429 18:0.28944 19:-0.31386 20:0.37555 21:-0.186788 22:0.134684 23:-0.126784 24:-0.154114 25:-0.272403 26:-0.398923 27:0.242328 28:-0.219632 29:0.443212 30:0.135183 31:0.377677 32:0.336755 33:-0.304903 34:-0.0868015 35:-0.171234 36:-0.0732558 37:-0.189071 38:-0.121071 39:-0.236007 40:-0.131524 
-0.3514603744545474 0.4592625090959146 0 0 0.631873027425398 0.4799105059448838 1.595715089221241 2.171404748011521 0 0 0.4431674950383982 1.003552104748302 0.02370523423565499 0.6791605878352347 1.263062675263277 0.3823370593052152 3.291671249491843 2.116802451147697 0 0 1.053791144320664 0 0 1:-0.264871 2:0.528938 3:-0.140671 4:-0.254533 5:-0.0183679 6:0.574626 7:0.32175 8:0.597366 9:-0.0226164 10:0.0182661 11:0.433753 12:0.0558077 13:0.00594065 14:-0.423782 15:0.633178 16:0.062399 17:-0.373602 18:-0.277164 19:-0.15669 20:-0.184844 21:-0.235078 22:-0.444145 23:-0.579094 24:-0.467291 25:-0.371257 26:-0.240769 27:-0.0530711 28:-0.094574 29:0.150391 30:-0.0677587 31:0.102265 32:0.378196 33:0.398009 34:0.463112 35:0.0103627 36:0.288116 37:-0.130591 38:0.18996 39:-0.0458787 40:0.324765 
-0 0.7582978577043751 0 0 0 0 0 2.003916808094417 0 0 0 0.5076930087958995 1.235798319461749 0 0.495587675163654 3.634224360385454 0 0 0 1.217954318485701 0.9471768200851162 0 0 1:-0.168337 2:0.246856 3:-0.365044 4:0.175475 5:-0.11556 6:0.64476 7:-0.0248965 8:0.0910412 9:0.332515 10:0.00915833 11:0.808497 12:0.0860044 13:0.284549 14:0.35391 15:0.0700048 16:0.11328 17:-0.203458 18:0.479026 19:-0.199944 20:0.102074 21:-0.525939 22:0.275444 23:-0.244226 24:0.063127 25:-0.153837 26:-0.35682 27:0.0619572 28:-0.327866 29:0.287236 30:0.165008 31:0.420803 32:0.316838 33:0.262857 34:0.0841699 35:-0.203301 36:0.0120255 37:-0.280322 38:-0.147138 39:-0.510734 40:-0.18404 
-0.07751551146440827 0.8114303281378968 3.013959708226845 3.68813442138581 2.747900423622296 0 0 0 0 0 0 2.102335162356602 0 4.457280335670836 0 1.951319684089721 0 0 1.737295070890482 0 2.833446337017346 2.768032708266868 0 1:-0.370455 2:0.373009 3:0.0392611 4:-0.26984 5:0.0493393 6:-0.501591 7:0.156484 8:-0.207843 9:0.853423 10:-0.237141 11:0.569941 12:0.111863 13:0.225849 14:0.513197 15:0.264635 16:0.754897 17:-0.239108 18:0.289585 19:-0.186361 20:0.440953 21:0.224548 22:0.637286 23:0.756202 24:0.191143 25:0.353677 26:-0.138449 27:0.387477 28:0.191317 29:0.429117 30:0.625843 31:0.224332 32:0.211492 33:-0.237959 34:-0.0390523 35:0.247189 36:0.141371 37:0.0743327 38:-0.00535714 39:-0.0926494 40:-0.22741 
-0.3691159914446983 1.711020808000262 0 0 0 1.856258278302939 0 0 0 5.405739723359759 3.674220284580811 0 2.517236110452787 0 0 0 3.889608155451306 1.207058798744367 0 0.6092400601052423 7.005156677541946 0 2.058456227298381 1:0.176365 2:-0.0944307 3:0.233074 4:-0.549964 5:0.336807 6:0.116038 7:0.233726 8:0.041568 9:0.494553 10:-0.0234893 11:0.400528 12:-0.199112 13:0.19699 14:0.374681 15:0.0559816 16:-0.0142953 17:-0.332331 18:0.251897 19:-0.118128 20:0.130267 21:-0.0522925 22:0.171684 23:0.0489711 24:-0.061856 25:0.00700152 26:0.217266 27:0.276665 28:-0.310708 29:-0.0464116 30:0.0715886 31:-0.176788 32:-0.188616 33:0.208213 34:-0.131214 35:-0.181708 36:-0.145036 37:-0.100807 38:0.0166126 39:-0.434343 40:-0.33979 
-0 0 0 0 0 0 0 0 0.4400022232666242 0 0 1.065906964534465 0 0 0 0 0.2944798148385853 0 0 0.4134115080327155 0 0 0 1:-0.196345 2:0.324729 3:-0.271605 4:-0.332885 5:-0.470989 6:0.591351 7:-0.435228 8:0.248227 9:-0.0727207 10:0.125866 11:-0.0391075 12:-0.25705 13:0.0164705 14:0.618402 15:0.252829 16:-0.121842 17:0.114134 18:0.247663 19:0.0422948 20:0.0797942 21:0.358515 22:0.089498 23:0.430416 24:0.204342 25:0.160485 26:0.592052 27:0.599797 28:0.0319796 29:0.166616 30:0.606895 31:0.004594 32:0.384262 33:0.463807 34:0.284842 35:-0.0878132 36:-0.0599387 37:-0.26052 38:0.0081628 39:-0.371531 40:-0.547044 
-0 0.8462954347521967 0 0 0.04751193281254559 0 0.8632992501053427 0 0.5954081752244389 0 0 0 0 0 0.8073731910550374 1.632413443667333 0 0 0 0.2157970256914816 0 0 1.176263362965433 1:-0.232864 2:-0.0987304 3:-0.22527 4:-0.735065 5:-0.0668742 6:-0.124678 7:-0.0694071 8:-0.721579 9:0.229821 10:-0.647274 11:0.292723 12:-0.347437 13:-0.44281 14:-0.0501039 15:-0.391854 16:-0.137593 17:-0.177851 18:0.472557 19:-0.147273 20:0.0612907 21:-0.446177 22:-0.0663597 23:-0.42464 24:-0.199216 25:-0.232717 26:-0.517618 27:0.469016 28:-0.130216 29:0.492649 30:0.204387 31:0.406581 32:0.362732 33:0.18633 34:0.137343 35:-0.359953 36:-0.0197143 37:-0.385041 38:-0.136334 39:-0.379852 40:-0.253719 
-0 0 0 0 0 0 0 0 5.546292715945905 0 0 0 8 0 0 0 0 0 0 0 0.6936638047360688 0 0 1:-0.448144 2:0.278799 3:0.151458 4:-0.280808 5:0.163799 6:-0.34765 7:0.142969 8:-0.368451 9:0.641921 10:-0.136799 11:0.580684 12:0.245582 13:0.496239 14:0.315963 15:-0.00864817 16:0.550316 17:-0.269134 18:0.355911 19:-0.0628503 20:0.474513 21:0.184756 22:0.416938 23:0.535238 24:0.104191 25:0.498745 26:0.191629 27:0.389586 28:0.212214 29:0.198699 30:0.354028 31:0.181519 32:0.300965 33:0.0586082 34:0.00721079 35:0.188297 36:-0.0390747 37:-0.0479181 38:-0.0630764 39:-0.157297 40:-0.193113 
-2.078027909376157 2.343726396454894 0.1485960397183831 2.73764098801085 2.648577219551267 1.073618527148611 1.296117598187493 3.964992816309015 8 1.580031612076703 3.800814043630413 1.962767827867452 2.107902543902871 2.706791865859698 0.6806698857901388 1.724280457478734 0.9756169496126574 2.613680314460564 0.7389812576393159 3.355541576124503 3.501970937215136 1.273260817119629 3.418572543992001 1:0.239724 2:-0.0737471 3:-0.577751 4:0.473608 5:-0.322209 6:0.468159 7:-0.444339 8:0.268823 9:0.321304 10:-0.40208 11:0.319176 12:-0.192995 13:0.295151 14:-0.132381 15:0.461468 16:-0.0236623 17:0.352185 18:0.0848474 19:0.254242 20:0.206937 21:-0.184483 22:-0.317623 23:-0.347678 24:0.369292 25:-0.386598 26:0.0298617 27:-0.352552 28:0.483787 29:0.15122 30:0.362642 31:0.107326 32:0.100963 33:0.276873 34:-0.654386 35:0.250593 36:-0.761894 37:0.0694436 38:-0.858849 39:0.0188845 40:-0.620047 
-5.034148096402851 3.795630702590508 0 0 3.651618474440493 0.647699887666439 8 6.719171567714628 0 0 4.640455968246433 6.753058390509358 0.361184939689903 1.602855162432272 2.898566637961509 0.4103779505668346 0 0 0 4.899031523755936 1.842913721146019 3.443357966349388 6.757639495530352 1:-0.323501 2:0.202415 3:-0.0729405 4:-0.322526 5:-0.300266 6:-0.504762 7:0.0355081 8:-0.398087 9:0.201024 10:0.234524 11:-0.0102148 12:-0.284059 13:0.395636 14:-0.675195 15:0.268884 16:0.226702 17:-0.00117595 18:0.275865 19:-0.117885 20:0.247586 21:-0.398119 22:0.259463 23:-0.257319 24:0.134197 25:-0.0165262 26:-0.416574 27:0.111118 28:-0.0749331 29:0.380904 30:0.33476 31:0.605159 32:0.2713 33:0.350742 34:-0.307561 35:-0.520512 36:-0.212166 37:-0.346705 38:-0.186036 39:-0.327129 40:0.00568089 
-0 0 0 0 0.7234414738903685 0.2518074790440487 0 0 1.796610411662136 2.432886206113139 0 0 1.770592144077361 4.72190701180747 0 0 0 0.1584145502967165 0 0.9506640639502167 0 0.2638038415716852 0 1:0.0176086 2:-0.0824298 3:-0.00135018 4:-0.51571 5:0.139731 6:0.30474 7:0.158862 8:0.0274497 9:0.490844 10:-0.00599861 11:0.259895 12:-0.104967 13:0.135296 14:0.148056 15:0.24336 16:0.0569418 17:-0.193368 18:0.162063 19:-0.138819 20:0.374083 21:0.319365 22:0.199818 23:0.351565 24:0.19068 25:0.141298 26:0.434615 27:0.30959 28:-0.244461 29:-0.382958 30:-0.169636 31:-0.124525 32:-0.295857 33:-0.321554 34:-0.00608604 35:0.17448 36:-0.166591 37:-0.201992 38:0.0704798 39:-0.292126 40:-0.65262 
-2.043693226467049 1.529045475184202 0.03963671786473352 0.08135068962017968 0.2109449033088401 0 0 0 0.694900794576774 0.05520171562427555 0 1.638659845573792 0.6950447825821785 1.31984384834614 0.1176654200836541 1.209657525219557 0 0.7332792650760637 0.9602232253410292 0.2520573757307324 1.199184278344511 1.010045030461123 1.256673142699759 1:-0.405076 2:0.854229 3:-0.27635 4:-0.359534 5:-0.274564 6:0.699833 7:0.174902 8:0.330153 9:-0.0308081 10:0.180871 11:-0.0510748 12:0.295363 13:-0.456047 14:0.156611 15:0.34653 16:-0.188507 17:-0.10784 18:-0.690451 19:-0.249174 20:-0.489284 21:-0.156752 22:-0.818293 23:-0.419065 24:-0.751758 25:-0.537815 26:-0.541755 27:-0.471188 28:-0.221889 29:-0.108779 30:0.28512 31:-0.128916 32:0.727369 33:0.407047 34:0.723015 35:0.0947532 36:0.120832 37:-0.104472 38:-0.0155096 39:-0.0451091 40:0.0512598 
-2.366014904071586 0 0 0 0 0.06854856029911599 0 6.974894999708749 0 1.316913724795555 0 4.753115362448185 1.188677465127939 1.83616600046186 0.9534741143443282 0 0.1548793406943076 0 0 2.396409253308401 0 1.266949572193006 0 1:-0.303813 2:0.148031 3:0.0800954 4:-0.411979 5:0.103795 6:0.264643 7:-0.137206 8:-0.208324 9:0.0346145 10:0.199661 11:0.305744 12:0.261833 13:0.115616 14:-0.704318 15:0.323798 16:0.198599 17:0.173613 18:0.381748 19:0.205651 20:0.175513 21:0.0280739 22:0.198556 23:0.240361 24:0.372151 25:0.439693 26:0.261237 27:-0.074891 28:-0.362978 29:-0.410503 30:-0.0251269 31:-0.0789609 32:0.32245 33:0.0834199 34:-0.205947 35:0.0228444 36:-0.205674 37:-0.132469 38:-0.303089 39:-0.168414 40:0.0301592 
-0 0 0 1.358483295950118 0 0 1.270093069019673 0 0 0 1.715285773216096 1.551319930329058 0 1.659003782088483 0.1623730388767822 0 0 0.2621606386050742 0 0 1.672639994641345 0.2926668629759939 0 1:-0.0227359 2:0.0948649 3:-0.407828 4:-0.15423 5:-0.140503 6:0.589941 7:-0.154105 8:0.439021 9:0.178918 10:0.0783842 11:-0.00996314 12:-0.00831715 13:0.0973824 14:0.177969 15:0.531384 16:-0.0342573 17:-0.185701 18:0.151124 19:0.041196 20:0.030848 21:0.440632 22:0.117664 23:0.463136 24:0.407624 25:0.392245 26:0.411115 27:0.251145 28:-0.412556 29:-0.475263 30:-0.270264 31:-0.609222 32:-0.0017126 33:-0.271892 34:0.158266 35:0.188209 36:0.159902 37:-0.413503 38:0.0122563 39:-0.404675 40:-0.747948 
-0 8 0 0 0 0 0 0 3.221370390883249 0 0 1.216491940590323 0 1.377912763975822 0 0.1912767407814688 0 0 0 2.979558912777371 1.810802456980056 0.2077167954592316 3.50851062261107 1:-0.401598 2:0.0764215 3:0.396874 4:-0.325665 5:0.28106 6:-0.573378 7:0.237851 8:-0.475532 9:0.657669 10:-0.0942671 11:0.392858 12:0.142288 13:0.270982 14:0.630934 15:0.156494 16:0.395628 17:-0.362454 18:0.358967 19:-0.171314 20:0.478031 21:0.280683 22:0.261603 23:0.453004 24:0.265799 25:0.670492 26:0.34255 27:0.504301 28:0.140179 29:0.443806 30:0.647718 31:0.30524 32:0.219453 33:0.349165 34:0.510936 35:0.415247 36:0.135406 37:-0.185451 38:-0.16073 39:-0.144487 40:-0.00132941 
-1.775268287514836 0 0 0 1.17395065213824 1.073148106764824 2.05534175373676 1.392900083539379 0.8619046091190955 0.1334430119010172 0 0 2.281106308280739 2.139922349955365 0 0 0 0.4640654820957026 2.191131654739396 0.05580665315832455 1.084221895791314 0 1.075052377696398 1:-0.396063 2:0.345283 3:-0.0361559 4:-0.0854048 5:-0.172826 6:0.383155 7:-0.356778 8:0.22151 9:-0.37638 10:0.388309 11:0.328855 12:0.31719 13:-0.272975 14:-0.620597 15:0.0831063 16:0.168693 17:0.0746266 18:0.186108 19:0.259177 20:-0.0706193 21:0.0463014 22:-0.132298 23:0.195856 24:0.211822 25:0.324691 26:-0.0377245 27:-0.07706 28:-0.279504 29:-0.356515 30:0.0751914 31:-0.200117 32:0.459543 33:-0.100669 34:0.068236 35:-0.331213 36:-0.126552 37:-0.227522 38:-0.00724689 39:-0.186534 40:0.0196212 
-3.588540675115111 2.53216456837828 1.330460831603061 4.986670289465471 0 0.1268261448982506 0 0 2.813697058751555 0.7312061932293927 0.4630054978408089 0 2.106477607447305 1.190254749443193 0.9340230005285391 0 0 0 0 0.7335938247011671 0 0 0 1:0.25847 2:0.358811 3:-0.432077 4:0.268679 5:0.146332 6:0.533304 7:0.0710986 8:-0.11208 9:0.188887 10:0.0278217 11:0.77132 12:0.41699 13:0.517065 14:-0.0321124 15:0.532487 16:0.0432071 17:-0.310783 18:0.172731 19:-0.191549 20:-0.0305936 21:-0.25579 22:0.359376 23:0.369651 24:0.249678 25:0.223729 26:0.00547898 27:0.250094 28:-0.406295 29:0.0955455 30:-0.167084 31:-0.163362 32:0.181894 33:0.252133 34:0.200641 35:-0.197397 36:0.129293 37:-0.413201 38:0.201184 39:-0.497031 40:-0.289585 
-3.093221592936003 2.606524849738583 3.288813513061691 2.099616549535046 0 0 2.673840532781084 1.613824148206705 4.461362369810156 0 0.8917850885386776 4.06631045099518 7.409263459116502 4.058349729755808 0 4.443882722284454 0 0.4989057131211564 0.7074250175025112 1.720857190584058 7.339739210482022 0 1.024790353316934 1:-0.284991 2:-0.03887 3:0.32598 4:-0.0175251 5:0.274015 6:-0.296253 7:0.321693 8:-0.201122 9:0.573684 10:-0.396279 11:0.263131 12:0.493644 13:0.904784 14:0.281127 15:0.338626 16:0.359924 17:-0.330756 18:0.324609 19:-0.467053 20:0.58573 21:0.141615 22:0.163482 23:0.279197 24:0.0628848 25:0.531484 26:0.158857 27:0.240084 28:-0.196233 29:0.0039798 30:-0.0596858 31:0.0880584 32:0.212346 33:0.307241 34:0.144343 35:-0.281417 36:-0.0458004 37:-0.317813 38:-0.31848 39:-0.470838 40:-0.184122 
-0.3481339220321771 0 1.601755817767351 2.009009547078388 0 3.084682339603035 8 2.041847594077264 3.596019154630386 0 2.565141097162351 0.6900866024846619 3.539308151826947 0 0.9322659343934425 8 1.131390846252649 0 1.247790737837141 0 7.845349264973609 0.39463199146916 0.2842318484466232 1:-0.279049 2:0.060864 3:0.287921 4:-0.487161 5:-0.250035 6:-0.628022 7:0.258151 8:-0.471096 9:0.148271 10:0.00344794 11:-0.211115 12:-0.0901482 13:0.281971 14:-0.426037 15:0.084704 16:0.222776 17:-0.117749 18:-0.0456511 19:0.0143756 20:0.247655 21:-0.621292 22:0.3389 23:-0.34705 24:-0.0129037 25:0.0943029 26:-0.511367 27:0.282859 28:-0.306597 29:0.140857 30:0.327985 31:0.463372 32:0.242997 33:0.32085 34:-0.18879 35:-0.496725 36:-0.207426 37:-0.513116 38:-0.180739 39:-0.241947 40:0.0398342 
-1.281383525875606 1.429800629606947 0 0.1458234637426708 0.7433382848722397 2.036011110039938 0.9635408567298956 0 1.044162511628975 2.205156298492962 0 0 0.9912095633481771 2.719944011773911 1.013535285216907 0.7199683385161496 0 0.9388167171978655 0.1228876626081117 0.7076523903085483 0.8738868569554084 0 1.379698593461475 1:-0.300635 2:0.401755 3:-0.329097 4:-0.228007 5:-0.513251 6:0.711965 7:-0.401365 8:0.490561 9:-0.139873 10:0.315642 11:-0.0162728 12:-0.180764 13:-0.0481071 14:0.722939 15:0.171545 16:-0.199774 17:0.0737121 18:0.204464 19:0.188767 20:0.0602826 21:0.514751 22:-0.064956 23:0.54993 24:0.0543263 25:0.151398 26:0.59659 27:0.353931 28:0.147806 29:0.175148 30:0.511414 31:-0.17897 32:0.398449 33:0.10407 34:0.279041 35:-0.339852 36:0.11984 37:-0.188384 38:0.148146 39:-0.443015 40:-0.372743 
-6.725153438702819 2.796333699233023 1.553214176751413 2.900674658732034 2.234130143907363 0 0 0 2.45817193523895 0 3.800913091281411 2.457263070173767 0.456571869724623 2.998045545617644 1.489468166065705 0 5.030868905226357 0.7700609199953068 1.252695650275121 2.27308836526427 3.403239142802163 1.813615840706754 3.664527849799487 1:0.187256 2:0.454529 3:0.0324224 4:-0.76209 5:0.367152 6:-0.00616008 7:0.647585 8:-0.218615 9:0.557279 10:-0.215398 11:-0.0533617 12:0.291532 13:-0.44852 14:0.065298 15:0.0993058 16:0.201678 17:-0.281244 18:-0.527195 19:-0.414966 20:-0.295669 21:-0.401005 22:-0.661029 23:-0.674026 24:-0.453923 25:-0.615783 26:-0.423272 27:-0.364882 28:-0.151725 29:0.0827193 30:-0.0140739 31:0.157809 32:0.35897 33:0.286958 34:0.301275 35:0.414609 36:-0.174699 37:0.13316 38:-0.0173555 39:0.146056 40:0.103458 
-0 0 0.1808733120480615 0 0 0 1.168067365168788 0 0 0.3899434981764193 0 4.290867994814339 0 0 0 0.7335961592951873 0 0 0 0 5.790936004702786 0 1.718088653647632 1:-0.47642 2:0.172547 3:0.536468 4:-0.389683 5:0.368984 6:-0.596929 7:0.17753 8:-0.326234 9:0.647812 10:-0.136727 11:0.456579 12:0.11357 13:0.324652 14:0.713956 15:-0.0252488 16:0.48324 17:-0.240614 18:0.353574 19:-0.143575 20:0.348743 21:0.190341 22:0.546595 23:0.531037 24:-0.15371 25:0.368258 26:0.0226375 27:0.437533 28:0.186055 29:0.0982384 30:0.412517 31:-0.0171873 32:0.0502353 33:0.313097 34:0.245069 35:0.205945 36:-0.0349599 37:-0.241182 38:-0.141308 39:-0.16689 40:-0.0720863 
-5.164372405346574 2.191819331527184 0 2.070759967284987 0 2.457191779190949 3.137731406150807 4.672355757696563 0.4484968513266774 2.296972459579518 0 0 7.496018355433586 4.142255641355209 0.4932626795601448 0 0 0 0 0 5.652636237167898 0 0 1:-0.419213 2:0.330874 3:0.14778 4:-0.350141 5:0.0127556 6:-0.245029 7:0.316663 8:-0.139271 9:0.502618 10:0.0512728 11:0.503615 12:0.148711 13:0.490781 14:0.282268 15:0.284042 16:0.287756 17:-0.283801 18:0.247401 19:-0.0939212 20:0.547744 21:0.159416 22:0.458859 23:0.28442 24:0.140054 25:0.32859 26:0.0865444 27:0.423282 28:-0.0611736 29:0.50808 30:0.49926 31:0.207551 32:0.0822921 33:-0.11058 34:0.085877 35:0.276813 36:0.199927 37:-0.153824 38:0.0965048 39:-0.0482059 40:0.203358 
-0 0 0 0 0 0 0 0 0 0 0 0 7.178310240570219 0 0 1.4049793065846 0 0 0 0 0 0 0 1:-0.456544 2:0.135454 3:0.493413 4:-0.489781 5:0.421602 6:-0.468322 7:0.156805 8:-0.475099 9:0.637924 10:-0.109082 11:0.411507 12:0.217542 13:0.54517 14:0.641387 15:0.00989329 16:0.601986 17:-0.262845 18:0.337904 19:-0.136061 20:0.403879 21:0.115564 22:0.339086 23:0.442856 24:-0.0276405 25:0.450739 26:0.107749 27:0.388316 28:0.0142906 29:0.218539 30:0.488184 31:0.171072 32:0.156652 33:-0.0233036 34:0.0464828 35:0.147516 36:-0.131207 37:-0.307963 38:-0.221048 39:-0.370844 40:0.136028 
-0 0 0 0 0.1989628861081082 1.724895701369187 0 0 0 0 0 0 0 0 0 0 0 0 0 0 0 0 0 1:-0.169479 2:0.237122 3:0.29962 4:-0.820252 5:0.414932 6:-0.0386662 7:0.737362 8:-0.361436 9:0.399646 10:-0.0894195 11:-0.0428366 12:0.211897 13:-0.294141 14:0.011204 15:0.173517 16:0.0236047 17:-0.456517 18:-0.250178 19:-0.502149 20:-0.215447 21:-0.513617 22:-0.499978 23:-0.70546 24:-0.642088 25:-0.604674 26:-0.512654 27:0.0472426 28:-0.312797 29:0.115959 30:0.152574 31:0.250106 32:0.288442 33:0.232933 34:0.235938 35:-0.129507 36:-0.0914 37:-0.0669004 38:-0.145245 39:0.125258 40:0.0996683 
-0 0 0 0 0.2304893388855217 0 0 1.35437209536058 0 0.4068179484011736 0 0 0 0 1.84117698806964 0 0.7259032940551617 0 0 0 0 0.1624707597144352 0.3432181485141869 1:-0.47477 2:0.22275 3:-0.712576 4:-0.367022 5:-0.577283 6:0.377202 7:-0.394638 8:-0.262024 9:0.222439 10:-0.503789 11:0.305779 12:-0.337149 13:-0.372518 14:-0.295522 15:0.0781542 16:-0.465816 17:0.0217904 18:0.0343526 19:-0.164105 20:-0.106712 21:-0.463402 22:0.283861 23:-0.319808 24:0.218661 25:-0.396421 26:-0.337182 27:-0.0156621 28:-0.0416053 29:0.413344 30:0.501064 31:0.712744 32:0.220001 33:0.10469 34:-0.150445 35:0.0525183 36:-0.294529 37:0.0603731 38:-0.150459 39:-0.0507784 40:-0.211239 
-0.8032450677804874 4.135712474096843 1.98121633103768 0 5.057120297035858 0 7.870409720175445 0 0 0 1.070142943167185 3.275491066675227 0 2.825632028019244 3.603091361575076 0 2.913969643658076 0 0 1.017303328279401 2.777724202888805 0 3.040306904035216 1:0.37928 2:0.230034 3:0.0118839 4:-0.366987 5:0.225086 6:0.281335 7:0.462649 8:0.0465205 9:0.569945 10:-0.29363 11:0.575258 12:0.0820834 13:0.106594 14:0.00888601 15:0.157264 16:0.259016 17:-0.55211 18:0.151298 19:-0.378079 20:-0.102579 21:-0.45552 22:-0.3532 23:-0.547311 24:-0.609845 25:-0.251733 26:-0.290001 27:0.0646985 28:-0.236394 29:0.144739 30:0.0849977 31:0.0840627 32:0.154333 33:0.315696 34:0.336505 35:0.212963 36:0.15141 37:0.0416927 38:0.157393 39:0.0311835 40:0.239543 
-3.466204290759356 4.585229524762874 0.6321218248614763 1.301244708901965 2.723837361639587 4.27956814779925 6.362701082750847 2.682649871373733 0.4652608908837619 3.365486850264155 0.7459606491347178 2.347477820478065 4.68036376960815 4.023506796882512 0 1.22031396074908 4.87685909554892 0 0 0 0 0 2.453093934679153 1:0.00146546 2:-0.026547 3:0.0945494 4:-0.76305 5:-0.124253 6:-0.206507 7:-0.0505912 8:-0.483155 9:0.0191333 10:0.0570394 11:0.0359535 12:-0.157235 13:-0.153202 14:-0.353002 15:0.221217 16:-0.132191 17:-0.123428 18:0.390972 19:0.178494 20:-0.0615967 21:-0.362147 22:0.119755 23:0.0656208 24:0.324234 25:0.0460518 26:-0.194453 27:0.187726 28:0.000829508 29:-0.182566 30:0.0790065 31:0.0833551 32:0.139697 33:-0.158866 34:-0.193312 35:0.294887 36:-0.191814 37:-0.144199 38:-0.546233 39:-0.264192 40:-0.00327102 
-0 0 0 0 0 0 0 0 0.9087580447761608 1.040279756712865 0.4947437883362234 0 0 0 4.20174580365039 0 0 0 0 0 0 0 0 1:0.0769999 2:-0.051884 3:-0.483318 4:-0.620663 5:-0.196366 6:0.449085 7:-0.0151101 8:-0.461371 9:0.299074 10:-0.627876 11:0.521429 12:-0.174911 13:-0.314477 14:0.269911 15:-0.26746 16:0.278859 17:0.183136 18:0.16642 19:0.15783 20:-0.0764397 21:-0.288276 22:0.108732 23:-0.402838 24:0.20214 25:0.0643671 26:-0.382962 27:0.204815 28:0.238647 29:0.220822 30:0.163963 31:0.333834 32:0.219137 33:-0.167223 34:-0.264331 35:-0.11617 36:-0.187697 37:-0.217144 38:-0.490498 39:-0.157849 40:-0.564806 
-0 0 0 0 0 0 1.703201391205316 4.282312687284115 0 0 0 0 3.51871294935835 0 0 0 0 0 0 0 0 0 1.202939328250905 1:0.00402352 2:0.498404 3:0.0466227 4:-0.656746 5:0.29185 6:-0.0170412 7:0.686582 8:-0.263588 9:0.374957 10:-0.124317 11:0.124255 12:0.242813 13:-0.377002 14:0.0182349 15:0.137181 16:0.144145 17:-0.468021 18:-0.395402 19:-0.294134 20:-0.282727 21:-0.338619 22:-0.528434 23:-0.644433 24:-0.560073 25:-0.516855 26:-0.35412 27:-0.358618 28:-0.141032 29:0.0230014 30:0.136389 31:0.16975 32:0.299737 33:0.295106 34:0.218463 35:0.310016 36:-0.297898 37:0.0752509 38:-0.0181973 39:0.181446 40:-0.0778923 
-0 2.845629975620107 0 0 0 0.2568828947413094 0 0 0 0 0 1.463924277829737 2.238663784932935 0 1.732075460284092 0 2.454821383917407 0 0 1.1631596061228 0.06159329480437942 0 0 1:-0.11757 2:-0.0886411 3:0.126251 4:-0.755879 5:0.168617 6:-0.0261496 7:0.0682975 8:-0.210704 9:0.35803 10:-0.124588 11:0.26141 12:-0.291991 13:0.192559 14:0.454069 15:0.090673 16:0.0128539 17:-0.241259 18:0.46771 19:-0.0839733 20:0.335113 21:0.351891 22:0.333913 23:0.40727 24:0.207884 25:0.204976 26:0.525846 27:0.610676 28:0.0732577 29:0.291447 30:0.486691 31:0.0604287 32:0.290662 33:0.577509 34:-0.0402592 35:0.274651 36:-0.00932987 37:0.0107091 38:0.121299 39:-0.3889 40:-0.218599 
-0.006067537778817605 0 0 0 2.2081330722954 0 0.9171271917555338 0.3914403810289884 1.583114521465289 0 1.19724399225474 3.954111763211514 0 0 0 0 0.1455676342950787 0.152217282652872 0 1.012782858661564 1.815265021723941 1.032098805492448 1.223592583924093 1:0.148831 2:0.116428 3:-0.0785884 4:-0.313985 5:0.426667 6:0.408302 7:0.628641 8:0.027381 9:0.724827 10:-0.255469 11:0.129873 12:0.0685403 13:0.126984 14:-0.0728123 15:0.0700753 16:0.38969 17:-0.634318 18:-0.0099624 19:-0.263558 20:-0.275659 21:-0.472442 22:-0.317015 23:-0.265256 24:-0.630153 25:-0.369124 26:-0.202254 27:0.149489 28:-0.176248 29:-0.308089 30:0.308309 31:0.0201318 32:0.101473 33:0.446909 34:0.272482 35:0.405468 36:-0.00473994 37:0.0899845 38:-0.149991 39:0.223456 40:0.141203 
-1.655076145714316 0 0.5122574939282055 0 1.023830267612664 0 1.433424840407049 0 0 0 0 0.6303886764935621 0.004263238754483476 0 0.9372470791554576 0.4065873450636353 0 0 1.095094264099083 0 0 0.9830944192359583 0 1:-0.312949 2:0.642138 3:-0.100802 4:-0.388031 5:0.112831 6:0.319197 7:0.564456 8:0.268367 9:-0.0364008 10:0.0715986 11:0.33139 12:-0.0477281 13:-0.209291 14:-0.0285949 15:0.192352 16:0.315275 17:-0.339607 18:-0.319892 19:-0.100777 20:-0.231934 21:-0.244157 22:-0.725287 23:-0.555788 24:-0.789213 25:-0.573473 26:-0.432955 27:-0.199624 28:-0.00281263 29:0.0473206 30:0.175674 31:-0.102034 32:0.420148 33:0.285265 34:0.330336 35:0.277144 36:0.0997555 37:0.053924 38:0.235362 39:0.185285 40:0.201251 
-0 0 0 0 0 0 0 0 0 0 0 0.5989971412090247 0 0 0 0 0 0 0 0 0 0 0 1:-0.0158413 2:0.0136003 3:0.0583512 4:-0.465689 5:0.202395 6:0.177035 7:0.150491 8:0.0638652 9:0.365649 10:-0.0428835 11:0.380957 12:-0.28371 13:0.245954 14:0.335301 15:0.179178 16:-0.109607 17:-0.267818 18:0.346971 19:-0.133672 20:0.186167 21:0.0180597 22:0.226732 23:0.219272 24:0.108858 25:0.0837934 26:0.319546 27:0.228463 28:-0.216182 29:-0.0676727 30:-0.0295644 31:-0.211465 32:-0.14453 33:0.206121 34:-0.056611 35:0.00867428 36:-0.213068 37:-0.104462 38:0.0037959 39:-0.361787 40:-0.450478 
-0 0.9266835064996065 0 0 0 1.43214769471641 0 2.823244479583629 2.770377753098487 2.700614832015159 0.6378672339985575 1.042386310993938 1.284868637437749 2.373281196786701 0 0 2.979104349522759 1.308411779081214 0 3.307399846465721 8 0 0 1:-0.116268 2:0.0605163 3:0.100275 4:-0.698585 5:-0.147675 6:-0.186191 7:-0.24468 8:-0.227215 9:0.0097192 10:0.033246 11:0.181083 12:-0.0921132 13:-0.345923 14:-0.568809 15:0.324865 16:0.0159977 17:0.0312421 18:0.0655807 19:-0.0676731 20:0.0655579 21:-0.0430758 22:0.164771 23:0.100399 24:0.481859 25:0.222358 26:0.00612834 27:0.0134436 28:-0.0632895 29:0.0100959 30:0.197586 31:-0.079909 32:0.130258 33:0.136831 34:0.0628318 35:0.258191 36:-0.251069 37:0.149184 38:-0.262289 39:-0.320879 40:-0.3391 
-4.780245045142461 1.012950185542101 0 2.899080015483258 4.03655190970097 3.158507414753605 1.473468662603757 6.011744578758261 6.46183464868441 5.060872185306851 8 1.492055261471398 1.786758198472346 3.948310089537788 4.163716455948737 2.815962272123854 3.330459483519234 7.505637622636333 1.450170676312668 7.306695271992187 6.979595879033552 1.906448432816531 6.329431434721647 1:0.232485 2:-0.791988 3:0.0444014 4:-0.106409 5:0.314585 6:0.433748 7:-0.0979761 8:0.305846 9:0.42649 10:0.250227 11:-0.400898 12:-0.152097 13:0.299313 14:0.0371042 15:-0.414684 16:0.478576 17:1 18:0.203964 19:0.148025 20:0.175547 21:0.0939886 22:0.0912749 23:-0.271135 24:0.429241 25:-0.224379 26:-0.0723894 27:-0.228731 28:-0.0429516 29:0.254636 30:0.160337 31:0.298911 32:-0.0270109 33:0.279507 34:-0.479055 35:-0.055016 36:-0.292873 37:-0.558528 38:-0.312777 39:-0.3344 40:-0.075116 
-1.132425701003496 3.310281288769462 0 0 0.2058122407659403 0 0 0 0 0 0.3330948171991219 0.9901133784022018 0 1.76221589087644 0 0 2.221369025174376 0 0 2.130174774093481 0 0 0.7697093259724188 1:0.238844 2:-0.0498602 3:-0.182933 4:-0.392606 5:0.454435 6:0.0894326 7:-0.0524698 8:-0.385178 9:0.119104 10:0.33037 11:0.408024 12:0.0825074 13:-0.268604 14:-0.501596 15:0.595341 16:0.310898 17:0.125116 18:0.160755 19:-0.245138 20:0.0254897 21:-0.0801763 22:-0.125386 23:-0.0393432 24:0.504351 25:0.340016 26:0.229623 27:-0.143644 28:-0.615813 29:-0.305689 30:-0.0875658 31:-0.46544 32:-0.115178 33:0.210311 34:0.223685 35:0.289763 36:-0.396871 37:-0.264509 38:-0.529683 39:-0.287179 40:-0.427748 
-0.009318908004282256 0 0.006793485057282733 0 0 0.005367896081453006 0 0 0 0 0.01147760429123488 0 0 0 0.007136245328868169 0 0 0 0 0 0.00282167202506872 0.02848709632104016 0 1:-0.371378 2:0.151804 3:0.46195 4:-0.68951 5:0.477743 6:-0.573522 7:0.360776 8:-0.433836 9:0.794061 10:-0.167024 11:0.283917 12:0.32476 13:0.197197 14:0.768636 15:-0.0570551 16:0.611618 17:-0.16892 18:0.0523201 19:-0.281201 20:0.34216 21:0.306423 22:0.33801 23:0.357746 24:-0.0885867 25:0.0993508 26:0.00803393 27:0.40062 28:0.113181 29:0.362323 30:0.385331 31:0.400852 32:0.271301 33:0.0452358 34:-0.117597 35:-0.222441 36:0.148235 37:-0.182857 38:-0.116587 39:-0.224121 40:0.112029 
-0 0 0 0 0 0 0 0 0 0 0 0 0 0 0 0 0 0.3429615754605312 0 0 0 0.5192798463423355 0 1:0.0955462 2:0.241251 3:0.202385 4:-0.709 5:0.388919 6:0.367695 7:0.822661 8:-0.0962284 9:0.529555 10:-0.0547845 11:0.0786538 12:0.250453 13:-0.169441 14:-0.033514 15:0.442867 16:0.299742 17:-0.373366 18:-0.110903 19:-0.424212 20:-0.155035 21:-0.426709 22:-0.555541 23:-0.64024 24:-0.481059 25:-0.227555 26:-0.29007 27:-0.082547 28:-0.16084 29:0.0567098 30:-0.133935 31:-0.0878832 32:0.397175 33:0.379288 34:0.336712 35:0.575645 36:0.334031 37:0.144179 38:0.198049 39:0.374248 40:-0.0573982 
-0 0 0 0 0 0 0 0 0 0 0 0 0.8552799712617766 0 0 1.328730864943856 0 0 0 0 0 0 0 1:-0.226057 2:0.0446038 3:0.166032 4:-0.642304 5:-0.00149181 6:-0.150772 7:-0.104177 8:-0.354299 9:-0.285979 10:-0.13267 11:0.223593 12:0.040271 13:-0.203016 14:-0.513011 15:0.134963 16:0.205346 17:0.102385 18:0.191694 19:0.100115 20:0.055419 21:-0.340011 22:-0.106416 23:0.13639 24:0.295614 25:0.250381 26:0.0459149 27:-0.0540525 28:-0.261258 29:-0.122455 30:0.0636799 31:-0.0144067 32:0.372614 33:0.0970568 34:-0.0378756 35:0.0372817 36:-0.359601 37:-0.364171 38:-0.416522 39:-0.315843 40:-0.253834 
-0 0 0 0 0 0 0 0 0 0 0 0 0.07839769990783128 0 0 0.02738312466119504 0.05201034207314517 0 0 0 0 0 0 1:-0.0258635 2:-0.086033 3:0.13278 4:-0.754165 5:-0.0247884 6:-0.178186 7:0.0265769 8:-0.449352 9:0.0205555 10:-0.0136478 11:0.196296 12:-0.0140255 13:-0.289829 14:-0.423248 15:0.198247 16:0.0418829 17:0.108172 18:0.228427 19:-0.0511085 20:0.134901 21:-0.218353 22:0.0586517 23:-0.0201435 24:0.369278 25:0.29334 26:0.0456965 27:0.043741 28:-0.344462 29:-0.172456 30:0.195765 31:0.166619 32:0.243299 33:-0.157656 34:-0.340979 35:0.121778 36:-0.161709 37:-0.021396 38:-0.316412 39:-0.401431 40:-0.552156 
-0 1.579215248112547 0 0 0 0 0 0 0 3.541316854771055 0 0 0 0 0 0 0 0.5053425640997676 0 0 0.4616220667431176 0 0 1:-0.285458 2:0.263847 3:0.116463 4:-0.0480099 5:-0.0496428 6:0.349789 7:-0.207897 8:0.139341 9:-0.101175 10:0.260312 11:0.567461 12:0.249037 13:-0.206569 14:-0.583034 15:0.285352 16:0.210938 17:0.0835334 18:0.123065 19:0.230127 20:-0.11083 21:-0.0607277 22:-0.210452 23:0.137053 24:0.280562 25:0.287818 26:0.0153429 27:-0.104708 28:-0.414293 29:-0.385403 30:-0.0479031 31:-0.212449 32:0.442972 33:-0.110026 34:0.0425537 35:-0.0871147 36:-0.192938 37:-0.349188 38:-0.124938 39:-0.250858 40:-0.144682 
-2.081232270511458 0 2.073176887207278 4.063451011215978 2.227682889530122 0 0 1.118479725192982 0.6167175267756001 2.367167528755631 1.131057807713411 0 0 0 0 0 4.138166256732329 0.5352525745725712 2.202561887119078 1.859485779180278 0.3830167642156474 2.899402756195 0 1:-0.0574845 2:-0.0498444 3:0.226032 4:-0.803012 5:0.0307613 6:-0.353713 7:-0.217535 8:-0.406381 9:-0.0298186 10:-0.138389 11:0.183352 12:0.021543 13:-0.366583 14:-0.664796 15:-0.0234181 16:0.0315397 17:0.105574 18:0.110586 19:0.0400454 20:0.189148 21:-0.243518 22:0.00535574 23:-0.0668685 24:0.315692 25:0.178118 26:-0.163467 27:-0.153053 28:-0.269904 29:-0.0119983 30:0.0127153 31:-0.240568 32:0.205921 33:-0.0363987 34:-0.318655 35:-0.0260276 36:-0.293872 37:0.0256809 38:-0.330929 39:-0.176507 40:-0.139322 
-3.012569433938603 0 0 0 0 0 0 0 0 0 0 0 0 1.805987264881695 0 1.288686818771341 0 2.105777508889627 0 0 0 0.4630212925800148 0 1:0.00110888 2:0.26475 3:0.19064 4:-0.966234 5:0.545326 6:-0.136984 7:0.524439 8:-0.126501 9:0.528809 10:-0.176944 11:0.211002 12:0.343186 13:-0.18739 14:-0.0928582 15:0.118033 16:0.196536 17:-0.647536 18:-0.42304 19:-0.598335 20:-0.203195 21:-0.482963 22:-0.590516 23:-0.688738 24:-0.61538 25:-0.488619 26:-0.589572 27:-0.207529 28:-0.326377 29:0.139467 30:0.0796017 31:0.0618692 32:0.215904 33:0.329909 34:0.274851 35:0.112141 36:0.056928 37:0.0318281 38:0.153503 39:0.260403 40:0.226871 
-0 0.9744303196393267 0 0 0 0 0 0 0 0 0 0 0 0 0 0 0 0 0 0 0 0 0 1:-0.11517 2:0.436237 3:0.248455 4:-1 5:0.483096 6:0.092331 7:0.658944 8:-0.234771 9:0.409886 10:-0.17299 11:0.0353112 12:0.250457 13:-0.430257 14:0.1437 15:0.250936 16:0.166854 17:-0.55159 18:-0.445792 19:-0.413992 20:-0.491707 21:-0.458899 22:-0.574242 23:-0.753305 24:-0.500643 25:-0.423877 26:-0.301581 27:-0.273524 28:-0.264781 29:0.0282541 30:-0.0920699 31:-0.113557 32:0.236669 33:0.428569 34:0.242778 35:0.35919 36:0.037137 37:0.106321 38:0.0651955 39:0.0942411 40:0.0861522 
-3.75938096447649 0.8004355552002669 1.02064035951739 8 3.993171560190433 1.278276874529119 3.168502116033736 2.229235370827746 1.380171056596256 0.8253839206342957 4.52106722351582 2.040885629127823 0 0.7205181763200657 0.9703045140823112 2.10125707326467 2.174495895192901 1.761488092947523 1.554745397890268 0.7429391021948554 0.6174272123009318 2.194186934411903 2.840928113778166 1:0.324567 2:-0.313989 3:-0.245411 4:-0.0436699 5:-0.121979 6:-0.889595 7:-0.00122895 8:-0.496356 9:0.126121 10:-0.244584 11:-0.670232 12:-0.260225 13:-0.345703 14:-0.279832 15:-0.0660245 16:-0.158167 17:0.447892 18:-0.453137 19:-0.054244 20:-0.0960162 21:-0.861718 22:0.223956 23:-0.555525 24:0.0166277 25:-0.444001 26:-0.542687 27:-0.0540991 28:-0.227442 29:0.248277 30:-0.0318803 31:0.00278631 32:-0.0248613 33:0.279642 34:-0.242908 35:-0.428671 36:-0.398006 37:-0.495002 38:-0.602425 39:-0.1938 40:-0.27579 
-0 2.553255407753646 0 0 0 1.621118515439045 0 0 0 1.464446353194792 0 0 0 0 0 1.637916420158544 0 0 0 0 0 0 0 1:-0.341787 2:0.0313242 3:-0.316889 4:-0.421208 5:-0.148641 6:0.353621 7:-0.18413 8:-0.43507 9:0.440006 10:-0.352797 11:0.445569 12:-0.0487326 13:-0.244992 14:0.286652 15:-0.129138 16:-0.140968 17:0.115127 18:0.405226 19:-0.0828339 20:0.017268 21:-0.350857 22:0.135086 23:-0.205041 24:0.0845109 25:-0.115543 26:-0.460584 27:0.225121 28:0.0879069 29:0.501777 30:0.434249 31:0.618147 32:0.352111 33:-0.0440357 34:-0.108574 35:-0.27734 36:-0.0116434 37:-0.00082078 38:-0.134758 39:-0.187163 40:-0.216382 
-0 2.835109862921532 1.336984642677782 0 1.996092116278439 0 2.353059512895247 0 0.2311700496423645 0 0 0 0 0.8883427756443754 0 1.124590530600659 0.2534728438146799 0 0.4365730080623522 0 0 0.6857766442058663 0.4452608854307001 1:-0.229972 2:0.510009 3:0.168141 4:-0.921934 5:0.423385 6:-0.176058 7:0.659925 8:-0.365633 9:0.434248 10:-0.0276195 11:0.0363202 12:0.364215 13:-0.491684 14:-0.0694166 15:0.0844401 16:-0.251817 17:-0.534512 18:-0.444821 19:-0.542564 20:-0.0738263 21:-0.44079 22:-0.410184 23:-0.521467 24:-0.713189 25:-0.450214 26:-0.546727 27:-0.354782 28:-0.176387 29:0.0433251 30:-0.0289876 31:0.114974 32:0.40095 33:0.346237 34:0.221655 35:0.109661 36:-0.0864593 37:-0.0233402 38:-0.135683 39:0.136357 40:0.208477 
-3.633529908819167 7.785657157555876 2.018607347317149 0 1.855383757465793 4.304440863152152 4.056028731768447 2.319737144097892 2.409618975939325 4.335853677332326 2.129795028545227 0 0.2306187054972156 2.149841471786924 1.415482655594612 3.527194268457727 0 0.6997158861034621 1.414161162916241 3.117334464261453 1.555472724770609 2.867102112078938 6.437509956513832 1:-0.371378 2:0.151804 3:0.46195 4:-0.68951 5:0.477743 6:-0.573522 7:0.360776 8:-0.433836 9:0.794061 10:-0.167024 11:0.283917 12:0.32476 13:0.197197 14:0.768636 15:-0.0570551 16:0.611618 17:-0.16892 18:0.0523201 19:-0.281201 20:0.34216 21:0.306423 22:0.33801 23:0.357746 24:-0.0885867 25:0.0993508 26:0.00803393 27:0.40062 28:0.113181 29:0.362323 30:0.385331 31:0.400852 32:0.271301 33:0.0452358 34:-0.117597 35:-0.222441 36:0.148235 37:-0.182857 38:-0.116587 39:-0.224121 40:0.112029 
-0.9286593652844901 1.063392860555579 0.4688429182643695 1.136647009585068 0 1.417165398136498 1.499214721154569 0.9511064487364795 0 2.072806199718167 0.6418522354721257 0 2.57345467011171 0.900010472002811 3.043546926148114 5.951257293050287 0.6982064869017864 2.154282294245179 1.07144218170717 0.1246526655412135 0.2287904058726073 0.5497341048631921 8 1:-0.0609268 2:-0.714471 3:-0.4007 4:-0.29054 5:0.811278 6:0.293118 7:0.894937 8:-0.63531 9:0.573488 10:0.0549964 11:0.498514 12:0.28881 13:-0.298482 14:0.280969 15:0.653773 16:0.633687 17:-0.830347 18:0.0884036 19:0.173095 20:0.261377 21:-0.128693 22:-0.142288 23:-0.46561 24:-0.309717 25:-0.0558209 26:-0.507539 27:-0.229244 28:-0.458063 29:0.641387 30:0.349476 31:0.673464 32:0.330483 33:-0.554889 34:0.121849 35:-0.222835 36:-0.186555 37:-0.296045 38:-0.046148 39:-0.430026 40:0.239087 
-0 0 0 0 0 0 0 0 0 0 0 0.4974493626725072 0 0 0 0 0 0 0 0 0 0 0 1:-0.308701 2:0.167546 3:0.0313524 4:-0.421485 5:-0.194273 6:-0.0118012 7:-0.266102 8:-0.29725 9:-0.333164 10:-0.00666945 11:0.241928 12:-0.108539 13:-0.148807 14:-0.523686 15:0.212334 16:0.0558226 17:0.228258 18:0.157242 19:0.0390722 20:0.0581322 21:-0.301021 22:-0.176794 23:-0.0257286 24:0.237668 25:0.122198 26:0.0965828 27:-0.0366248 28:-0.233688 29:-0.266105 30:0.0703785 31:-0.00995148 32:0.42478 33:0.198439 34:-0.208182 35:-0.0413505 36:-0.488643 37:-0.323803 38:-0.538679 39:-0.265316 40:-0.194632 
-5.758432552413025 -4.471976773472331 4.118481930006207 6.200153788250188 3.523402632101639 3.86901757661571 3.112876941314206 7.269798394200498 6.354762013723047 6.401506507621301 2.822645820736553 4.642527393561855 3.011327835369754 4.823621509862313 1.837297696223963 1.259651592013285 4.388997127261367 1.314329514646577 0.9235777339420523 8 4.22938047439808 2.614174760085407 6.325407505183152 1:0.247641 2:-0.108345 3:0.122515 4:-0.267269 5:0.440594 6:0.153273 7:0.206914 8:-0.394157 9:0.245483 10:0.0477171 11:0.266605 12:0.360519 13:-0.293617 14:-0.318315 15:0.249722 16:0.0323862 17:-0.143769 18:0.0995085 19:-0.00426969 20:0.0579653 21:0.109502 22:0.465135 23:0.374585 24:0.444443 25:0.569082 26:0.202213 27:-0.271007 28:-0.618475 29:-0.376556 30:-0.21023 31:0.0481221 32:0.401385 33:0.1155 34:0.370096 35:0.223219 36:-0.358516 37:-0.376975 38:-0.37046 39:-0.0738509 40:0.154733 
-3.794887178597142 -1.804006893791875 2.229195201813755 2.36620318262234 0 2.291657503847762 1.071760054730517 3.06126923413393 1.254912663731545 0 1.476070263753533 3.716372482892667 4.153029245790614 0 0 1.85697515077995 1.838131170442916 0.3370597937686959 1.617255048618513 3.24457687758195 3.825949854296315 1.164332449795101 5.129375134247931 1:-0.236625 2:0.162804 3:0.05256 4:-0.146618 5:0.150697 6:0.208742 7:0.107159 8:0.134724 9:-0.0428888 10:0.0246782 11:0.323411 12:0.418984 13:-0.0714472 14:-0.533333 15:0.0458463 16:0.0935731 17:-0.28491 18:-0.418103 19:0.248844 20:-0.0401657 21:-0.0181384 22:0.256028 23:0.199656 24:0.426556 25:0.779666 26:0.165954 27:-0.555911 28:-0.743546 29:-0.377562 30:0.0820057 31:-0.236093 32:0.481075 33:0.350719 34:0.180684 35:0.311776 36:-0.245061 37:-0.452824 38:-0.178683 39:-0.162248 40:0.493295 
-0.8638570424416043 -0 0 1.772463361344703 1.422465416935026 3.703465723861701 2.373483496964916 1.362077256166508 0 2.555336524376144 0 0.1562451092561129 0 5.172412853287634 0.1582355678899122 1.109865661046441 0 2.221010550204726 1.125054757007611 0 2.803112015718512 0 0 1:-0.0441096 2:0.186477 3:0.0778842 4:-0.00157677 5:-0.0177972 6:0.133338 7:-0.185569 8:0.535539 9:0.00868917 10:0.311013 11:-0.134149 12:0.0349928 13:0.221075 14:-0.257208 15:0.361899 16:-0.0791525 17:-0.0963949 18:-0.0653563 19:0.0805644 20:-0.0769055 21:0.394067 22:-0.0193361 23:0.0498442 24:0.0350361 25:0.0729458 26:0.537108 27:-0.405847 28:0.449185 29:0.193099 30:0.24444 31:0.186466 32:-0.685119 33:-0.420943 34:-0.356944 35:-0.0603742 36:0.30906 37:0.0628745 38:-0.185524 39:-0.428939 40:-0.311439 
-0 -2.184150653553565 0 0 1.009363985039959 1.867696378134299 0 0 0 0.4391297188081575 0 0 4.381718343236118 0 0 0.461530588794378 0.3497697922426203 0 0.5129543758670888 0 0 0 0 1:-0.638323 2:0.209159 3:0.381183 4:-0.443504 5:0.31169 6:-0.562101 7:0.221231 8:-0.429638 9:0.671417 10:-0.0564791 11:0.223503 12:0.273407 13:0.0629993 14:0.395896 15:0.0861554 16:0.369475 17:-0.242805 18:0.173855 19:0.106168 20:0.43746 21:0.27484 22:0.342695 23:0.712745 24:0.357715 25:0.394007 26:0.614573 27:0.390093 28:0.339109 29:0.40831 30:0.463314 31:0.252792 32:0.219518 33:0.202568 34:0.00739269 35:0.345377 36:0.11385 37:0.0882454 38:-0.235644 39:-0.246322 40:0.0199031 
-0.1757349210967515 -0 0 0 0 0 0 0 0 0 0 0 0 0 0 0 0 0 0 0 0 0 0 1:0.234095 2:-0.0441118 3:0.194864 4:-0.403541 5:0.163242 6:-0.252381 7:0.0674235 8:0.0239783 9:0.262156 10:0.0127898 11:-0.0510612 12:-0.0862667 13:0.387901 14:-0.189623 15:0.177467 16:0.166244 17:-0.0546512 18:0.107273 19:-0.0921103 20:0.153644 21:0.23826 22:0.126689 23:0.0861371 24:0.144047 25:0.131785 26:0.580387 27:-0.0791292 28:0.635936 29:0.019073 30:0.218196 31:0.394888 32:-0.618681 33:0.233568 34:-0.369156 35:0.288269 36:-0.0178486 37:-0.115644 38:-0.29022 39:-0.549589 40:-0.333818 
-0.9802643476390989 -0 0 0.9125369315162559 0 1.058733658794518 0 0 0 0.1762970336195239 0.2963918141130124 0 0.975942936736087 0 0.4471424528580096 0 2.80467025177329 0 0 0.5752644486455216 0 0 0 1:0.766739 2:-0.166385 3:-0.32167 4:-0.150509 5:0.183067 6:0.365355 7:0.233322 8:-0.294132 9:0.217867 10:0.290091 11:0.213987 12:0.10764 13:-0.167171 14:-0.279678 15:0.637443 16:0.0140865 17:-0.466884 18:-0.195306 19:0.296855 20:0.0908608 21:0.102901 22:0.0362858 23:0.0631236 24:0.451166 25:0.29756 26:0.673029 27:-0.255587 28:0.336205 29:0.237674 30:0.0319705 31:-0.112648 32:-0.883132 33:-0.633981 34:-0.307519 35:0.468008 36:0.0101193 37:0.0775409 38:-0.226837 39:-0.562995 40:-0.0973571 
-0 -0 0 0 0 0 0 0 0 0 0 0 0 0 0.9118851059568726 0 1.138860219662612 0 0 0 0 0 0 1:0.226384 2:0.296512 3:-0.249524 4:0.0487427 5:-0.40651 6:0.315336 7:-0.293524 8:0.497897 9:-0.13642 10:0.35412 11:-0.315746 12:0.0849432 13:0.431431 14:-0.177428 15:0.444766 16:-0.321488 17:0.00677324 18:-0.148717 19:0.190481 20:0.00769078 21:0.374319 22:-0.135119 23:0.256267 24:0.227006 25:0.146679 26:0.825916 27:-0.135673 28:0.815787 29:0.144547 30:0.407443 31:0.260835 32:-0.483015 33:-0.0778975 34:-0.276498 35:-0.0495603 36:0.132636 37:-0.0769268 38:-0.0958549 39:-0.578833 40:-0.423105 
-0 -0 0 0 0 0 0 0 0 0 0 0 0 0 0 0.1110717059777187 0 0 0 0 0 0.06860614940411169 0 1:-0.283703 2:0.201079 3:0.130407 4:-0.170098 5:-0.128806 6:0.0172849 7:-0.159251 8:0.190082 9:0.352972 10:0.231883 11:-0.256334 12:-0.10841 13:0.614924 14:-0.56948 15:0.308108 16:-0.443121 17:-0.0940198 18:-0.098041 19:-0.0950733 20:-0.0212289 21:0.0995498 22:0.128716 23:0.0249224 24:0.369446 25:0.0703547 26:0.97776 27:-0.241394 28:1 29:0.120794 30:0.355128 31:0.552596 32:-0.811408 33:0.486871 34:-0.59953 35:0.482096 36:0.106068 37:0.220914 38:-0.325345 39:-0.396402 40:-0.325508 
-4.923243701423585 -8 0.3627645185921425 5.71568252990626 4.622338891446635 3.748874076421558 8 2.843465768820825 4.674440747092576 1.069765477294045 2.561890239973995 6.530158402981209 3.993143683316243 8 1.848111129433012 1.247001023526363 4.038977289999734 0 0.6078645110421752 8 5.651665074148886 1.246495882609212 5.352516828597362 1:0.236602 2:0.364752 3:0.171237 4:-0.607137 5:0.0344099 6:-0.364498 7:0.373918 8:-0.307631 9:0.636847 10:-0.0960332 11:0.237611 12:0.253574 13:0.315318 14:0.292354 15:0.018388 16:0.175014 17:0.0299385 18:0.652682 19:0.0586758 20:0.313957 21:-0.181629 22:0.0237117 23:0.211011 24:0.337925 25:0.559661 26:0.209928 27:0.393281 28:0.121221 29:0.375913 30:0.4575 31:0.334471 32:0.282068 33:0.120801 34:0.0966195 35:0.0481657 36:-0.14122 37:-0.221095 38:-0.267398 39:-0.248109 40:-0.102966 
-0 -0 0.03473367768581501 3.658009796931219 0 0 0 0 0 0 0.4776639468666942 0 0.8155920090572305 2.486393385918783 0.314486053194571 0 1.202075651059708 0 0 0 1.957398551829696 0 7.13506801918277 1:0.410362 2:0.506973 3:0.261803 4:-0.687707 5:0.534725 6:-0.311532 7:0.485701 8:-0.378461 9:0.614426 10:0.0328727 11:-0.169019 12:-0.00345128 13:-0.83766 14:0.0385093 15:-0.130738 16:-0.169238 17:-0.438787 18:-0.383295 19:-0.35064 20:-0.58492 21:-0.754624 22:-0.80421 23:-0.647819 24:-0.646055 25:-0.735541 26:-0.323748 27:-0.478353 28:-0.33984 29:-0.171534 30:-0.276801 31:-0.161735 32:-0.0665684 33:0.257294 34:0.156336 35:0.459431 36:0.114869 37:0.0662723 38:0.0479168 39:-0.0659284 40:0.027336 
-4.876009018341266 -0 0 0 1.372490869440122 1.408757778424271 0 2.594766079113472 0 0 0.5672971146931429 0 0.3725195224268722 0.5620596066373745 0 0.278834538478725 0 1.620911826381743 0 0 0 0 0 1:-0.140452 2:0.557846 3:0.303265 4:-0.690454 5:0.537534 6:-0.329107 7:0.459983 8:-0.395448 9:0.575236 10:0.222737 11:-0.158362 12:-0.0594784 13:-0.610682 14:-0.0859933 15:-0.130603 16:-0.0920642 17:-0.378328 18:-0.226282 19:-0.348005 20:-0.541992 21:-0.712197 22:-0.602035 23:-0.691679 24:-0.661318 25:-0.604041 26:-0.708794 27:-0.494478 28:-0.217487 29:-0.12627 30:-0.0853473 31:0.0444763 32:0.153701 33:0.138965 34:0.134767 35:0.274566 36:-0.0525269 37:0.0791765 38:-0.164239 39:-0.117676 40:-0.0926654 
-6.858412465114365 -5.604616151113066 4.08859356117703 8 5.081760187463987 3.326529499673499 4.86811553410277 5.940897821270275 8 6.001078182741333 4.442107505012077 2.650121083464202 8 8 3.375371308707737 1.677414952523524 7.224172348031964 0.786321594078096 2.980535987063265 8 7.979402611475429 1.145491268845827 1.78191654358804 1:0.399959 2:0.369858 3:0.0583678 4:0.316329 5:0.0884777 6:0.226961 7:0.0277597 8:0.340595 9:0.384429 10:-0.063431 11:0.822328 12:0.250506 13:0.57115 14:-0.373051 15:0.182332 16:-0.0906113 17:-0.224195 18:0.184912 19:-0.170258 20:0.13088 21:-0.193237 22:0.0810228 23:-0.191972 24:-0.0187269 25:-0.255344 26:-0.0339684 27:0.015124 28:-0.00657468 29:0.283279 30:0.0198565 31:0.057072 32:-0.107915 33:0.00462242 34:-0.38752 35:-0.0737505 36:-0.0111684 37:-0.0856195 38:-0.149553 39:-0.229808 40:-0.0991746 
-0 -0 0 0 0 0 0 0 0 0 0 0 0 1.021538213710006 0 0 0 0.03380329396266667 0 0 0 0 0.110941404773885 1:-0.0285531 2:-0.194044 3:-0.266372 4:-0.356623 5:0.0348769 6:-0.0400064 7:-0.339841 8:-0.294219 9:0.674645 10:-0.129668 11:0.324273 12:-0.75351 13:0.0435304 14:0.194415 15:-0.0612157 16:-0.255559 17:-0.143517 18:0.697275 19:-0.321794 20:0.209786 21:-0.254746 22:0.235402 23:-0.226677 24:-0.0921612 25:-0.116094 26:-0.420088 27:0.0735443 28:-0.22002 29:0.751503 30:0.0398264 31:0.753167 32:0.403252 33:-0.10542 34:0.107566 35:-0.589278 36:0.122833 37:-0.349452 38:-0.206867 39:-0.281521 40:0.166341 
-0.1751714755103218 -0 0 0 0 0 0.2914485240855063 0 0 0 1.133893937863805 0.02219085596129126 0.4008060301281305 0 0 0.07188620468311405 0.2024026392622993 0 0 0 0 0 0.8435463902690011 1:0.0136577 2:0.38194 3:-0.154539 4:0.342493 5:-0.2507 6:0.474305 7:-0.29263 8:0.73352 9:0.0893989 10:0.41529 11:-0.120357 12:0.107322 13:0.450919 14:-0.471297 15:0.65627 16:-0.350759 17:0.139826 18:-0.211179 19:0.155572 20:-0.326004 21:0.320271 22:-0.147554 23:0.0663145 24:-0.0362747 25:0.00495321 26:0.651759 27:-0.282563 28:0.707584 29:-0.0168705 30:0.312165 31:-0.0919142 32:-0.642168 33:-0.407662 34:-0.420577 35:0.0854407 36:0.142674 37:-0.00584952 38:-0.104793 39:-0.551031 40:-0.219634 
-0.01485726891400225 -0.1075684098787514 0 0 0 0 0 0 0 0 0 0 0 0 0 0 0 0 0 0 0 0 0 1:0.173908 2:0.900284 3:-0.140945 4:-0.204376 5:-0.0373626 6:0.26744 7:-0.00514532 8:0.236099 9:0.275487 10:0.388494 11:-0.345728 12:0.0428419 13:-0.830575 14:-0.0814141 15:-0.0613919 16:-0.344443 17:-0.2698 18:-0.560551 19:0.023865 20:-0.640032 21:-0.430003 22:-0.92151 23:-0.428057 24:-0.76978 25:-0.693009 26:-0.584355 27:-0.445924 28:-0.154454 29:-0.302691 30:0.000694694 31:-0.20668 32:0.293288 33:-0.0991119 34:0.46393 35:0.00169355 36:0.215375 37:-0.0369509 38:-0.0491614 39:0.0160639 40:-0.107018 
-4.133164683540914 -5.609350651764703 0 2.151680469173838 5.590825470220379 0 6.386185630039378 3.096624739619415 1.086545381220074 1.647012728334058 2.818791977660361 8 0.9478887592555383 8 1.370924546607795 1.144041597575588 3.808590162373611 5.031401259152123 0 5.117355009004416 8 1.271892374065032 8 1:0.498604 2:0.340918 3:0.213477 4:-0.334262 5:0.399606 6:0.0520977 7:0.322014 8:0.207913 9:0.55274 10:0.103448 11:0.426464 12:-0.15766 13:-0.0869765 14:-0.126616 15:0.155592 16:0.236662 17:-0.430626 18:0.15664 19:-0.231771 20:-0.204737 21:-0.513514 22:-0.543619 23:-0.402715 24:-0.541364 25:-0.442937 26:-0.334522 27:-0.234013 28:-0.215603 29:0.0565857 30:0.0377315 31:0.0575154 32:0.183704 33:0.323461 34:0.353528 35:0.427338 36:0.274663 37:0.133789 38:-0.0237045 39:-0.0322123 40:-0.0513341 
-0 -4.703651328350112 2.47239218953315 0 7.054775100310262 0 0.1575197721194604 2.006139213255153 5.109556964486418 2.281241120081304 0 3.754721044096497 2.602802691933729 2.760695424697082 0 0 1.024875457034904 0 0 6.30970474310797 5.884630232365178 2.335105978334193 0.9098364296587544 1:-0.441235 2:0.237406 3:0.284259 4:-0.503001 5:0.298176 6:-0.518567 7:0.255018 8:-0.291977 9:0.609127 10:-0.164698 11:0.219491 12:0.200103 13:-0.00687209 14:0.344292 15:0.170847 16:0.246699 17:-0.228576 18:0.253005 19:-0.0796253 20:0.347871 21:0.257929 22:0.333724 23:0.563948 24:0.414557 25:0.46099 26:0.434438 27:0.293353 28:0.207284 29:0.413926 30:0.386369 31:0.261986 32:0.251782 33:0.113812 34:0.0625487 35:0.277763 36:-0.0247033 37:-0.0743604 38:-0.0957937 39:-0.024176 40:0.00280077 
-0 -0 0 0 1.346561859784968 0.812757705434454 0 0 0 0.6830536662835177 0 0 0.08026443389824857 1.544384969981326 0 0 0 0 0.3293026410160296 0 0 1.027502647647265 0 1:0.0490018 2:-0.155811 3:0.458429 4:-0.36104 5:0.332239 6:-0.24037 7:0.148034 8:0.117096 9:0.460213 10:0.130608 11:-0.0386911 12:-0.0801774 13:0.446764 14:0.00194115 15:0.0714736 16:0.0668905 17:-0.127491 18:0.067661 19:-0.22555 20:0.154228 21:0.368279 22:0.252597 23:0.168779 24:0.215755 25:0.167725 26:0.544331 27:-0.070035 28:0.431227 29:0.170248 30:0.0828477 31:0.0878915 32:-0.986424 33:-0.381678 34:-0.491278 35:0.0623765 36:0.322868 37:0.162304 38:-0.122479 39:-0.593827 40:-0.289201 
